GNU Backgammon 1.00
250 128 5 0 0.1000000 1.0000000
-3.2585607
-2.5900450
1.2281625
3.9422688
-0.6415883
-0.9531738
6.7149105
0.1944719
-2.2097111
-2.5842164
0.5194035
0.5640939
-0.4467531
-3.4944041
-0.5259008
-0.1191185
3.0374875
-2.6688287
-1.2208116
-7.5469389
-1.5086439
-2.4908068
-1.7643906
-0.1139792
-0.8135256
-1.8099133
-2.7279131
-4.4359050
1.2783036
-2.5473955
0.4847545
24.0292339
-0.0737668
-0.5388331
-0.1381364
0.7684540
-3.0901644
0.5892419
-0.9572505
-7.1561885
0.0473427
7.0885739
1.7777736
-0.4695645
-3.0983064
0.2186630
4.7130222
-6.3201995
-0.2921654
1.8836374
-2.9966235
1.0592362
-1.7639042
0.5012357
1.5223629
-1.6102349
1.1146961
0.4389921
1.6867558
-1.5314448
2.3989143
-2.0476267
-1.2016666
-0.3661795
-2.3761420
-3.4901426
2.7830791
-0.2638955
-1.6373814
-1.8270273
-1.4279379
-2.3514769
-2.5352864
0.0057798
-6.3097849
0.2577573
-1.1531025
-7.1689806
-4.1973872
2.1550055
14.9887905
-1.1962309
-3.8057530
-0.6488113
1.7471635
-5.1555700
-2.2343602
5.9445739
0.8417666
0.5455469
10.2641668
2.0304799
-0.8591188
-2.3224285
-2.2325096
-1.7425627
-2.6289952
-0.3737656
-1.3985852
0.0437172
-0.5381187
-1.7015049
-7.9810929
1.2798617
-0.7723791
0.0443137
0.0594949
-0.0441275
-0.6597990
1.7438743
-0.0271269
0.4938076
1.5503972
0.6286132
0.3652415
-0.4277951
12.7531662
-5.8849382
0.5797646
-2.1684163
-2.4416311
0.4024261
2.2758780
-6.4022708
1.6612728
1.6418705
0.1375786
-2.0357885
-3.0940707
-6.3168206
-2.5193388
8.0539579
-1.3545263
1.2512231
10.5021133
-1.1832776
-2.5477152
-3.8755112
1.6408136
-0.7781814
-4.4071064
-5.1969390
5.1618767
-5.4172215
1.2446523
-2.6893473
-4.8289785
-12.3796797
-6.8090529
-7.3190923
-2.8819282
-3.9945297
-7.6268268
-15.5055428
0.6710181
3.0687535
3.4167757
-1.8529561
2.8330197
42.0864410
-0.0443572
-4.5197906
-0.6515599
1.0462570
-4.5054016
-2.4491754
-2.2966053
0.9191732
-1.7745417
11.6627674
2.8948493
-4.3052764
-5.3449230
-6.0360794
7.6015472
-15.4862700
0.4941516
2.3300068
-4.5378571
4.4430246
-3.4308062
1.2326292
3.1028867
-6.2765346
0.0807379
-2.1222024
2.3484819
-1.3299105
5.6274672
-1.3186386
-4.3337083
-1.3782251
-4.2942944
-7.4914465
3.6313491
0.1149227
-0.8143497
-31.2810478
-3.3601611
-2.4082716
1.8382140
-0.6601780
-13.1840506
-0.3832075
-1.0675039
-16.2631683
-9.3952093
2.8538907
26.4636784
-2.2140741
-2.2069647
-2.0498765
2.9568369
-2.6306751
-9.1076880
10.8996544
3.2862024
2.7842965
11.8026724
2.6343939
-1.9920418
-4.3210173
-3.3277438
-2.8732643
-5.6462650
0.5917448
-2.3306084
-3.6363730
4.7918100
-8.2929964
4.4532070
1.7897632
4.5761423
-2.0367994
-0.4307734
0.3324410
-2.9894140
2.4175556
0.4314408
0.2720794
3.6584272
2.4357255
-1.1540631
-3.5520713
18.6284351
-10.5865917
2.5390880
-3.2661614
-2.5944462
-0.3063520
1.6397710
-5.4378128
-0.4258650
2.8880918
0.4790961
-2.7433145
-5.0901856
-6.8803649
-1.7030262
8.6676960
-1.7567245
-0.4637396
14.8161888
-1.6290126
-4.4499316
-7.8600368
0.5647776
-1.9182917
-6.2259517
-12.4046221
5.7843933
-5.9427509
3.2647521
-5.6399808
-7.7942762
-23.1284256
-7.0148754
-10.7819872
-5.2711782
-5.8907485
-8.7202568
-22.0807133
-1.5393301
-0.7857663
3.9494729
-3.7507036
3.1052449
58.9981079
-0.3475991
-7.5359368
-0.8745569
1.5761104
-7.1308346
-2.7185528
-4.0702124
-3.9591479
-2.4329429
13.6492224
-2.6036015
-5.7593765
-8.5089016
-10.3180571
11.0909071
-20.1636047
0.5761294
4.1873074
-6.7218494
5.1058841
-6.3328152
1.9944756
3.5745182
-9.8166122
0.3732627
-2.3353205
3.8475506
-2.0434027
7.9093251
-3.6004915
-6.0727868
-2.7448344
-6.7250576
-12.3043890
2.1329706
-0.6555933
-2.4308841
-20.4931812
-5.7387242
-4.4736276
-0.5990860
-1.9211664
-22.0532227
-0.2746276
-3.1456738
-25.6265507
-16.2554016
4.9905572
38.7999725
-3.9757230
-8.3534346
-2.6063063
5.1712918
-3.6725829
-7.9463573
15.7808628
5.2023015
1.2599787
19.2700062
3.7316794
-2.7617755
-7.1282935
-5.3969460
-5.6263890
-8.6486340
0.0570409
-4.0547819
-4.3135252
6.5343876
-7.5963039
3.3759875
3.4631290
5.9284682
-2.8147416
-0.7438750
0.7153801
-2.8677390
2.8394599
-0.7518849
-0.4318914
3.9706178
0.2599356
-2.2190297
-7.0192223
30.7400150
-19.3633327
3.7383373
-6.2333360
-5.4766378
-0.9164650
0.3376212
-14.7052441
-0.0583026
4.3369923
1.4044393
-3.9934199
-4.6398025
-4.0987463
1.1368796
1.6517730
-0.7132900
-2.9287877
8.4435291
-2.5059481
-3.9246573
-7.7143216
-0.8916365
-1.6966910
0.6563392
-15.0018616
2.0233481
-0.6585963
3.3356445
-7.5408602
-8.7643576
-6.1172557
0.7898099
-8.9417572
-3.6991928
-2.4724874
-3.3462005
2.1549909
-4.2496552
-7.2120566
1.1187497
-6.8543696
0.7927213
31.0168228
0.0461863
-6.0394058
-0.5039325
-0.2322254
-3.6177483
1.0012177
-2.5069265
-11.6343613
-2.1211755
3.7369015
-8.1869564
-1.8640403
-7.6712875
-13.8329277
6.4836297
-5.4522858
0.1191634
2.4710886
-2.6668484
2.1302328
-2.6058967
1.7632177
0.1489599
-4.9454813
0.2228922
-0.4149596
2.0061998
-2.2007945
5.0324993
-3.3708451
-2.3306382
-2.8143132
-3.4275000
-8.9511833
-0.0698599
-1.6146218
-3.2522271
-1.2922722
4.7475753
-3.8508368
-4.5249724
-3.3650062
-18.7258034
0.8206435
-4.3478942
-11.2385607
-13.9599953
3.9723904
22.6907654
-3.7348831
-13.2220736
-0.2537922
2.5257127
-2.4106026
-1.2569706
9.9793797
2.3934922
-2.4462240
18.4703426
3.0205803
-1.3967241
-6.1044278
-2.6971731
-5.4510374
-5.7411060
-0.7527252
-3.1263478
-3.5448723
2.3064723
-13.5016651
-1.8795456
2.9034503
2.7976513
-2.3707991
-0.8090615
-1.7738776
-1.1469438
-1.1643397
-1.7948648
-1.4178253
1.6518662
-3.2726324
0.4624267
-9.1912851
23.5949745
-15.9713383
-0.2096450
-6.2037950
-6.3844247
0.0958519
-1.8403847
-14.5343056
0.7273867
2.4673004
1.5978359
-2.4547181
-2.8412268
-2.3624225
1.2588391
3.2967710
-0.9427994
-0.7671024
5.4653401
-0.7797090
-1.6924741
-3.4582715
0.8752200
2.0083103
-0.8982148
-2.9421759
-0.2616551
0.1946928
3.0605905
-2.7104273
-0.5248700
-5.4002042
-1.5994703
-2.2450123
-1.4153676
-0.3267241
-0.5229248
-0.7336091
-2.0554774
-4.2583413
1.5665116
-1.9241346
-1.9644988
22.1260281
0.2134388
-0.2286159
0.3787706
0.6786925
-2.6049240
0.9891392
-1.8442026
-5.3935885
-0.0892559
5.3870149
1.6166309
-0.4860494
-2.6742458
1.4466909
3.7398822
-6.3246608
0.1774623
1.9237307
-2.2216511
0.2968009
-1.8067631
0.5971668
1.0499171
-1.2598976
1.1587422
0.6054159
0.7551709
-1.1879784
1.9089338
-1.9384354
-0.8684616
0.0814239
-1.6304429
-2.5757735
1.7011881
0.0266170
-2.4037669
-1.9940221
-1.5491827
-1.2792350
-3.4109721
0.3559959
-4.7223525
0.5581648
-1.4228588
-8.0164471
-3.9143231
2.0153513
16.3845921
-0.2564259
-3.2286127
-0.8808690
1.0723413
-4.8038063
-1.8927051
5.7185669
0.5460237
0.4322007
10.0126743
1.7840800
-1.3326399
-1.9659665
-2.1527898
-1.4107045
-2.7497387
0.3100526
-1.2714480
-0.5784658
-0.7173028
-2.2763460
-14.1192188
1.2076925
0.0252797
0.4395298
-0.1857813
-0.9482450
-0.5234953
1.3441278
0.3071530
0.2332217
1.3471119
1.0107007
-0.5286198
-0.1754042
12.3053465
-4.4098830
0.4625878
-1.9517832
-1.2046973
0.5127476
3.4542391
-4.6013756
0.9299839
1.4969287
0.3382707
-2.2093146
-1.4987016
-6.6082544
-2.7715330
8.1512241
-1.9378568
2.1333044
10.3144197
-2.1515067
-1.5431497
-4.8850064
1.4976575
2.3086522
-1.3243769
-4.0883422
4.9870324
-4.4948788
1.0487365
-2.0984519
-4.8229575
-9.4736633
-6.3270450
-6.4187469
-2.4995155
-4.0945015
-7.6754546
-9.3244095
2.1857657
2.4139402
3.5316410
-0.6201760
-0.3086703
36.9175034
-0.0874523
-4.7243357
0.1423008
1.6305676
-3.7840345
-3.0664392
-2.6966794
2.2565315
-1.2048674
10.3538561
3.9613509
-3.5702102
-4.4436140
-4.4214087
7.1024103
-8.6387730
0.5136440
2.5316615
-3.9868028
3.0234981
-3.1298425
1.5487692
2.3228316
-5.2496686
0.2077587
-2.3992102
2.0607057
-0.1319698
5.2219481
-0.5992647
-4.7150631
-0.6066303
-3.0406985
-5.9570966
1.4848078
-0.0671719
-1.4879985
-0.4854882
-5.1791744
-2.3492284
1.2406638
0.0002574
-10.3791809
-0.5577889
-1.2546329
-3.2953587
-8.8178492
1.5750279
26.5165825
-1.5045217
-0.5776247
-1.6893266
1.0276664
0.8533084
-5.6457748
10.6192875
3.7704003
1.6263534
11.9592381
2.0854588
-2.4554467
-1.3922611
-2.7552307
-2.3141627
-5.9638786
0.9791258
-2.9119537
-3.1651645
3.5466828
-7.0501647
4.9541855
1.6987550
5.0561724
-1.2017071
-0.3700577
-3.9226251
-3.0546067
0.5880397
0.9310120
0.2782160
3.5168853
3.1435854
-0.3668987
-2.2485681
18.8152027
-7.8004117
1.7663254
-2.6431873
-4.4932446
0.2890741
4.1394458
-2.2936521
-0.8745844
2.9987521
0.8622548
-2.6377683
-2.8019218
-8.8812523
-2.0219333
10.4882851
-2.1100039
1.1171540
14.4622898
-2.2694242
-3.0513620
-7.9931526
1.1643116
1.5803332
-5.7229352
-8.9210424
6.0095725
-5.0805302
3.1007311
-4.2758813
-7.4031343
-18.9075470
-7.9205036
-9.7512770
-4.5826545
-5.5519495
-9.0234861
-18.9266567
0.3706982
-1.0537449
4.6649122
-2.7666714
-0.3957691
55.9213524
0.1642118
-6.9985166
0.1492346
1.9190892
-6.5054979
-3.0801184
-4.0707102
-6.6231694
-2.0433083
14.3151674
2.2616189
-4.1624131
-7.0647712
-3.6224575
10.0854769
-17.2243214
0.9733047
4.1394606
-6.2253995
3.1823881
-5.3416209
2.2975471
2.5837572
-8.4551544
0.3382823
-2.5982661
3.2362034
-0.5244176
7.8314633
-2.2854910
-6.0044351
-1.2049283
-5.0758300
-9.5167217
1.1200614
-0.7343214
-2.9968925
-2.0937250
-6.9642620
-4.1712365
-1.1212581
-0.7224898
-16.5181141
0.0680450
-2.7924867
-12.3551083
-14.5609989
3.7858703
40.1519012
-2.5523701
-4.2279358
-2.4387877
3.0145054
-0.9594364
-5.2964149
15.4087601
5.4698591
0.8114477
19.9185200
3.4685788
-2.9835567
-4.1725645
-4.6932602
-3.9447608
-8.8378954
1.0423430
-4.3355584
-3.9530408
5.1551371
-8.4111032
4.0550165
3.5584033
6.5139861
-2.1840265
0.0206700
-2.9190578
-3.6436327
0.7123455
-0.0056124
0.0605747
5.0432553
2.5063815
-1.9333251
-5.0718684
29.7904530
-14.7734737
2.6863263
-5.1830554
-8.4173269
-0.3527956
4.1361532
-8.0249090
-0.5119727
4.1765709
1.5447421
-4.0221682
-3.0851760
-2.8824406
1.4172480
2.7773848
-0.7717189
-2.6285083
7.8066068
-1.5113196
-3.1220028
-7.1810179
-0.8564413
-2.7382095
-6.5561271
-13.6203461
2.2087109
-1.4138620
3.5362473
-7.3690219
-6.4468298
-13.6904602
-3.2666466
-7.7069583
-4.6637449
-1.4874026
-3.2076452
-5.3259416
-8.9648523
-7.8652563
0.4735435
-4.4209456
1.1935577
29.0413742
0.3573857
-5.2639337
-0.1746859
-0.1305982
-3.5564218
0.7917802
-2.6718242
-9.9473515
-2.4396751
5.3007169
-6.4200034
-1.5491033
-5.7523780
-7.3001804
5.9737740
-4.6599064
-0.4632255
2.4446628
-3.4590895
0.7567261
-3.1468270
1.9249625
1.1858011
-5.1948128
0.3776283
-0.2116878
2.3771517
-0.4592659
4.9751520
-4.7885838
-1.6472619
-2.5481162
-2.7274296
-8.1016312
-0.8926731
-1.9041046
-3.8707979
-5.1831870
-5.9586463
-3.6232729
-4.0248461
-3.5876722
-12.8631487
1.5453911
-6.5030789
-24.3346901
-13.3240061
4.2527571
23.3537426
-3.8323088
-12.7901926
0.0678082
2.9741633
0.5668666
-2.2331634
9.7998867
1.3439963
-2.4433320
15.7671080
2.9708290
-1.3686222
-4.6031957
-3.8477471
-6.1113253
-5.4508753
-2.2641783
-3.7386568
-3.4774375
3.0423493
-6.0157185
-1.1383644
2.6453853
2.1591609
-2.2828431
-0.3926165
-1.5695270
-0.5887250
1.5007520
-2.6507239
-1.5453382
0.6890867
-3.3887622
0.1114026
-8.6468534
23.8232021
-15.6531019
1.1237134
-5.9011416
-2.9055269
-0.4050556
-2.5520577
-15.5689173
1.2437595
2.5865777
1.4702895
-4.2128882
-2.2130759
-2.6232576
1.2176892
3.3809705
-1.4536872
0.0031645
4.9192715
-1.3689495
-0.6883110
-4.1783590
1.4051512
0.8895379
-0.3740098
-2.6001313
-0.7774795
-0.5022970
2.9734130
-1.3157126
-0.5706843
-3.5852211
-1.3561586
-1.7500095
-0.8706570
-0.7428394
-0.3932795
0.2733266
-0.6297944
-4.8209982
1.6921023
-2.5339012
-4.4607244
20.9554253
-0.3372760
0.4089009
1.1130482
0.9895504
-2.1262975
0.5346425
-3.2672596
-3.4017878
0.1103807
4.9435186
0.7379249
-1.3972178
-1.9502494
0.4975728
3.5025907
-4.4659200
-0.2254770
1.5545013
-1.3725710
-0.6309690
-1.8722352
0.6680142
1.0849286
-0.8172066
0.6878815
0.5876729
0.4825578
-1.2447486
0.8434762
-1.5874689
-1.5305327
0.2496019
-0.8185089
-1.7780781
0.5950710
-0.0362947
-2.0280914
-1.5681573
-3.8519747
0.0433155
-4.1357560
1.0286717
-3.3710883
-0.1260919
-1.1261004
-6.4582562
-3.5596390
1.5215838
18.6606312
-0.2697817
-2.2599039
-1.3353318
0.5995343
-4.4467573
0.0474804
5.6532040
0.9422770
0.3819600
9.9780521
1.8304938
-1.7935921
-1.2726525
-1.7592605
-0.9723302
-2.8076305
0.1448690
-1.7794030
-0.8753785
-1.0547469
-1.9936773
-28.9249802
1.2341371
0.8496664
0.0879069
-0.5103139
-1.2606091
-0.4255706
0.4996094
0.7314454
0.1198890
1.2533216
1.4731354
-0.4334862
-0.2341202
9.4563122
-3.1166205
0.5890168
-1.3178370
-0.4076655
0.5820040
-2.6463542
-3.5245125
0.6367621
0.9536128
0.3076639
-2.0583282
0.7523270
-5.5784483
-2.7223406
8.3756313
-2.2060180
3.5805426
9.2034416
-2.4706492
-0.1945697
-6.4710584
1.4948789
3.9906454
0.9845397
-3.3641653
5.7396464
-4.5570517
0.9862493
0.4877434
-4.6534686
-6.2002678
-6.5876150
-5.8741617
-1.5097873
-4.0393376
-7.9059868
-7.5368404
5.4631791
3.0521276
3.3854899
-0.3237138
-0.0825128
33.0989342
0.0660064
-4.9219060
0.7389795
2.3688698
-2.9618785
-2.7416344
-3.1087322
-0.9374425
-0.8545761
9.7416687
4.1166821
-4.5564852
-3.3399050
-7.2655430
6.3714366
-3.4022691
0.6383637
2.4339242
-2.9778905
2.7740552
-2.9550326
1.4160585
2.7143891
-3.7446351
0.2308029
-2.2202110
1.9609871
-0.2079426
3.5583503
0.2895414
-4.5400357
0.0460093
-2.2607017
-4.1088972
-0.3782350
-0.1444892
-1.6329795
0.3851414
-6.9171910
-0.8291231
0.1084656
0.7840495
-7.4143267
-0.4766012
-0.6191155
4.5032372
-8.4951000
0.5850803
26.6642952
-1.3201556
1.9457616
-2.0303743
-0.0080423
0.3558888
1.5357283
10.7329321
3.9775786
0.6230270
11.5935831
1.6446711
-2.5546465
0.8728406
-1.8815516
-1.2753980
-5.9087601
1.1841642
-2.8959603
-3.2846379
3.6878238
-4.2249694
3.5869651
1.9899156
6.5141416
-1.8508660
-0.3257825
-7.9107280
-2.9207118
0.6252112
1.3042644
0.2320946
2.9543841
3.7437823
-0.0731284
-1.8315997
18.7659912
-5.5557714
2.0714123
-1.7957336
0.0038564
0.0671186
-2.3362637
-0.8882918
-1.5878268
2.2989395
1.1134652
-2.8219595
1.5122328
-7.6872840
-2.3869917
11.2943716
-2.4814680
3.2384198
13.3366413
-1.9964253
-1.4042656
-9.5796785
1.7576195
3.5641243
-2.6596503
-6.9364200
6.1758599
-5.9957967
2.8147299
-1.3981607
-6.4170833
-13.9076195
-8.8429785
-8.8155231
-3.3609416
-5.2193713
-9.3902416
-17.4354687
5.0634117
-0.0869684
4.5542798
-1.7606509
-1.1889850
49.3826408
0.4410321
-6.6441669
0.9904592
2.6687870
-5.7565622
-2.6822319
-4.0400772
-12.1580048
-1.5408694
14.0523634
4.2759619
-5.3422217
-5.6642261
-9.9524050
9.2883654
-9.0497551
1.0638040
3.9210944
-5.4049969
3.4162090
-5.1442685
1.8394811
2.9306686
-6.2270384
0.4420336
-2.5951796
3.0793023
-1.0207808
6.7278585
-1.1356335
-5.8978744
-0.2323444
-3.9808011
-6.7880154
-0.1199331
0.1092320
-3.2139347
-1.9836731
-8.0880165
-1.7941691
-1.4854087
0.7036393
-12.0071907
0.0480371
-1.9147772
-4.9560986
-13.1323557
2.4757681
41.2650528
-2.4811611
-0.3133000
-2.4455373
1.7229272
-0.9820893
-1.4104359
15.6216192
5.2903490
0.0316708
18.9463272
3.0986285
-3.1638072
0.2305909
-3.9982586
-3.0309138
-8.6940880
1.6463212
-3.9344780
-4.0659275
5.1370049
-5.4624319
1.7781236
3.7738945
8.1252537
-3.5790343
0.0832703
-9.3520250
-3.8390155
1.2099706
0.6843136
0.0496078
4.4584336
4.2355413
-2.5878077
-3.6376832
28.5282841
-11.1894178
3.2996042
-3.7389879
-0.4527647
0.2294416
-1.1388139
-4.7317243
-1.0014102
3.5522733
1.3792042
-4.2519736
-2.8212049
-1.9505560
1.3951730
3.5516844
0.1672306
-1.9575480
7.0353031
-0.9803615
-3.4979851
-6.6076875
-1.8823869
-1.0679630
0.1620366
-8.6463013
1.6826619
-2.7937324
3.5822201
-4.7176132
-3.8421564
-16.5987740
-0.1023633
-6.6523428
-3.7850804
-1.0790262
-2.3871915
-30.8307114
-6.4093566
-4.8932953
1.0103910
-6.0585589
1.0811117
34.2591515
0.6323422
-4.6398025
0.2432976
0.6854130
-4.3152456
1.0824753
-2.4414907
-14.1413059
-2.4344614
5.9956045
-2.2655804
-1.9052427
-3.9163680
-24.5091934
5.1473942
-7.2506995
0.3687183
2.8084466
-4.1598053
0.4976304
-3.1534607
1.0264536
1.2186131
-5.6749034
0.1073558
-0.3179298
2.4752586
-1.5140653
5.2853479
-3.5444562
-1.0894403
-1.9014062
-4.3346090
-7.7141337
-0.1514136
-0.6718975
-3.4402206
-6.3612452
1.7588567
-3.8315182
-4.5649962
-0.2107580
-14.0673084
1.5598605
-4.3056335
-24.9724274
-11.2602673
3.5778332
25.4687557
-2.7557213
-7.9733977
-0.3650630
2.7440684
-17.6085968
-1.6886353
9.4922047
2.7398746
-2.0230093
17.0984154
3.1955411
-1.0436329
-1.2261993
-3.4401541
-3.7026269
-5.4205966
0.0509018
-2.3582721
-2.5439267
1.4113982
-1.1458343
-1.2609696
2.7429001
3.0620067
-2.6873705
-0.1707391
-2.3103731
-0.8478131
2.6967533
-2.2562771
-1.5176872
2.4553573
-2.0360711
-6.8782320
-5.0906534
23.9918880
-11.6583910
0.6101246
-6.3722444
-4.7382698
0.3036489
-0.5183739
-12.7632322
1.2577728
2.1319008
2.1019394
-2.9935703
-1.6708111
-3.3632784
1.3107289
3.1968760
-1.6558896
0.3698730
3.8386741
-2.4273145
0.2350825
-4.4117260
1.1432440
-3.0660594
-1.0673438
-2.0735183
1.9175948
-1.3852185
3.0948055
-1.0419288
-0.9179704
-2.2790372
-1.3544710
-1.4184928
-1.0411441
-0.4327959
-0.3377553
-0.4256953
0.4764886
-5.4584827
2.2243226
-2.0002213
-8.2602358
22.3431988
-0.2418879
0.1070914
1.1040161
0.7678849
-2.0099888
0.9333929
-5.0544519
-2.7310858
-0.0411413
4.3622694
0.3016211
-0.7715567
-2.4594069
-1.3560903
2.6549997
-3.7273238
-0.6260152
1.2092266
-0.5899244
-1.2686846
-1.5995688
0.5843251
1.4289654
-0.8825971
0.4703826
0.4082853
0.0566923
-0.5752549
0.2640596
-1.4925526
-1.4010901
1.0553246
-0.3131706
-0.1930730
0.2666092
0.2095632
-0.5222126
-1.1709286
-4.3978677
0.6679751
-4.7026019
0.8440565
-1.0480049
0.0830000
-1.2220848
-2.5371099
-3.2480226
1.3167230
17.0435524
0.0431772
-1.6526672
-1.5475814
-0.0047681
-2.8522017
0.5281993
5.7073998
1.3016263
0.1099311
10.0666342
1.2518597
-1.8349061
-0.8794796
-1.0292825
-1.3281308
-2.6634409
-0.1422679
-2.3019538
-1.1100051
-1.5052613
-2.8031516
-10.2059584
1.9536424
0.7381334
-0.9611679
-0.4245454
-1.0599301
-0.6170117
2.1630654
1.0082586
0.6082811
0.5001805
1.6557418
-0.5996163
-0.4408296
9.1067371
-2.1470532
0.2559117
-1.3178215
0.5153483
1.0682191
-3.3679881
-1.5854259
0.1475977
-0.0163700
0.4113101
-2.0570331
-15.9214211
-5.3050966
-2.8925221
8.1504173
-2.3901331
4.4314346
7.5419712
-3.7765617
1.0848653
-7.2693014
0.7029039
1.9029883
3.5709729
-2.1638160
6.1124854
-4.5784483
0.7346108
1.5500251
-5.2055850
-4.0400662
-7.0486169
-5.4766340
-1.1120952
-3.7618396
-8.0280685
-7.8304839
8.3643293
3.9878235
4.0160670
0.0662396
-1.2543229
31.9576263
-0.2239774
-5.3170586
0.9893594
2.8224919
-2.3166893
-2.3414686
-3.7050021
-3.9840550
-0.7534844
9.0337706
3.9079943
-3.3710902
-2.7688143
-7.7859979
5.4516549
-0.7221269
0.6751577
2.2231288
-2.0433290
0.2123667
-2.5028472
1.5336192
3.5750325
-3.1882248
0.4119826
-2.4494219
0.4220546
0.9096103
1.4178642
0.5655296
-4.0067067
1.1012306
-1.9046656
-1.9628147
-1.4090853
0.4626857
-0.7050057
0.1280800
-6.7711110
0.2597451
-0.9856023
1.3374764
-4.2326727
-0.2653355
-0.8663030
11.8691816
-8.0203447
0.2421620
26.3048077
-0.9819962
4.0290785
-2.3375149
-0.7958921
3.8504074
2.5501812
10.5079298
4.9684453
0.1270286
11.2367182
1.1272306
-2.4459414
-0.4124548
-0.8877028
-1.0034692
-5.7809238
1.4518757
-3.7152557
-3.6702924
3.6930504
-4.2446914
2.3533871
1.9276087
7.9677558
-2.7972550
-0.7070156
-5.1697235
-3.4626105
2.9967523
1.3264843
0.4361123
2.4334970
4.0036511
1.8176095
-1.7684561
19.3509216
-4.1063128
1.3105352
-1.5264325
1.2625087
1.0413558
-5.4990163
1.5915678
-2.5434978
1.5896993
1.3159207
-2.7973938
-19.1274166
-6.9367323
-2.3659739
11.3710508
-2.6167138
4.4452491
10.9913740
-3.6883914
0.2698563
-10.3156433
1.0282497
1.3285010
0.4606736
-5.0729880
6.1029720
-6.1799088
2.8709230
-0.9911994
-6.1263247
-9.7706394
-8.6534338
-7.7746487
-2.5236490
-4.6804581
-8.9373579
-10.5887566
8.5711060
1.2365066
5.5700169
-1.5376080
-0.3258559
48.6495895
0.4935224
-6.9575086
1.6239506
3.3234997
-4.7140069
-1.6804135
-3.3622749
-13.5511637
-1.2227892
13.5453367
5.2700491
-3.7615724
-5.2442479
-9.8801384
8.1467514
-5.6071916
1.0797861
3.6620383
-3.7410862
0.4951099
-4.3236589
1.7607167
3.9989495
-4.9722404
0.9322039
-2.8653746
1.3565706
0.2039423
4.5892029
-0.7184181
-5.0770283
1.4214395
-3.0938253
-3.2807617
-0.9674273
0.9886277
-2.2805955
-1.9483734
-6.9285302
0.4323897
-3.1065600
1.7854381
-6.6877780
0.6098388
-1.7755193
3.5942304
-11.9466801
1.5089488
40.4345703
-1.3520370
2.7625785
-2.5666580
0.0603927
2.7654164
0.7501680
15.2465267
6.3823619
-0.5399980
18.8642864
2.1345658
-3.1347144
0.5607533
-2.4793453
-2.1854548
-8.5925035
1.8591834
-4.8070574
-4.1920648
4.6664104
-5.8122191
0.3376463
3.8170154
9.4205074
-4.6416979
-0.1866221
-8.1199961
-4.5950713
4.1396017
0.9350738
0.6080604
3.9550292
5.3409581
0.7045246
-2.8673227
29.6552582
-8.3094759
2.3886712
-3.3901811
1.2343609
2.1408849
-4.9895973
-1.2585577
-3.3130660
3.1559031
1.7878011
-4.0204325
7.2410922
-4.4758396
1.9917099
3.1308279
-0.6820928
-1.3728948
6.4198990
-1.2537155
-2.0832181
-5.9078445
-2.3218417
-1.2218878
-10.7795439
-8.3778019
1.8867444
-1.2096254
4.1184564
-5.4868445
-4.4566693
-14.1529665
-0.9140251
-4.6742520
-5.0163922
-1.0599145
-3.9330287
-1.9937125
-2.5818706
-6.9304657
0.6048174
-3.6847982
1.1185325
28.5077877
0.0868386
-2.3178380
1.0879354
0.2447899
-5.6490569
0.3224700
-1.9453931
-15.9257040
-1.6327831
4.8332310
-0.0245694
-1.6888088
-4.1662049
-5.7278614
4.4042311
-6.7268791
1.0890226
3.0781226
-3.2555566
-0.3815880
-3.3084226
0.5935740
1.5101808
-6.1782556
-0.2256632
-0.2957624
1.8599775
-2.4933994
5.1797371
-2.6575634
-1.7256489
-1.4259113
-2.9510348
-5.5546064
0.3442288
-1.4798651
-2.4536393
-3.2745223
-3.7510669
-1.3420326
-4.6421351
0.8535289
-8.6392803
1.0371028
-2.8288341
-24.0125332
-9.0719843
1.8403308
26.2424984
-2.0235152
-4.9238315
-0.9398809
0.5103913
1.8405831
-1.1804456
9.0475502
3.1320047
-1.9882499
16.4176788
3.3723323
-0.8999104
-4.4066582
-1.8966060
-1.2287768
-5.2144485
0.8635192
-1.8014140
-3.5376747
-0.4590143
-2.8479869
0.1090152
2.9342308
2.3189185
-1.3641526
0.4957155
-2.4190376
-0.4853632
4.7563052
-1.6948901
-1.0732174
2.8234873
-0.5259810
-3.0316405
-2.6669991
21.9602928
-10.4147406
-1.1030383
-5.5505924
-1.8306245
-0.2269934
-0.6114981
-9.3142376
0.3946185
1.7554318
0.8252996
-2.9056852
-1.6768755
-2.2600591
1.3557614
3.1501055
-1.6954492
0.6851470
2.6282220
-2.2663629
0.6127888
-4.6529651
0.6949254
-4.4291306
-1.5444392
-1.4723265
2.9706323
-1.2198162
2.8654089
-0.6296020
-0.8814823
-1.9818656
-1.6026430
-1.3250754
-1.6343839
-0.5576385
-0.5507045
-0.5203416
1.5340720
-5.7690263
1.3710722
-1.4014425
-10.7192812
21.4372196
-0.1352709
-0.3747590
1.2589537
0.4834903
-1.8932067
1.6097645
-5.8944426
-3.2298784
-0.3646795
4.0048370
-0.2327295
-1.4901719
-2.8604937
-1.4789718
1.7553662
-3.2298400
-0.5463309
0.7808393
-0.2592588
-2.1393087
-1.7158095
0.4429806
1.2528135
-0.6432351
0.0263017
0.3536398
0.2043565
-0.6478217
-0.8392673
-1.3671312
-1.1042229
0.9007813
-0.0450123
0.0188466
-0.6592917
0.2967210
-0.2293056
-1.3391749
-5.3935418
1.1807250
-5.0994081
0.4007177
-0.3440728
0.0937074
-0.9286878
-6.3027167
-2.7095032
0.8269419
16.0044956
0.0222151
-1.1106288
-1.4433349
-0.3063217
-3.0506387
0.0074173
5.7273922
1.5468338
-0.4973743
9.3409300
0.8430871
-1.7990785
-0.8514023
-0.6303289
-1.3589863
-2.6011026
-0.6606541
-2.0514123
-1.7644742
-1.1592830
-2.2728951
-8.6679583
2.0929682
0.7521295
-1.6847490
-0.4028297
-1.1214914
-0.8654239
2.2616773
0.8947057
0.2592802
0.3474604
1.9913491
0.0230023
-0.3423334
7.6282306
-1.9976871
0.6410465
-1.0042714
0.9201120
1.2925563
-1.9245298
0.6923997
-0.2332380
0.1106343
0.3066917
-1.6299748
0.8653082
-5.0251751
-2.9796355
7.7506776
-2.5206931
4.9259577
6.0752363
-3.9803097
2.2193935
-8.1794376
-0.1082905
1.7481037
5.1673684
-1.1429268
6.7401252
-4.1797533
0.4276517
3.8809392
-5.6119761
-2.6063819
-6.8780742
-5.0252013
-1.0579064
-3.7248204
-8.1323271
-7.1006236
10.3489838
4.1755342
3.7263803
0.6603116
-2.8071172
27.8041096
0.0067005
-5.7388444
1.3912907
3.3413606
-2.0130503
-1.4139247
-4.4751868
-7.6184692
-0.7106258
7.9700108
4.2422719
-3.3127713
-2.1519928
-7.1797752
4.6106954
-1.2324656
0.8297300
2.3344972
-1.4558146
-1.4785856
-2.1161358
1.6184968
3.7851903
-2.7118714
0.5321552
-2.5531297
-0.7097709
1.2413746
-0.2728833
0.9925299
-3.4586806
1.4163026
-1.4754709
-0.7524022
-1.8258681
1.5971887
0.7673004
0.6297945
-4.1871572
1.2499467
-1.9413822
1.5760015
-2.1659789
-0.4736471
-0.4819638
23.8428001
-7.1744943
-0.6124771
24.6518173
-0.6254641
5.4588413
-2.0637181
-1.6234605
0.4652943
1.9859784
10.3689470
5.8379498
-0.5797086
10.5541267
0.9010602
-2.5291574
-5.5543733
-0.3513350
-0.3642504
-5.4953728
1.2378695
-3.9034305
-4.2337847
4.1574578
-3.9156487
2.2590108
2.2720242
9.6234865
-3.4326577
-0.7928468
-5.0196667
-3.9316533
4.7709270
1.1800823
0.2217068
2.2186606
4.3321762
1.7365308
-1.6046209
18.6741848
-2.9295628
1.0522163
-0.9596868
2.3465149
1.2815908
-3.8038411
4.0274868
-3.3601182
1.1592098
1.3827469
-2.0172062
-2.6763806
-6.4524860
-2.3475375
10.9350739
-3.0830870
5.3915224
9.0700169
-4.8885875
2.1256475
-11.0514221
0.2593366
0.3411435
3.4657323
-3.5158005
6.2546196
-6.1498003
2.7222824
1.5909424
-6.5713339
-6.7547212
-8.0090542
-7.0622549
-2.2967632
-4.4801373
-9.5717173
-10.7171221
11.0115786
1.4780893
5.2146297
-0.9837569
-1.6762311
44.6986694
0.4899106
-7.3980660
2.1982131
3.7971907
-4.1150470
-0.9963048
-4.1513567
-16.0855370
-1.1489313
12.0166054
5.6491356
-3.4474344
-4.6469836
-12.5525265
6.8604894
-4.6948147
1.1819494
3.5130968
-2.9994078
-1.2890210
-3.7608809
1.7342771
3.6575887
-3.9142165
0.8983949
-2.9741881
-0.3147401
0.7339169
2.6118729
0.0449615
-4.5581732
1.9008713
-2.4395320
-1.3681605
-1.5391697
2.2810712
-0.6285234
-1.2465888
-4.9049492
1.5261571
-4.3082566
2.0857308
-3.2866211
0.2182244
-1.5412791
16.6560822
-10.6843948
0.3142932
39.7025108
-0.8468219
4.7549090
-2.3944530
-1.2559993
0.7279711
0.4356602
15.3631687
7.6879096
-0.8961527
18.1249123
1.6588308
-3.3606231
-5.9517651
-1.7415477
-1.2010028
-8.3284721
1.7963665
-5.0677876
-4.7087259
5.0253773
-5.4178185
-0.0941269
3.6548688
11.2255249
-5.4007154
-0.5958509
-7.6563210
-5.2203431
5.6997972
0.9272923
0.5416631
3.6167002
6.2162299
0.7364138
-2.5994554
28.8936939
-6.1044331
1.5208797
-2.3180876
2.4426327
2.3712327
-4.3591185
1.9365699
-4.8732548
2.4067647
1.7688421
-3.0900362
-1.5126641
-2.9863973
2.0499392
4.8221707
-0.7566774
-1.2224838
4.4096026
-2.4356587
-1.6201993
-6.1019683
-1.8449240
-1.3610575
-8.3905268
-7.5080857
0.9975333
0.3765281
4.4902673
-3.9481893
-1.9664434
-12.6347742
-3.8927963
-3.9226635
-3.4018021
-0.7805964
-3.5656662
-7.5196910
0.2767068
-7.7127237
1.3235797
-2.8916683
0.9726412
24.8921432
0.6359814
-2.7254655
2.3393874
0.1426114
-4.9205513
1.0748557
-1.5696970
-13.4990950
-0.8445218
7.6661186
-0.3257870
-1.0585066
-4.4165397
-9.2202930
3.8313608
-9.4936590
0.6312895
2.4268026
-3.0427175
-0.6319367
-3.5570133
0.3393705
1.0971413
-4.2352490
0.1954065
-0.5449525
1.7279305
-2.6153362
4.3862653
-1.7295734
-1.4421465
-0.1877235
-3.2028108
-2.9418893
1.5033998
-1.5220598
-2.4915760
-4.5567517
-0.8399602
-0.8116421
-5.0800557
0.7343496
-4.6107612
1.6582137
-3.5638740
-14.4507570
-8.0840607
2.1421547
25.7680836
0.2152957
-5.2568874
-1.2441422
0.4344313
-5.1470513
-4.3407722
8.7606001
2.2466359
-2.5102656
15.5564604
2.8972979
-1.3656462
1.3306783
-0.9566811
-0.7962590
-5.0890174
-0.6551917
-0.2467537
-1.7698252
-0.2034693
-2.6174126
-1.0944299
3.2488132
1.8549463
-2.2921350
-0.0576982
-2.0734258
-1.4787551
5.5196371
-1.7394351
-0.5144261
2.4663749
1.0660114
-2.1983848
-2.2999985
22.8903503
-8.2189732
-1.2862661
-4.9076791
-1.6968271
0.2469378
-0.9261079
-8.1586914
-0.3320827
1.7045679
0.7647501
-2.5830123
-1.9607553
-2.4733684
1.0208225
2.7119696
-1.7997454
0.1319703
1.4955164
-2.7205777
1.7157226
-3.4251714
0.5791639
-4.9534273
-1.4503766
-0.2269162
2.2930472
-1.6883867
2.9769018
-0.5668693
-0.8313738
-1.1480289
-1.5937698
-1.0480359
-1.7685292
-0.5049798
-0.7002099
0.2207203
-1.7490689
-4.9729347
1.0996189
0.5075561
-20.3902836
20.4961052
-0.4693393
-0.7052303
1.0261008
1.0833054
-1.9204434
0.0114963
-8.6048632
-2.5187135
-0.3762461
3.4013357
0.0693542
-0.2902749
-2.8345325
-0.2965498
1.1296792
-1.9101908
-0.2930104
0.9083923
-0.8996993
-1.1992643
-1.4010520
0.0501435
0.9145648
-0.6401377
-0.1907554
0.0047882
0.4022478
-1.2164595
-2.1079998
-0.8940679
-2.9392660
1.4613436
-0.0238020
1.0590194
-0.5897904
-0.0743115
-0.0020954
-1.6657847
-9.8098907
-0.2381765
-4.2567730
0.5548130
0.7690374
-0.2003849
-0.6084427
-1.9745971
-2.9707012
0.0888331
15.6540184
-0.9605101
-0.9749990
-1.3790569
-0.8916649
-2.5587885
-1.3147279
5.4653959
1.8564938
-0.7971230
9.1052418
0.2168829
-2.0504320
-0.9595803
-0.3056712
-1.3839577
-2.7931123
0.7583931
-2.4829645
-1.3218277
-1.5848751
-0.8731545
-9.0930433
2.5850697
0.1450868
-2.1629179
-0.2529293
-1.6484132
-0.0538956
2.9285824
-0.0635045
0.1289725
1.2530590
1.8735269
1.3353328
-0.2812316
9.1192751
-1.0159798
0.2078413
-1.6823925
-0.6827434
1.5071132
0.0744848
7.3714113
-0.1896061
0.0861974
0.7453555
-1.2363715
0.1265308
-4.6265326
-3.3751271
6.9925232
-2.7291410
4.6709456
4.0100164
-4.0935774
3.0822163
-8.7578983
-0.3174237
0.4947896
4.0607786
0.9744855
4.0948243
-3.1777041
0.0445606
3.9434044
-4.8821425
-1.0167058
-6.6695132
-4.3404708
-0.8291174
-3.9054894
-8.2472658
-3.1528707
8.5108538
6.1030598
3.2967787
0.5116659
-3.5399706
26.2530174
-0.2921105
-6.9439335
1.3013693
4.2852530
-2.0762632
-1.6906202
-5.2745585
-7.3920269
-0.2778280
6.1876483
6.1974983
-2.4491975
-2.9871562
-4.4059348
3.6929448
-1.1991878
1.1425619
2.5936484
-1.6214207
-2.7162061
-2.4335415
1.3246546
3.2994978
-2.1256137
0.7737389
-2.8969738
-1.3508519
1.1008078
-1.6726197
2.8579636
-4.2621827
2.3346164
-1.1752257
0.9186131
-1.7009974
2.6468523
0.7911509
0.1450285
-6.4428873
0.6818300
-0.9772180
2.2693412
0.1060416
-0.9398540
-0.9974894
9.3771858
-6.7203207
-0.9065700
23.2368488
-1.8154109
7.3828211
-1.8993952
-1.3895168
-1.9166934
0.0766837
10.0799017
5.5005641
-2.1014946
10.0214062
-0.0418307
-2.9696090
-3.8561873
0.6704606
-0.4972694
-5.2058907
2.8618948
-4.0343275
-4.6912975
5.8396559
-4.5070205
-0.2926574
2.3726046
9.1495228
-3.7189970
-0.7934129
-5.9593601
-3.1572561
5.7833929
0.3453074
0.0080799
2.6295242
4.4872355
4.0721383
-1.6677432
17.7286568
-1.4880332
0.8300107
-1.1438092
0.3019502
1.9898981
0.6441960
11.0846691
-4.7509813
0.8887182
1.9293306
-1.9046772
-1.5760198
-5.3925982
-2.6907172
10.2028236
-3.5057235
5.5770273
7.3976941
-5.7355356
3.3570240
-11.1593695
0.1507988
-1.0381447
3.4801948
-1.0722510
3.3442073
-5.5500402
2.4513109
1.7444510
-5.9754314
-4.2617207
-7.6184273
-6.1124415
-1.8572065
-4.6768017
-9.7802534
-8.2342319
9.6800003
4.0911021
4.7773771
-0.9710226
-4.0502176
42.9538574
0.0938948
-8.3216295
2.4334028
4.7444167
-3.9232292
-1.3806674
-4.8990550
-9.8678284
-0.8037711
10.0801544
7.6559839
-3.1270339
-5.4112229
-10.6693783
5.9671998
-3.6669307
1.4144884
3.4911046
-2.9165528
-2.7272556
-3.9328554
1.4640318
3.3004825
-2.9734406
1.0223792
-3.4510367
-0.8902343
0.3392695
-0.1701120
2.0835805
-5.3875532
3.1681681
-1.9205136
1.2615250
-1.6013621
3.2377083
-0.3779911
-1.1464144
-7.2830067
1.1046395
-2.6844904
2.8147938
0.5936811
-0.4100602
-2.0217972
3.9088118
-9.7403154
-0.5241144
38.6539841
-1.9462334
7.7157674
-2.3634431
-1.6532313
-0.5853018
-1.7718207
15.1427917
7.6654310
-2.1703532
17.0320244
0.6487230
-3.8451412
-6.0530982
-0.3187197
-1.6515137
-7.9383035
3.3292351
-5.4959416
-5.2334695
6.3825173
-5.2194457
-3.8378630
3.6912689
11.0899353
-6.3067417
-0.7107497
-8.1560955
-4.4544177
6.9519620
0.3530124
0.5532600
3.9292271
6.9336071
3.5014820
-2.3600821
28.3462296
-4.0232735
0.7371585
-2.1082010
0.7414266
3.0167868
0.0459523
9.5127983
-5.9469762
1.7915694
2.3151529
-2.9443429
-1.4466175
-2.7227964
1.6885583
5.2047009
-1.3215747
0.2983977
5.1689854
-1.1789677
-0.0944946
-7.0909328
0.2666064
-1.0949109
-4.2499576
-5.7844830
-0.4762176
-3.2119837
4.5547175
-4.5836339
-1.8180947
-9.6275692
-1.9851238
-4.1873522
-3.0203512
-0.8206252
-2.8853672
-10.3741627
0.0695467
-4.7667933
0.7969269
-2.8616586
2.2887855
29.0453987
0.5105950
-2.2439306
2.8559887
1.8782288
-3.2254200
1.7036197
-1.4908048
-7.2541990
-0.7978044
6.4550266
2.5224736
-1.3276706
-3.7570488
-11.9842224
3.8711917
-5.1753750
0.5746520
2.7058191
-2.8852196
-0.4132982
-3.2657166
0.6887836
-0.1879909
-1.5680771
0.9907233
-0.6565515
1.0901423
-1.7414157
4.2340431
-1.1933503
-1.4139374
-0.5493798
-1.6466528
-2.5406685
2.3332200
-0.1089097
-2.8956151
-3.7297835
-2.1668413
0.4825509
-6.1890526
0.8705155
-3.5617712
1.4984879
-4.2843404
-12.6137409
-7.1908488
1.7585281
29.2484322
-1.1541901
-1.8166727
-0.9133476
1.1639073
3.8545632
-2.8049831
9.7654781
2.5013528
-2.2216728
17.4009476
2.5217814
-1.7610714
-9.3495598
-3.0031359
-2.8351483
-5.6370649
0.3983341
-2.8129675
-0.0776591
1.6229601
-3.3618751
-0.9066681
3.2246065
2.8322439
-3.5275083
-0.1574888
-5.3057117
-0.4152377
3.4078417
-1.2525616
-0.9310142
1.8192463
2.7719545
-1.8262852
-1.8396081
21.7339573
-6.3975034
0.5977625
-2.8703701
-0.7013597
1.6268107
-0.5157017
-6.6669774
-0.8715573
1.1551431
1.3108227
-3.8594131
-0.8182417
-1.3184571
0.6779821
2.6056588
-1.6429970
1.0531298
1.9290826
-1.7533804
0.6892353
-1.7301584
0.3334668
-2.0861959
0.5742787
-1.6950190
0.4103498
-0.9761540
2.2492938
-1.0940493
-1.0519770
-1.8792790
-0.9298352
-1.5497504
-0.7173379
-1.1599760
-0.0350156
-0.2566589
1.9414247
-1.4635963
0.5976710
-1.4691157
-14.5758171
13.5637941
-0.3340797
-1.5286092
0.7994773
0.2127509
-1.7752873
1.4431968
-5.8687901
-1.7280465
-0.7553129
3.0585470
1.8061454
-0.7604882
-0.8878028
-1.5599923
0.6342750
1.3387944
-0.3738005
0.2082443
-0.9449968
-0.1225103
-1.3293611
0.5019098
0.4458876
-0.8617824
0.4613748
-0.1034133
-0.0125086
-0.7709982
-1.6183804
-0.5844505
-0.9265823
1.4024725
-0.4278655
1.5643513
-0.6345863
0.3402792
-1.3235853
-0.7854061
-10.3161020
0.1671100
-1.3737704
0.1050341
1.9234743
0.0356454
-0.1896977
28.7961693
-3.2513959
0.4320626
14.2057199
0.3727294
0.6880171
-0.9683417
0.0864961
-0.1431872
-0.5263013
4.7440114
2.3102231
0.1657169
10.7903156
0.8786699
-1.7585822
-1.3083915
-0.1173962
-0.9962848
-1.8204244
-0.3453034
-1.6439985
-1.0341477
-0.0895199
-0.7257840
-4.5236406
1.7335409
0.9496239
-2.2187510
-0.7412974
-1.6094352
-0.9645197
3.9385331
0.2826669
0.4471203
0.8096716
1.7674803
-0.0575943
-0.5819061
5.4835944
-1.7116796
-0.0469569
-0.7781343
-0.4472380
1.4331363
1.0935637
-0.0462043
0.5482937
-0.1788378
0.7405886
-0.7023982
-0.6451158
-0.6117105
1.7097446
5.8534303
-2.0233204
1.4798771
3.8732710
-2.6046417
1.1071457
-3.2868588
-0.6725169
-0.2704160
0.2029215
-3.8492675
-0.8288356
-1.7244415
4.7323871
-2.6088612
-2.0354881
-4.4127989
-2.3454204
-2.3324783
-0.7587754
-1.5294458
-3.4603689
-3.5675576
2.3102255
-0.6694643
1.1154889
-3.4525476
-2.8814096
26.1107483
0.5310938
-5.2062507
1.7465675
2.7789905
-2.8236003
1.5184765
-2.0513470
-2.2073915
-0.0605649
7.8915234
7.2826848
1.6251944
-1.9390312
-4.3455381
2.6860240
-2.3981030
0.5038053
2.5616596
-2.5715992
-1.0733957
-2.4979453
1.3318268
2.1599517
-0.5680463
1.0591506
-0.1998169
0.8139312
0.7457303
-4.1671848
-0.1090980
-1.8027859
3.2466977
-0.4680654
3.8813429
-0.5503207
0.9638787
-2.9737079
0.7653727
-0.1648060
-0.2382600
-3.7819424
1.6949213
4.8878655
1.0906752
-2.1402726
-28.1472702
-6.4292245
-0.0206785
22.4608727
-0.6067241
1.8074126
-0.6313316
-1.7013377
-2.9690673
-2.9537978
7.7773976
3.6007705
-3.0713429
18.1443958
1.0781510
-2.0982471
0.2499151
0.0558929
-1.7314482
-3.7003841
2.5986776
-2.8748848
-0.1419866
1.4650917
-0.6997624
-7.5537243
2.8679907
2.9360631
-4.3137698
0.1266329
-4.6458621
-2.0064569
7.9202952
-0.9504942
1.1923343
1.9138047
3.2652895
0.4488931
-1.3898172
18.8566971
-3.1583767
-0.2474349
-2.1793573
1.6316402
1.9137442
1.3329009
-2.4206197
-1.3623365
0.5703462
1.8435593
-2.3176644
-1.0909294
-1.1279601
2.6955750
8.8696623
-2.9425414
2.5430655
6.1643767
-4.7268863
1.5805544
-6.5600424
0.0068475
-2.7144177
-0.4237817
-5.8647923
-1.6457149
-3.3386812
7.4611955
-3.7334738
-2.0419683
-6.5255451
-2.9382401
-3.6756380
-1.4569925
-2.2429159
-5.2919025
-6.5431142
3.9219940
-2.8670561
2.3028052
-5.0372534
-4.1445651
40.0961418
0.5605212
-6.0356774
2.5063851
3.0525138
-4.2527943
1.5395330
-2.0735574
-4.2530909
-0.6073502
11.7572088
11.3256302
1.4358785
-3.3964899
-7.0917010
4.0729966
-4.4489083
0.4069401
3.0860662
-3.8196099
-1.1221482
-4.2099609
1.5805088
1.0926659
-0.7261918
1.7020186
-0.2055785
1.5478653
0.5212585
-4.3201880
-0.7560509
-2.6100874
4.2845368
-1.1577672
4.7186580
-0.7765176
0.8044550
-4.3051434
-0.4586067
-0.8258818
-0.1045495
-5.1813622
2.4748318
6.1815295
1.4946572
-3.3767114
-32.7640991
-9.4868965
0.3950559
36.4627647
-0.6188936
2.4014902
-1.2622232
-1.2543932
-3.6622417
-5.0248322
11.9845572
5.5386610
-3.2557225
27.0196095
1.9945878
-3.2241728
-0.5006800
0.0538561
-3.1420391
-5.4577088
3.4268155
-4.0864854
0.3213131
2.8207636
-1.2322644
-11.6572723
3.8473539
3.9744585
-7.0040050
0.0979643
-5.2544260
-3.1942391
10.0626669
-0.9719157
1.8042351
2.7202229
5.0918279
-0.1064118
-2.3465285
27.7026043
-4.7609859
-0.6829351
-2.7926731
2.0914459
2.6163957
2.3396285
-4.1230850
-2.4016244
1.0830336
2.5586562
-3.5881126
1.2458210
-0.7440451
1.1885346
4.4495206
-0.8218539
1.3561859
8.4246168
-1.8559842
0.1101410
-7.0709090
-1.2902839
-0.1763458
-1.5093102
-6.3739204
-1.3031244
-3.3989332
4.5658641
-2.8994942
1.0799010
-7.5603862
-2.2460775
-1.5204054
-1.8444283
-1.9642394
-2.1491072
-0.6723030
1.4650942
1.5986335
-1.8390731
-3.8882198
1.5212803
25.0105648
0.3298970
0.3395805
2.2673402
1.0563124
-1.8884081
0.9980432
-1.5490161
-2.4514506
-0.1716908
5.5319257
3.7044263
-1.7137735
-1.5082051
-6.1409411
4.9304147
-4.1076622
2.0578344
2.9912298
-2.8830984
-0.5004447
-2.8318274
1.0945971
-0.0707882
-1.8097053
1.6124542
-0.3231269
1.5950450
-2.0709743
4.5108824
-1.6958593
0.4672973
-0.4876022
-1.4692677
-1.0560917
2.6156185
-1.3239758
-3.4067545
-3.6620679
0.1747122
0.4335671
-6.7034779
2.3227983
-0.9980959
1.3606539
-0.2993052
-7.6650300
-5.8823104
0.4942970
27.8632030
-1.6452167
0.6637753
-0.7825769
1.0606815
-2.1353717
-5.1831393
4.8174052
4.0087290
-1.4654720
17.1400032
3.1314983
-1.4988062
-2.2659357
1.5477298
-2.4502656
-2.1310706
-0.5982775
-1.5439974
0.9013860
2.8523152
-0.2015668
-1.5707185
2.9047079
2.6704018
-4.6815934
0.2414951
-4.3765969
-0.8462331
6.7290936
-0.6900695
-0.2979432
2.0238421
2.4767616
0.0388529
-0.8508366
14.5414438
-4.2753453
-0.2452917
-3.0376077
-0.7711995
0.9723208
1.7550005
-8.5509176
1.0573351
1.0146295
3.1748619
-3.7994621
-1.1444809
-0.7763909
0.3391359
2.5492859
-1.2210883
1.3458506
1.8747082
-2.1812098
0.7282081
-1.8102036
0.1886116
-1.7021600
0.9970025
-1.6087757
-0.0503527
-0.8982911
1.8972955
-1.2503314
-0.8601606
-0.9915110
-0.5866759
-1.5544162
-0.7561875
-0.8945014
0.1275580
0.4325555
1.5176368
-1.3811625
0.1943618
-0.2796904
-14.5195627
12.7763929
-0.3605062
-1.4668199
1.0119106
0.3979969
-1.6735466
1.0349065
-6.2284708
-0.7919133
-0.7775758
2.8783813
2.3521204
-1.3280870
-0.9436880
-1.2251980
0.3462334
1.7154534
-0.1601327
-0.0793635
-0.9178506
-0.0887744
-1.3999573
0.3949191
-0.2361621
-0.5009370
0.5091562
-0.0474890
0.0833862
-0.7106656
-1.5622989
-0.7551892
-0.7980255
1.5584397
-0.4425077
1.8656343
-0.3758034
0.3656202
-1.0300405
-1.2978942
-4.8603072
0.4420862
-0.8862361
0.1221486
2.5739441
-0.1080242
-0.3109776
-4.0542088
-3.0138626
0.4118709
10.6956177
0.3452956
1.0031226
-0.6088583
0.1983033
1.0914078
-0.0704037
4.1011772
2.3690562
0.0102682
11.0574894
1.0093068
-1.4906154
-1.0457608
0.0870510
-0.6243112
-1.5822289
-0.0374832
-1.6566131
-0.7994928
0.1142853
-0.9352099
-3.9628747
1.8891298
1.1039375
-3.2480819
-0.4984865
-2.1963501
-1.0729780
4.4911561
0.3526631
0.4048744
0.7101307
1.7744565
0.0791869
-1.0521611
6.8562880
-0.9792577
-0.6346327
-0.3035132
0.9064755
0.6958028
1.9914420
-0.1065394
1.2140805
-0.2959713
0.6048788
-0.6056653
-2.9497092
-0.1778028
1.6053967
5.6368361
-1.9202113
1.8213683
3.3264761
-2.5279005
1.5873023
-3.8028452
-1.2033259
-0.6931846
0.2304665
-3.5496855
0.8707923
-1.4174908
4.5126977
-2.0069003
-2.4514213
-3.1602786
-1.8550804
-2.3133814
-0.8239536
-1.4332242
-4.0517969
-2.5246112
3.5278668
-2.1422472
0.7231803
-3.1220427
-3.1222918
25.8171196
0.1368050
-4.4864197
1.9023818
2.2155526
-2.8381295
0.8783367
-2.0784140
-2.8326099
-0.2285053
7.4585547
6.8068132
0.8611437
-2.2768331
-3.7461283
1.9708555
0.6363320
0.3174001
2.5964072
-2.7777648
-1.5831842
-2.2675912
0.9770975
1.1398978
-0.4176144
0.9505051
-0.0627938
0.8176965
0.4766506
-5.6367311
-0.5613263
-1.4846549
3.2841060
-0.7277772
4.3024125
0.0006776
0.2935506
-2.7877014
-6.1295419
-1.6656736
0.2059901
-2.6667826
1.9996390
5.8014722
0.6925402
-2.2230430
-4.1252313
-5.6467590
-0.4676646
22.7846279
-0.9523005
2.2637587
-0.9002128
-1.6826295
-1.4227735
-2.3780119
7.1547050
4.2318277
-2.6078188
17.1714268
0.7875070
-1.9318534
-0.0940931
-0.2538815
-1.4983222
-3.5461566
1.6235290
-3.1909614
-0.1367243
1.7189727
-0.9287926
-6.7423768
3.4320276
1.4137557
-4.9367204
0.3073093
-5.1609106
-1.9090039
9.1535425
-0.6122596
1.0814381
1.0730866
3.5206130
0.2346808
-1.0290990
17.2363205
-2.2993300
-0.7299468
-1.3286668
2.5271709
1.4365165
1.8581113
-1.9206887
-1.6204268
0.0011764
1.7603348
-2.1766946
-3.5631123
-0.6164934
2.6259701
8.5265198
-3.1801140
2.8789556
5.6879311
-4.5490141
2.3142509
-6.4361901
-0.7766371
-2.7332222
-0.3124458
-5.5573130
-0.0066739
-2.3556883
7.0695395
-2.5735512
-3.0274007
-4.9762659
-2.2869825
-3.4463830
-0.6844882
-2.4641902
-5.8890467
-3.4616113
5.3501201
-3.4124537
1.5165676
-4.7605128
-5.2248015
39.9138069
-0.0637579
-5.1002102
3.2506747
2.8703797
-3.9130805
1.2852646
-2.3888984
-4.2717543
-0.6890771
11.0928230
11.3737936
0.3846957
-3.1269124
-5.4151669
3.3144701
-0.3013835
0.2408696
3.4630330
-3.4718606
-2.5836525
-3.9163375
1.4437145
-0.0192902
-0.4394852
1.5241330
-0.1449304
1.1572418
0.3249467
-3.9248602
-0.7617697
-2.3692775
4.5344806
-0.7210571
5.7329741
-0.7461120
-0.1189653
-4.5283723
-9.5464058
-2.6352508
0.7968431
-3.5457840
3.1913533
8.1036043
0.8698756
-3.4501657
-7.7619996
-8.1321459
-0.0442861
36.8020325
-0.8966087
3.5806432
-1.4105867
-1.2828685
-1.8760731
-4.2477479
10.5692806
6.6581268
-3.1709034
25.5607052
1.6563208
-3.3278201
-0.0092050
-0.0482762
-2.7158101
-4.9800615
1.8025813
-5.0174942
0.1362090
3.0999212
-1.7906179
-11.0011759
4.5162992
1.5923768
-7.2813005
0.1317648
-6.6175647
-2.8866208
13.3465576
-0.7773347
1.5709819
1.6796733
5.3173161
-0.4156230
-1.4400297
24.5795784
-3.6933804
-1.3311002
-2.0312798
2.7935405
1.6548620
3.1751771
-3.3263745
-2.3354597
-0.3238348
2.8093042
-3.2104218
-0.5137803
-1.9524726
1.1210784
4.0270519
-1.7620443
1.0203587
5.1922598
-4.1822834
0.7859148
-5.3225169
0.4118218
0.1963948
-0.9189372
-5.6849914
-3.5653336
-2.5788996
4.1445541
-2.0975456
-1.4926862
-6.6728005
-0.8988941
-3.1546173
-0.0907075
-1.3438090
-2.8088806
-6.3518496
1.9058778
-3.2556715
0.0008821
-2.6040213
1.9353849
29.6394119
-0.0048834
-1.7084688
2.5309021
1.0305071
-1.2366378
0.9053823
-1.0108726
-3.6483593
-0.7507849
5.1283231
5.7162924
-1.4708550
-0.2075654
-9.8448038
2.7853374
-3.3875470
0.0828563
0.9651656
-1.9805957
0.6035109
-3.1162217
1.1073204
-1.1299435
-1.2638299
1.0963365
0.0419733
0.2917759
-1.7445095
2.8359933
-1.0258570
-1.3286474
0.6292825
-0.0428481
0.3488878
1.2994403
-1.4243613
-6.7274528
-5.2468228
-0.1420031
0.5188792
-1.3201610
2.1782856
0.6406712
1.1087247
-2.4994094
-7.9227643
-5.9892354
1.4447418
24.7946854
-0.5962971
0.8176073
-0.9632390
0.8526950
-2.2619305
-5.6729813
6.4129157
2.6671181
-1.3210875
18.4311142
2.1735036
-1.8795907
2.1150987
-1.1872083
-2.4030616
-3.6560061
0.5478543
-4.1723990
0.3647906
1.7717500
-4.7116618
-4.7868853
3.6668990
-0.8394592
-5.7684741
-0.1297363
-9.0118589
-0.3739758
7.6147151
-1.2719852
-0.6008787
2.1030881
2.1098986
-1.9980646
-1.6703018
15.7257471
-4.0369110
-3.0012810
-2.3847961
-3.0586674
1.4108005
2.3082976
-7.9278388
1.5591091
-0.0825433
2.5945928
-3.2043715
0.0355272
-1.1267524
-0.0308125
2.6983202
-1.3849671
1.4875922
1.5091120
-2.6645966
0.7665673
-1.8247968
-0.2410041
-1.6711836
1.2825397
-1.6423217
0.0060930
-0.8870482
1.5668463
-0.6452351
-0.7331502
-0.2313807
-0.1114352
-1.7029641
-0.6050336
-1.0119324
0.1183832
0.3296147
1.9449662
-1.1699857
-0.1025868
-0.7678676
-13.5103922
12.3914309
-0.3091740
-1.3569160
0.7072567
0.0851806
-1.5059283
0.5934899
-6.5400572
0.5761594
-1.0003693
3.2003338
2.8465466
-2.5311484
-0.5724887
-1.4412601
-0.0358778
0.8249906
-0.2764639
-0.5172417
-0.7644719
0.3263894
-1.1779034
0.1525593
-0.7507101
-0.2907020
0.6048834
0.0261039
0.0260138
-1.1032801
-1.9371455
-0.6325810
-0.8040509
1.5396067
-0.0960478
2.0482464
-0.1520380
0.0937631
-1.5094558
-0.8685168
-1.7879246
0.5659496
-0.7181202
0.3898165
3.1598704
-0.2614090
-0.2661532
-3.3154747
-2.5127406
0.1208686
8.3621655
0.4483365
1.3661672
-0.8267276
0.0088975
-0.2111518
-1.0625767
3.8899109
2.3342195
-0.1974929
11.1616602
0.9700997
-1.5591033
-0.8382342
0.2307942
-1.0904576
-1.0622480
0.0450232
-1.7406574
-1.4525844
0.3000676
-1.0313498
-3.4669919
1.4661646
0.8553559
-3.4960160
-0.6973237
-2.3134768
-0.8668688
5.6293602
0.2734822
0.4446321
0.2565776
2.1518424
-0.3103408
-0.8843198
7.7657127
-0.4592551
-0.9726313
0.0455883
-0.0149864
0.6536366
-0.5104964
-0.1311128
1.3500547
-0.5623823
0.7775162
-0.8109603
-1.7003176
-0.0295900
1.5288643
5.2681122
-2.2424483
1.6182804
3.3722837
-3.0398083
1.6578699
-3.4416010
-2.2198215
-1.8032041
0.6258578
-3.3018250
0.6806346
-0.8234329
4.2383423
-1.5134630
-3.0201747
-2.0693781
-1.4732952
-2.4507680
-0.6160621
-1.4364007
-4.5663114
-2.2639852
3.1714623
-2.5835671
0.0688289
-4.6427264
-2.2452769
24.6914749
-0.5612089
-3.5154314
1.6475383
1.3635761
-2.8937972
0.4240008
-2.3491633
-0.5833344
-0.4068092
6.7874479
8.1551704
-0.0816985
-1.5899632
-2.7074437
1.7087814
-0.8284303
-0.0261353
1.9426652
-2.8525400
-1.2523792
-1.7753872
0.7083333
-0.0677807
-0.0510800
1.0310045
-0.1339812
0.3923793
0.0375153
-6.0534964
-0.5192818
-1.4721878
3.0891776
-0.0407849
4.3844700
-0.1075270
-0.5640069
-3.4461088
-2.6751730
-0.7749861
0.5573232
-1.7420719
2.3901079
6.2131262
-0.0086192
-2.6608839
-2.2487860
-4.6440811
-0.8059291
21.0528526
-1.2733815
2.2135572
-1.7616310
-1.4476744
-2.8473816
-3.3872452
6.4142284
3.3414228
-2.2451477
16.8327541
0.8621042
-2.2972138
0.7789528
-0.1986334
-2.1191809
-2.7259002
0.8029559
-3.0195692
-0.7467234
2.0269289
-0.6509329
-7.0100794
3.2280393
0.1922082
-4.8860216
0.0839538
-6.6267061
-1.2876909
10.8601274
-1.0433518
0.8597010
0.1178991
3.8385050
-0.3856508
-0.0958348
15.7937050
-1.7725723
-1.2866211
-0.9960518
-2.5759594
1.0936949
-1.0280607
-1.1986169
-1.5556754
-0.6356395
1.6760747
-2.4226849
-1.6632876
-0.3549376
2.6501198
7.7490258
-3.5620770
2.7295656
6.4337330
-6.1281886
2.6056118
-5.9749279
-2.1427574
-4.1894050
1.0608802
-5.0138865
0.2839289
-2.1077213
6.9563837
-1.8010945
-3.8319056
-2.9971297
-0.9573892
-3.4776773
-0.1877659
-2.5751197
-6.4808316
-2.2663333
5.0109587
-3.9686177
0.7542905
-5.3233829
-5.0126677
32.6369133
-1.1331805
-3.4241211
3.1403182
2.1197317
-4.0234489
0.9197795
-3.0145073
-1.1176286
-1.0073858
9.7995863
13.3454132
-1.3273714
-1.9975526
-4.1341434
3.4759355
-1.2447491
-0.1580740
2.8476136
-4.0502257
-1.5543488
-3.3384688
1.2496514
-1.5366312
0.4166278
1.5445707
-0.1030844
1.2361299
-0.6966446
-3.0302706
-0.5192037
-2.8830602
4.5053191
0.1774117
6.4255934
0.6937695
-1.0499043
-4.7144952
-4.6315246
-1.2770680
-0.0833474
-3.9614871
3.8341808
9.5027533
-0.3199671
-3.9832401
-4.6426144
-6.3501787
-0.8106878
33.9673233
-1.3781099
3.3981047
-2.2966785
-1.2043442
-3.5081069
-3.3859055
9.0815725
6.2606530
-2.3801186
24.0256767
2.1132092
-4.0543604
1.1925436
0.2513940
-3.6749911
-4.0083156
1.8583397
-5.0764995
-0.3789818
3.4978218
-1.8973783
-10.6926517
3.4998894
0.4189602
-7.9635286
-0.6855199
-8.5525522
-2.0315406
13.9917669
-1.2916198
1.6095998
-0.4636461
5.8313947
-0.8776457
-0.1334206
22.0887489
-2.5965872
-1.3912634
-1.3729750
-3.2039700
1.0163314
0.1458992
-2.4552743
-1.5176150
-1.5307221
2.7978649
-3.6553392
-0.7485408
0.2303353
2.3504586
3.9075108
-2.1286864
0.9335960
2.8059525
0.3691975
0.0057765
-6.3930855
-2.0428925
-1.7872037
-1.6461949
-4.2123981
2.8337631
0.7494046
4.0983186
-2.2244635
-2.0219584
-8.2214689
-7.9561744
-2.8490880
-1.9939592
2.4589739
-3.8471313
0.2212065
0.5355090
0.4875612
-3.7491848
0.3406924
-0.1644945
21.6350307
-0.2102257
-0.1763185
2.0981312
-0.8347094
-1.2381883
1.8283596
-0.2075685
1.7917602
-1.5876848
5.5053234
4.9164901
-1.9269096
-0.9115187
1.2733454
0.7956786
-2.6970916
-1.3197165
1.6008703
0.8232547
2.5899451
-3.5731819
0.0183246
0.3948137
-2.9803758
1.9225428
0.1275740
2.9376745
-2.1662726
5.3005738
-0.3247952
-0.4165604
0.2898455
0.5361940
1.6244334
2.5960972
-2.6930814
-4.1592007
-5.2680402
-0.5211604
0.9593328
-3.5615959
1.9918598
3.3402517
0.0955774
-8.5208702
-7.9328694
-4.2739844
-0.7933546
17.1373672
0.6330162
-2.4161420
-0.3885866
-0.9356151
1.2604380
-7.1767988
5.8523273
2.4956868
-1.4771805
3.2650275
3.2754536
-1.7812449
2.8949459
-0.9751530
-3.8438618
-2.7167516
1.3019680
-2.5609131
-1.2045817
1.0482374
1.9528694
-2.4009314
3.6605158
-1.2982261
-6.8760505
1.9013780
-2.4213831
-1.3739347
11.4799633
-2.2664382
-1.2239445
-2.7699869
2.5510721
-5.4886484
1.1275330
10.1998262
-5.2219043
0.2017195
-1.2628775
0.6474461
2.4794579
0.3950230
-8.1109247
1.9407884
-3.1339772
2.7531979
-0.8631791
-1.1939181
-0.8428220
-0.3806599
2.5594835
-1.4351138
1.3908782
1.9897711
-3.2830324
1.0445658
-1.9702091
-0.3573946
-1.7281212
1.1474587
-1.5240153
0.2089628
-0.1913040
1.1596879
-0.1689725
-1.1816393
0.6034178
-0.1799841
-1.7224383
-0.1835985
-0.7557111
-0.0640870
0.1571040
2.4630039
-1.2641554
-0.8120099
-0.9879404
-11.2713470
12.0063400
-0.8066952
-1.2984118
1.1197380
0.0568715
-1.0245298
1.3127463
-6.7729883
0.9745872
-1.0001487
3.1899962
3.6017957
-1.8457102
-0.3047213
-1.4062437
-0.2361581
0.3918016
-0.5127051
-0.6873255
-0.8689086
-0.3910311
-0.9326619
0.1388891
-1.2808863
-0.2748495
0.6869957
-0.0554786
-0.0419398
-0.5716273
-1.5072109
-0.4185483
-0.2708051
1.6790870
-0.1481123
2.4333851
-0.3420604
-0.0832740
-1.4019347
-1.1109834
-0.5300266
0.6403631
-0.6808228
0.2081029
3.8712945
-0.2847019
-0.5668805
-2.6615427
-2.2214670
0.1383341
2.1926744
0.8081513
1.5268921
-1.0260770
0.2336265
0.0167884
-1.2070448
3.4579840
2.4197512
-0.2642991
10.9871359
1.1215655
-1.4978303
-1.5102861
0.5672514
-0.6309950
-0.8072771
0.1749262
-1.7809565
-1.4365979
0.3593961
-1.0227348
-3.0880065
1.6591657
0.5764253
-3.1862047
-0.9378361
-0.6181370
-0.9149346
6.2003083
0.3656806
0.2408896
0.3921659
1.9801528
-0.6376910
-1.0949141
7.7215166
0.0479505
-1.7885201
0.2624505
0.1083823
0.8088415
-0.4443620
-0.0649907
1.8410470
-1.0408092
0.7545517
-0.5800352
-6.0225425
0.9191915
1.3306882
4.9042306
-2.3969827
1.8108379
4.5083022
-5.0920000
1.3314961
-3.6643910
-2.9752793
-0.7043871
0.2907854
-3.1285901
1.4345771
-0.9852587
3.7630904
-1.7674433
-2.8257837
-0.7780561
-1.4230409
-2.3719339
-0.3936207
-1.2628264
-4.5762334
-0.4024234
3.2385814
-2.2368443
-0.1557769
-4.8757019
-1.8881423
21.6790237
-0.9414288
-2.8127987
2.2265389
1.3179504
-2.2796528
0.9645154
-2.1670001
0.6295792
-0.8664351
6.1603885
9.4320164
0.0352601
-1.1154964
-2.6702082
1.7379402
-1.2392017
-0.1568315
2.0702002
-3.1063473
-2.8940084
-1.8036541
1.2309934
-1.1131924
0.2892214
0.5203696
-0.1688955
0.2186715
0.7966769
-6.3580999
-0.9000323
-1.4841633
2.8911788
-0.8633261
4.7281818
-0.3255523
-1.4279419
-3.4735410
-2.3540313
-1.6275102
0.6723617
-0.8809716
2.4724665
7.0179133
-0.1691513
-2.8609986
-2.8718643
-3.8786819
-1.2009351
19.2963829
-1.0037235
2.7189474
-1.3468546
-1.2009763
-1.5295627
-2.3723018
4.9958835
4.3319073
-2.1691482
16.4778538
1.1856214
-1.8790895
-2.1672194
0.1841168
-1.9685435
-2.7222831
1.0894449
-3.3672724
-1.1585581
1.8405879
-0.2200157
-5.3425241
3.7210896
0.1169301
-4.6146927
-0.1786065
-1.9628379
-1.8527380
12.2092314
-0.3888578
0.6659879
-0.5116304
3.8116453
-0.1286968
-0.1696618
14.7343664
-0.7655163
-3.3859460
-0.5841669
-1.2797056
0.9500079
-0.2105890
-0.8433446
-0.2073244
-1.1135992
1.8888998
-1.7032615
-9.9389763
0.6366730
2.0487447
7.8622832
-3.7500186
2.6782868
6.2175221
-8.7243547
2.5949292
-4.8558536
-3.1500456
-2.1219392
1.2051240
-5.1556649
1.2856208
-1.2533685
5.9717278
-1.6148300
-2.5740707
-1.2250706
-2.8767736
-3.0944195
0.5223348
-2.3483045
-7.6738110
-1.7058614
4.8582063
-3.8421247
0.4083256
-6.9713573
-3.0004497
32.8887444
-1.1406643
-2.8968379
3.7942014
2.4894190
-4.1167927
0.2130028
-3.3685873
-1.3438939
-0.8807643
10.0475597
13.7416220
-1.4083127
-1.2293534
-4.2798948
2.7943342
-1.7767402
0.0830265
2.6915965
-3.2598448
-3.8025935
-2.7755570
2.5487597
-2.4617910
0.4312416
1.1718972
-0.0349889
0.4667281
0.0997443
-2.1886556
-1.1768190
-2.4593377
4.4200449
-0.0521534
7.5263877
-0.2042583
-2.5003140
-4.8983092
-3.6391280
-2.4532952
0.4859017
-0.8581854
3.7320421
11.5504007
-0.1331467
-4.1493788
-6.7882514
-5.3252373
-1.3382351
31.0944328
-1.9315805
4.5174155
-1.6018970
-1.0306197
-1.9714991
-1.1617913
7.2953706
7.4657025
-3.2034607
22.0436039
2.4905298
-3.4813595
-2.6388719
2.0059843
-3.8175879
-3.2366171
1.7059660
-5.6252666
-1.2833710
3.6355946
-0.5893232
-7.9110217
2.8666546
0.2073253
-7.0858350
0.2001418
-2.7369912
-2.7115836
17.9035721
0.0037722
1.3123978
-0.8923413
6.3321900
2.1691604
0.1110156
19.3819389
-0.8091429
-4.6751432
-0.7222414
-3.5773089
1.3400035
-0.8052981
-4.1118546
0.0021181
-2.6625025
3.1372123
-3.5707283
-6.4914212
-3.9157193
4.4299250
3.5388880
-1.2326361
-1.7000674
6.6600146
-2.6033847
1.3598931
-8.4967661
3.0252435
-0.5342243
-4.2324710
-3.3170464
1.9735820
-0.7317593
6.1383977
0.4235385
9.7029314
-0.8666728
-0.3633832
-0.5074677
1.4160566
-1.4232396
-10.4498625
9.0812321
0.6320788
0.1568468
-2.5831268
-0.4607520
-1.6860796
9.7796383
0.3419263
1.7873712
4.4986157
-3.0448961
4.4737501
3.1746547
-2.4477005
4.2153497
-0.7411031
4.9593196
8.9878626
-2.7122846
3.2620101
2.5030491
2.3417208
-4.5924945
2.1761806
2.8486838
-4.9273958
-1.4864560
-4.5397863
0.3887237
-1.5160732
-1.8973376
-0.1354019
1.3778478
0.3822371
-1.7695975
0.8307784
-3.4238660
2.1274188
2.6272810
-0.1203859
5.5977101
-0.4061597
-3.8089271
-7.0520859
-5.9292021
-2.8181090
-1.5230076
2.8486717
3.2386274
8.8309860
-1.0874187
-0.7126430
0.0656527
-2.9084966
-0.5629767
17.0484085
-6.8955517
-4.3292623
-3.1637735
2.3243170
-3.6188030
-0.2874712
6.7427077
11.8830204
-1.1210687
2.7791755
3.5728202
-2.3627486
4.0996885
1.8799611
-7.5097404
-2.5478942
1.3020855
-7.5407066
-1.8461986
3.1874921
-6.1357775
-1.7544905
1.9660045
-2.5499048
-4.4762349
2.3049755
-2.4201460
0.5984354
16.8802948
-1.2249943
1.9057707
0.8156770
2.9676037
2.5881927
-1.8440887
-0.1652537
-3.4722521
-7.9023132
-6.6185946
-0.5868818
-1.8823328
-1.7524066
1.2585692
1.0193157
-2.1467330
2.4260430
-6.1955523
1.4502236
-0.7363412
-0.3820267
2.6258123
-1.6496668
1.2437279
0.8521683
-3.5649674
1.3910609
-2.0952234
-0.6133524
-1.4869512
1.1380401
-1.3843967
0.1370193
-0.2880479
1.0269635
0.2848857
-1.2264701
1.3823977
-0.2012081
-1.7646862
0.1327231
-1.1914743
-0.2182179
0.5549449
2.6304860
-1.0924822
-0.8852426
-1.2450690
-8.7943316
10.5520029
-1.2015197
-1.3212501
1.1133995
-0.0730325
-1.0186528
0.4399804
-6.5221934
1.0216161
-1.2050439
3.4696772
4.5167050
-1.4891001
-0.0349128
-1.2776358
-1.0025851
0.6230649
-0.5628850
-1.5966843
-1.1056821
-0.7698029
-1.2310994
-0.0888490
-1.4455075
0.0482241
0.7485281
-0.1656614
-0.4183595
-0.3473850
-2.4291639
-0.6009613
-0.7243103
2.2683623
-0.0474074
3.3887208
-0.5491989
-0.4484493
-1.5355744
-1.1895074
0.1740179
0.4235101
-0.4956243
0.4160172
5.0547504
-0.6353612
-0.5735948
-2.3898714
-1.7718509
0.2986923
0.2382202
0.7004750
1.7933736
-1.1122388
0.4724037
-0.5639874
-0.4748559
2.9371853
2.5581801
-0.5698167
10.9728975
1.0549331
-1.7141823
-2.0506685
0.6942214
-1.2621021
-0.6039079
0.0934731
-1.6736121
-1.4112374
0.4354005
-0.8909342
-3.1350353
1.6534741
0.1575076
-2.5901105
-0.9388092
-0.4897339
-0.8508388
6.8840728
0.4390580
0.4795002
-0.2780848
2.2176204
-0.2307690
-0.7171903
6.9720707
0.4689727
-1.8066710
0.2849857
-0.3398855
0.7068287
-0.0430624
0.1468858
1.4643970
-0.9351684
0.7965873
-0.4031003
2.7867785
0.5950286
1.0130959
4.2212696
-2.8293636
1.2906991
4.1515031
-5.5852752
1.2948453
-4.0174375
-2.7151845
0.2047042
0.8368750
-2.8601975
1.9806181
-1.0008888
3.2204299
-1.2828336
-2.6297657
0.0284968
-1.4133692
-2.3503830
0.8041446
-1.0314010
-5.5102501
-2.0278440
3.2569251
-2.1167569
0.2004914
-5.7018738
-1.2129195
18.1656609
-0.9317627
-2.8382683
2.3016930
0.9988027
-2.5185616
1.3134565
-2.8403773
1.3018748
-1.1056057
4.7673321
10.2589207
-0.3697159
-0.5443041
-4.0295920
1.1850367
-0.6126292
-0.3606640
1.5657163
-2.9803011
-3.0457220
-2.0580666
1.2596593
-2.2057879
0.4506361
0.0313275
-0.1939074
-0.6425936
0.6801347
-6.7895947
-0.9550634
-1.4405348
3.0928319
-0.5179532
5.1317458
0.3978086
-1.6600983
-4.0711875
-2.1893747
-2.0142112
1.1029335
-0.7024714
2.3026087
7.4973783
-0.4176233
-3.1821609
-0.2238246
-3.3349934
-1.0917708
17.1191521
-1.0926840
2.6009614
-1.6939547
-0.8361053
-2.7817166
-0.6032969
4.4928141
3.7542708
-2.2454636
15.8031301
1.1629654
-2.4982007
-3.3495796
0.2285466
-1.7505906
-2.2272809
1.3662030
-3.1468351
-1.6166656
1.7217747
-0.6199459
-4.4683790
2.5196371
-0.3863696
-4.4988170
-0.6425272
-1.8471857
-1.4870329
11.9598579
-0.3164853
0.0879782
-1.2376947
3.9484816
0.6641133
-0.3659230
11.3441315
-0.2385759
-3.8570704
-0.5503708
-0.7466238
0.1781102
0.0767354
0.1512151
-0.5054591
-1.9018674
1.8244188
-1.7253349
4.0822582
1.2129152
2.0200167
6.4590621
-4.2891049
2.5346608
6.4079905
-8.8664989
2.0510581
-6.8982439
-3.5600359
-1.4378268
0.9247293
-4.4597912
2.4441190
-0.6937317
5.4589629
-0.8125508
-2.8654406
0.1707637
-2.3064134
-3.3646624
1.6542361
-2.3957026
-9.0394764
-2.4359350
4.2219028
-2.1961663
-0.5860924
-7.9333720
-3.4504163
27.1773090
-1.0378611
-2.4060414
3.8585627
1.6057252
-4.1146445
0.3523856
-4.5477924
1.5613483
-1.8136102
7.9703517
15.5982466
-1.3006136
-0.4312612
-4.8461614
1.8562282
-1.8331158
-1.2414457
2.3912292
-3.7441361
-4.6489596
-3.6498585
2.5168943
-4.5446897
0.7533648
0.6999152
0.0486741
-0.0626288
0.6663555
-2.6948314
-1.1257463
-3.1518357
4.8476205
-0.5516303
8.7565126
-0.5098754
-3.2440760
-5.4394579
-3.6237888
-2.8729868
1.3780590
-3.2775049
3.9457941
13.3538952
-1.2548350
-4.8236485
1.5789255
-4.7269225
-2.0504868
28.0800934
-1.6842505
4.0890150
-1.9091892
-1.2062284
-3.3017166
-2.6620002
5.2796917
5.6019549
-3.3086317
21.9604511
2.3545804
-4.1257157
-5.0313644
-0.0878322
-3.5880158
-3.2037349
0.7537389
-4.5766058
-1.3592144
3.5702491
-0.3943261
-6.8830795
3.4756372
-0.4660884
-6.5680671
-0.6267302
-2.0910113
-2.7742426
18.9815254
-0.4044115
0.7456230
-1.6787963
5.6562614
-1.8116550
-0.3902651
15.4766607
-0.0168143
-5.2867694
-0.8949184
-1.6249861
-0.1940361
0.5520735
-1.2549952
-1.1644273
-3.1369648
3.0093122
-4.0316544
1.8261188
0.4844032
-1.2020599
8.9921436
-3.7359607
3.1818190
-6.0065117
-8.5616026
-0.3905946
-4.6566024
1.4779388
2.6351895
1.2676069
-4.1100821
-0.3979164
0.3802925
2.2266514
-0.8263524
0.3991211
3.0595896
-12.7377300
-4.7351007
-1.1979202
-0.8409163
-4.9186578
6.6937580
-2.8863101
-2.7859597
-4.5558448
-6.0178480
3.7000563
8.7915201
-1.7045527
-0.2126269
3.2482040
-2.7075000
0.8166198
0.2875251
0.7624829
-0.2161424
-6.6332369
13.2406263
4.2723298
0.4145873
-2.3478568
2.6106651
-6.9930263
-3.3728259
-1.5873244
-2.4495549
-0.1964276
-1.0341253
0.1447330
-2.0313194
-0.5813290
-2.4240997
-0.2597335
-0.8205345
-1.0615022
0.6096835
2.9464197
-0.3241200
-0.6794493
2.5938368
1.9175476
6.4445806
-5.5011978
-5.3949866
-5.6712999
-4.3381872
-1.8789365
0.3642935
-1.0074767
1.4163407
10.9471388
-1.0965643
-4.2735949
-0.1436206
-2.0917139
0.4996494
3.4090331
-1.9910660
4.0165586
-2.7383175
-0.9855625
1.6873106
1.3487847
3.1496568
1.2146921
-5.4026337
10.6075745
2.2390220
-2.4278722
-3.8649817
4.9633055
-4.9728408
-0.9094902
-0.3927376
-0.8747874
-6.3448625
0.0877434
-2.1257219
-0.9792822
-0.8828784
-7.8710861
-5.8468995
0.3009004
-4.8299232
-1.6297812
16.3624630
-0.1182975
2.4846013
-2.7247412
5.4054465
-6.8546343
-6.2940722
6.9778066
0.1142763
-7.0020819
0.6622577
-2.7859700
-0.3956459
8.0382776
-7.2272902
-3.4240751
-1.8093786
1.6239758
-3.4016845
1.4332159
-0.8722022
-1.2298238
1.9599602
-1.7386031
0.7880703
-0.3480520
-3.7638505
1.4958547
-1.6183327
-1.1393102
-1.9353975
0.4476127
-1.6973815
0.0481517
-0.8339515
0.4243394
0.6318258
-1.3611159
1.3411199
0.3900248
-2.0813246
-0.0828196
-0.8475220
-0.0637593
0.9275081
2.1636283
-1.0966063
-1.9768642
-0.9432409
-11.3833227
9.7166367
-1.1772745
-1.6844596
0.8640918
0.0676249
-1.1771060
0.1334676
-6.4517121
0.2422591
-1.3633599
3.1576674
3.7296157
-1.4335722
-0.0496571
-1.6612448
-1.8743881
0.2300667
-1.2019011
-2.1090412
-1.0688463
-0.8560678
-1.3156462
-0.6271220
-1.8467848
0.1608958
0.4415181
-0.3525408
-0.5477003
-0.0605959
-4.6712308
-0.9978095
-0.2372283
2.1090648
0.1422766
3.1496809
-0.2044493
-0.5345886
-1.9431446
-1.2342174
-0.2056423
0.6427487
-0.1158896
-0.0301125
4.4557147
-0.7508955
-0.4779213
-1.6833340
-1.7550861
0.2094000
-5.1116986
0.5851719
1.3957882
-1.7445794
0.4229633
-0.3776081
-0.2970992
2.4890156
2.4122856
-0.8405900
10.8987627
1.0095617
-1.6726941
-0.9346063
0.5426857
-0.8978217
-0.2368985
0.1369499
-1.6657828
-1.9183800
-0.1444644
-1.0866278
-2.9899485
1.8609343
-0.1094673
-2.3836827
-0.9269812
-0.3472600
-0.3781603
8.4350929
0.5749090
0.2602293
-0.3575435
1.9993278
-0.7698025
-0.2112715
7.4515967
0.4205733
-1.9046978
0.1033009
-0.5054730
0.6503888
0.7732713
-0.1384842
1.6200665
-0.8955083
0.9951116
-0.2805289
1.3402123
0.8381346
0.6262719
3.0792670
-2.4972372
0.2083622
-0.3830406
-7.2700610
0.9472709
-3.0586374
-2.7516482
0.4885909
-0.7255183
-3.4342618
0.3572008
-0.8495700
2.5658290
-0.7370266
-2.6917038
1.0958731
0.2018440
-2.4786115
0.3147283
-1.2499151
-6.2136021
1.1796573
2.4819567
-4.0147610
-0.4282877
-4.7424226
-1.1400508
17.3659973
-1.7370499
-3.0348451
2.6389251
0.8031018
-2.1794078
0.0752613
-4.3014283
0.2515560
-1.6199402
4.3225036
9.0533915
1.2787051
-0.6094753
-2.1710160
-1.6215296
-1.1507779
-0.6507109
1.1506848
-2.6085057
-3.9150956
-2.6268134
1.1715710
-3.5863292
0.7784113
-0.2706306
-0.5437788
-1.3684763
1.9728001
-7.3828878
-1.3810524
-1.0360076
3.1660743
0.3447093
6.1226392
-1.1461487
-2.1994374
-5.4322305
-2.2349155
-2.3404448
1.8862293
0.1625111
1.4990982
9.1903934
-1.2985497
-4.8088627
-3.5813363
-3.1232882
-2.5181348
13.3183250
-2.3056962
2.1841331
-1.8292880
-2.0395517
-0.8467687
-0.0156765
2.8018739
3.1056333
-2.9858263
13.0071983
1.3037751
-3.0861349
-0.2281621
-0.1279016
-2.2589819
-1.7130722
-0.6598948
-3.2991188
-3.0856979
0.9005594
-1.1252629
-3.2045383
1.0736459
-0.3465809
-2.7783036
0.1990195
-1.6191224
-1.3199806
14.3854265
-0.0090828
-0.1285104
-2.4691796
3.1635611
-0.5156652
-0.1694705
10.9428520
0.2928174
-4.8259034
-1.2219942
0.0378559
0.2362069
3.8861763
0.8292689
-1.9862247
-1.5397263
2.0286732
-1.9544431
2.3735240
1.4477923
2.0264521
5.1112661
-4.4003534
0.5993009
-4.4081044
-9.2334881
2.5293975
-5.6094799
-3.9085779
-0.0479090
-2.3530920
-5.7220178
-0.8044044
-0.6440443
4.9223804
-0.5732216
-1.1830815
1.9078449
0.6653028
-2.7472901
1.8872346
-2.9794257
-9.0705996
1.1080666
3.5805020
-4.9804540
-0.5007782
-3.5787764
-2.9584656
22.8258343
-3.3174429
-5.1056933
3.6513484
-3.0259159
-2.8434329
-1.1453131
-4.6621552
0.0370362
-2.5892024
6.5308108
-2.7153454
0.3526481
-0.2275614
-3.1154704
-4.8251014
-3.3862300
-0.7141049
-0.2996254
-2.6452782
-4.4622445
-4.1536922
1.5251451
-4.5563154
2.2764769
-0.3531437
-0.7019786
-1.8784959
2.2266023
-10.9527264
-0.2644979
-0.5392666
5.5089931
1.5649176
9.9519062
-3.6515477
-4.0304279
-7.8217983
-3.3020332
-2.0368629
3.0520523
0.4131054
3.7606168
14.4201307
-3.0747216
-8.3012962
-12.2175169
-4.4075060
-2.8803768
23.3219318
-3.0689595
3.4722967
-2.7821314
-1.3295890
-1.0685016
0.0044097
6.1035962
6.0923100
-5.4618974
16.7099075
1.2384511
-4.4656506
-0.8317012
1.6169873
-2.7447562
-2.3090034
-1.9462737
-4.9601703
-3.0050526
4.1065483
-0.2633340
-7.0590334
0.6653923
-0.7309551
-5.6285076
-1.2577741
-2.3933611
-1.6791095
18.2539158
-0.2427312
-0.4568401
-5.6906853
4.6524081
0.7038637
-0.3203677
11.5935974
0.2466615
-5.7962179
-0.9307503
-1.4097719
-0.3957300
6.2169623
-0.7435726
-2.9909742
-2.4899194
2.9484005
-3.2932343
5.8524590
0.1514626
-2.1783748
0.0633053
-0.5264254
-3.6462994
-0.6512519
1.4068418
0.5958491
1.0105950
-0.2060066
3.9351304
-4.6979208
-4.5688868
-0.6883808
-3.4530234
-0.7302002
-3.6665180
2.7034624
-2.5564816
4.8674669
-11.8025961
3.0579116
-2.1016591
-8.1507816
0.7736059
1.1445231
-0.7313678
-2.3369312
-2.0230243
-0.0814343
6.3869662
-0.2452692
-0.0167154
4.1066208
1.0255373
5.9726276
2.6898797
-0.1501303
1.4886456
-2.3147154
1.5011843
-0.3975345
-3.1834512
4.2202878
0.2571930
1.8533245
-4.8171358
4.0396013
2.4274726
0.4342155
-6.1378975
2.8340774
1.2907003
-2.0702477
0.2334289
3.4237664
-5.0056744
-0.1781582
-0.2937350
-0.9288459
1.3497967
-3.2673109
1.4133924
-2.5712156
4.8854680
-0.0433153
-2.1542969
-4.5365076
-4.7715979
-1.5054357
-5.3461227
0.2055090
1.4652852
11.3221664
3.6281192
-8.6513348
-0.1592642
-2.1574891
-7.5115256
0.5130727
7.4123602
-1.4220086
-3.5587156
0.8633025
-1.2660987
0.3846279
-0.4345424
-0.9846312
0.2993306
3.2511818
3.5164516
-1.7152131
5.4723139
4.5377564
4.4752097
-2.0826170
-0.4892949
3.9458256
-0.6242710
2.2881677
3.4247203
-5.0863624
-3.0466332
-1.4613061
0.4652578
1.8297241
-0.9262639
-0.9972671
5.7720218
-3.5184281
-3.1759341
-1.6544883
5.3939180
1.1564858
-0.0993059
3.7665377
-1.9364107
-2.0122478
5.1042066
-2.3881729
3.8062155
-1.9912490
0.5781789
2.6483579
-1.5902834
1.3108207
1.3762244
1.6222198
-0.2791954
-0.8877307
1.8299370
-1.7328306
0.5220385
-0.4930920
-3.6765263
1.3513736
-1.6520238
-1.0815599
-2.0206809
0.6619789
-1.0420831
0.1132116
-0.1005396
0.3022335
1.4850283
-1.4758897
2.5067136
0.3358682
-1.8990362
0.5201252
-1.3729683
-0.5503247
2.0377355
1.9047279
-0.7120364
-1.7181858
-0.2484199
-12.1816721
8.5379858
-1.3961959
-1.2966509
0.6556987
-0.4240044
-0.7578124
-0.5240231
-5.8971925
0.2320395
-1.5783720
2.3272085
5.7997427
-1.3665028
0.5729489
-0.4876136
-2.1072867
0.3691471
-1.4057974
-2.3553398
-0.6952470
-1.2833196
-1.2108753
-0.5035932
-3.1327889
0.2452445
0.0349262
0.0122573
-0.5235072
0.1654315
-5.6351271
-1.4375471
-0.4844010
2.2454748
0.1444156
3.2558408
-0.0141492
-0.5153883
-1.8176285
-0.8761460
-0.0300562
1.3715066
-0.0532610
0.4496122
4.6623092
-0.6997396
-0.1137060
-1.2038250
-1.0346519
0.4470313
-7.6436343
0.9636077
1.0895512
-1.8824885
0.7611634
-0.5340189
0.0778645
2.1748378
2.4441752
-0.8002494
11.4578314
1.1323885
-1.6408379
0.2991617
1.2856991
-0.8311515
0.5725450
0.1529683
-1.6631173
-1.8491580
-0.3416661
-0.6223835
-2.6258607
1.8648900
-0.2609024
-2.3748672
-0.8248887
0.1403890
-0.8133684
8.9071035
0.8138421
-0.2068895
-0.2048601
2.5148504
-0.1875899
-0.0132695
7.5376015
1.1413847
-1.9679624
0.4320762
-0.9412796
1.1110696
1.5514799
0.8112047
1.7310199
-1.3856488
1.2927638
0.2246522
-1.8921750
-1.7730339
-0.3006026
0.6891598
-3.5070338
-0.0633105
-2.2722878
-7.8195915
-2.6275311
-5.0509424
-3.8156233
-2.7369809
-0.1235987
-6.0442805
-2.2204101
-1.3006089
2.1148880
-1.3560187
-2.5676887
1.8665326
-0.4738232
-3.1739602
1.8019457
-2.6557841
-2.5442743
2.2597058
1.0100948
-4.9565439
0.1429723
-3.2380583
0.5257267
17.1235142
-2.7476430
-6.0943017
1.4000605
1.1101444
-1.8706880
-0.4341978
-2.5840242
-1.4263541
-2.7681031
1.2674326
-1.1457396
-3.7094808
-6.3347411
-0.4701729
-4.1719747
0.7851819
-0.9371328
-0.4564128
-3.3693857
-2.1109476
-2.6315250
-0.7331346
-3.3733981
1.4792924
0.1709317
-1.0984886
-2.8075752
2.2443264
-6.7919550
-1.4117998
-3.0289767
3.1423173
-0.5951468
5.8662786
-3.4994600
-4.2947693
-7.7780404
-0.1312838
-2.9468868
1.0075737
0.1567146
-3.0609114
8.3744678
-1.6806467
-3.5274074
-10.3339434
-5.6848335
-3.9865007
13.9956436
-0.8441617
0.5218703
-2.5132620
-6.3127260
-3.1665092
-3.3882663
3.3564317
4.2632179
-4.4829898
19.3304825
-0.8209913
-3.9749272
-1.3617395
1.6198591
-2.7797389
0.2638060
0.7005676
-3.0518103
-2.4619200
-2.6201336
-0.7943556
-1.6622554
1.3915316
-3.1496112
-2.8154500
-2.1948609
-3.0885658
-1.1827232
20.9368382
0.3224339
-1.0888215
-3.1129274
0.6286253
-0.2955599
0.5392003
9.6581373
0.1659026
-4.8323493
-1.3995626
-1.5379122
-1.7419469
-0.2376940
-1.1011930
-7.8044462
-2.2167737
2.7953420
-2.4187706
-0.8647584
-1.0599905
0.6875541
2.5123837
-5.2267790
0.7250939
-1.7892174
-10.5116777
-1.6663240
-7.0654731
-5.3922644
-2.6699166
-1.0961584
-7.2912111
-2.2428997
-1.4945416
4.0738254
-0.6300255
-2.9887438
3.6356130
-1.1565796
-3.6914048
3.4586096
-3.6707878
-5.2138891
4.5623507
2.4288130
-5.6042547
-0.5721567
-3.8150480
-0.7026374
26.6484108
-3.6217256
-7.8250427
2.9262013
1.2016637
-2.4889441
-0.3708481
-3.9116561
-1.3269892
-3.3258650
4.1677332
4.4656301
-4.2041397
-5.6998758
-0.9702598
-4.2963591
-0.2808033
-1.6109521
-0.8868258
-4.1375098
-4.2018228
-3.7520592
0.3686304
-4.5882068
1.9533389
1.0823125
-0.8802760
-3.4514647
2.9377918
-3.1390524
-1.6338688
-3.6477852
5.8375378
0.0196927
10.9852486
-3.8120649
-6.1008806
-11.6530685
-1.7349844
-3.3824649
1.2935076
0.7190779
-1.5472982
16.3863506
-2.1779149
-5.5050735
-12.0194187
-6.6692867
-4.9473839
21.0956726
-1.0639704
2.7398579
-3.1887393
-6.9345336
-3.6489305
-3.9841626
4.6259003
6.7143564
-5.9842753
26.8434982
-0.7802514
-5.8455725
-0.1760479
3.0758638
-4.7360291
0.6494187
0.0302436
-4.4753346
-2.7824404
-0.8864866
-1.1288272
-3.8925526
1.5319946
-4.9466586
-5.2248192
-2.7497895
-3.1157348
-2.0114665
32.3165131
0.3285229
-0.4090546
-4.9776621
2.1179736
-1.1172218
-0.0235974
13.6999512
1.2788198
-6.2429280
-1.0517448
-2.6688178
-2.5366573
2.6907811
-0.8634531
-12.9721651
-3.8882706
4.3116693
-3.1149933
1.6491034
1.3752558
-1.3327135
3.9649599
-3.8577881
1.3322830
-8.6250896
-3.3263528
1.0966434
-3.3642311
-8.8723831
1.8130664
-3.4070611
-3.4915085
-26.4432316
1.0116291
1.7044919
0.2030109
-2.1898677
1.8131492
-2.5193200
-2.8801057
1.9046099
-3.0734351
-8.5340481
4.2039351
-0.2554816
-4.4226732
-1.7486602
-3.4221475
-1.0538627
19.2580204
-2.5774426
-2.0954125
3.8899820
0.4716389
-0.0522630
-0.2775341
-3.1643875
0.6927873
-1.9169592
5.6441507
11.4407816
-0.3478364
1.1003648
0.8797754
-3.3489201
-2.3317645
-1.7282467
-3.2280545
-1.9273216
0.7635592
-5.5642514
0.2302714
-2.5566442
2.1296678
1.3050551
-0.1405962
-2.7873230
1.4645059
-2.8316188
-1.1580328
-1.8906130
2.8007281
-0.3288026
6.0554447
-1.3137465
-4.4403195
-16.8693829
-4.3042340
-2.2784336
-0.3064033
1.5731978
2.8840275
10.4631138
-1.9821196
-5.6749473
-2.1025116
-2.1869094
-3.2526209
13.0643578
0.2212148
2.6837254
-2.9176087
-3.9708264
-1.9093287
-1.2492498
0.7652845
6.3553519
-3.9148245
13.8686638
1.0056379
-4.0680013
1.4898864
1.8209424
-3.4312162
-0.6445912
-0.5224122
-4.4143620
-1.4029945
2.6846395
-0.5634187
-4.8190188
1.5390078
-5.6477542
-3.0835025
-2.5997849
1.0294714
-0.6603794
17.9222431
-1.0167179
-1.3804872
-2.7546375
2.0758765
-2.2489417
-1.6451063
2.8355377
1.0128517
-1.4458023
-0.1624032
-2.3484066
-2.0234199
1.8479705
-1.4972725
-10.3866520
-2.7683520
2.9778199
-1.6117749
1.3448266
-0.1557745
-3.5548024
1.3180708
-1.6026783
-0.0849077
0.6416941
-3.7678809
1.4298570
-1.9403694
-1.7781297
-1.2699203
-0.1416975
-1.4488848
0.2016464
0.1838189
-1.2851757
1.6260715
-1.2216924
2.4741831
0.4618828
-2.0072911
0.8742190
-1.1037154
-0.1719666
1.4537175
1.4532688
-0.4577484
-2.0033250
0.2415691
-7.7726674
7.3865190
-1.5890255
-1.1303830
0.5741852
0.4380777
-0.8954774
-0.3161596
-4.9513388
1.0147374
-1.1896724
1.3953153
5.8019633
-1.0534574
0.5389901
-0.4979109
-1.0336118
-0.3508414
-1.7634903
-2.2183928
-0.7519853
-1.4664187
-1.7619836
-1.1700153
-3.7175250
0.5503858
0.3947016
-0.6824843
-0.2419019
0.3336712
-6.0830688
-1.8326397
-0.6286512
2.0055244
0.3262486
2.5930462
-0.5673325
-0.8294635
-2.2895551
-1.1474664
0.0131399
1.4578224
-0.0713298
0.4072967
3.6520343
-0.9406991
-0.1354231
-1.0035313
-0.7162213
0.3310546
-8.9361353
0.9142602
0.6673838
-2.4044797
0.9829484
0.5595039
0.6386654
1.6991596
2.3162761
-0.7972507
11.0488949
0.9523364
-2.1522684
0.7722106
0.9853240
-0.8675185
0.6256306
0.0859986
-1.6838598
-2.1784787
-0.1927152
-0.8069717
-3.0374722
1.4299952
-0.1942731
-2.6202490
-1.4376899
0.0953376
-0.1127172
8.3728619
0.7848102
-0.7393174
-0.6312047
2.3640742
-0.1713887
-0.2159271
6.5447025
1.2311449
-1.3642160
-0.1160171
-0.3493740
0.1952967
2.2339411
0.3922068
1.6675931
-1.2051936
1.5565327
0.0130658
-3.5826092
-1.9218664
-0.3002813
-1.5835212
-4.0849319
-1.5816975
-4.2827358
-6.5383778
-2.3394873
-4.7967973
-5.3074303
-2.4403656
-1.6485957
-6.6433196
-4.5483704
-1.3205165
1.6122785
-0.7436599
-2.9264104
1.2529626
-0.4060816
-3.6831539
1.4999863
-3.3555315
-3.4693234
4.8043723
1.0887405
-4.0990105
-1.0103774
-2.2079754
-2.2962344
16.2033424
-3.5940289
-7.9251571
0.8021646
-0.1041659
-2.6040883
-1.8647683
-3.4940009
-0.4897248
-3.4242897
-1.4799823
-2.5400410
-4.2439842
-7.0804381
1.1489397
-5.0332112
-0.3406126
-1.5186470
-1.5625398
-4.4008737
-2.4376628
-3.4781728
-0.5184501
-3.9790564
2.0673606
-0.7653264
-1.4798340
-3.9696257
2.2632670
-9.5866966
-1.6310439
-3.7504003
1.9307429
-0.9816858
4.7116966
-1.2568448
-5.6125450
-7.5640459
-1.0934082
-3.5754917
-0.0053511
0.6681160
-3.9301591
6.6614876
-2.5991948
-4.4367161
-13.2578382
-6.1631012
-3.5039723
27.2527046
-2.9390578
-0.3725919
-2.9609509
-5.3881602
-1.2530427
-3.2488308
2.8099792
3.4077947
-5.0437913
20.3718319
-2.0499914
-3.8012350
-1.0553626
0.4124924
-3.7886326
0.6216327
0.2692297
-3.3709188
-3.6169603
-2.1660662
-1.7531815
-1.5327652
-0.9510494
-4.7930350
-2.7576864
-3.1231830
-2.0699646
-0.8334210
22.5079250
-0.4966293
-3.0132973
-5.1597586
-0.3528494
-0.2273924
0.4972985
9.9021187
-0.2529886
-4.6425338
-2.6012104
-0.1591476
-2.2391462
-0.5148015
-1.2369437
-7.3030858
-2.3358557
2.5749328
-2.3814337
-1.5858787
-1.1211507
-0.3500121
-0.1596266
-5.8857603
-0.8258700
-5.2931085
-10.4664612
-2.5860119
-8.8065243
-9.4544373
-2.6206188
-3.3130205
-8.2597914
-4.8225217
-1.2112528
2.5561383
-0.1707273
-4.4307127
2.6901979
-0.5661957
-4.6147351
2.0760977
-3.7364023
-9.8640804
5.5275235
1.0767852
-3.1009822
-0.7255560
-3.3682404
-4.6844339
17.6171093
-3.6777096
-7.6359620
1.7303853
-2.4709241
-4.2943583
0.3489448
-5.0048900
1.2944350
-4.3339028
1.9679855
-1.5192761
-3.8471050
-7.6577539
0.4672549
-6.7580800
-2.0615201
-2.7904689
-1.8258471
-6.7860899
-4.2646146
-3.4175875
0.1403721
-5.0353808
2.2384772
-1.3716884
-2.3777459
-5.3520455
3.0515437
-9.0231180
-2.9694276
-5.6570873
5.5311575
-0.8357658
10.3110485
-0.3618720
-7.2600403
-11.0248728
-2.6967633
-0.9459613
-0.0568815
-1.2654349
-4.2908602
15.1539497
-2.6530550
-6.8092079
-10.8269892
-6.9940653
-4.4195833
11.0377302
-0.2650717
1.3708091
-3.4153888
-6.6986885
-1.9362137
-6.9608803
4.0382047
7.0155616
-6.6680789
14.2059364
-0.8321874
-5.6883578
-0.4182754
1.6008896
-3.5438690
0.8036624
-0.2616015
-3.3538311
-4.3932772
-2.7503836
-3.4352260
-5.3203506
-4.3087816
-7.4818187
-5.2664309
-2.2230465
-1.0922530
-2.6275346
27.1212234
-0.6019486
-1.9319916
-7.4370427
1.3945810
-5.1004963
0.4986063
3.0410616
0.5911289
-7.8251686
-1.6972085
-0.4616024
-2.8521402
3.3136716
-0.4293898
-7.3955464
-4.7750421
3.8741045
-2.5630167
-0.8441261
3.5568261
0.7240635
-0.0503207
-6.5506940
-0.2567014
0.1710920
-2.5693333
0.9980647
-0.7997422
-2.3474219
-1.4300697
-1.4112165
-3.7259476
0.3436333
-2.2973156
2.9934206
-1.2371546
-2.0803502
6.1432314
1.1462108
-1.8580862
1.8232025
-1.4910785
-0.0945116
-0.8003244
-1.9426155
3.4497428
-1.9883496
-0.1073627
2.0716197
5.1768894
0.5483699
-1.2332001
1.6906530
2.0256379
0.4146565
-0.3433335
-3.5326450
1.3602554
-8.2978411
-4.0023117
-0.6401842
-1.7170269
1.4431404
1.4489683
1.6230395
-1.6514392
0.8257651
1.1389468
-0.4938442
-1.3023258
-2.8214424
0.7312211
-8.3666029
3.3023984
-0.3675783
-1.8818800
-0.1124614
2.3272939
0.0068324
-0.1818025
1.7989122
1.8457173
-0.1800304
4.2850041
-0.0149963
0.0114968
-5.0871086
-0.6904362
-1.0947109
-0.3400493
0.5382935
10.4212141
3.2109208
3.9624505
1.2042167
-0.0712820
0.1834355
1.1772398
1.5492760
-1.1603667
-0.7279431
-1.9415059
1.3895252
1.2006332
-1.7051084
3.9474497
-0.0065846
-4.1636024
0.3900809
-1.7050532
-1.4015719
3.4656706
-0.0909488
-1.9314370
0.9404808
-0.8064308
-0.7651088
-3.2543042
-1.8972716
-1.6118387
-0.1093636
1.7991585
1.4992162
-2.7880120
-3.4016268
1.5238283
-4.3378377
3.1575675
3.4165752
-3.7987027
0.7715825
1.3656573
-0.7099234
-0.0887238
0.2723723
3.1487679
1.5378411
-1.4704248
-0.3551051
-1.7403647
1.2252336
0.3501010
-2.4451368
-3.3851502
0.9115349
4.1474771
1.9105141
0.0535234
-4.6315780
0.4777464
-2.1117826
-0.5364024
-0.0125242
-3.1241395
1.3903726
-1.7091142
-2.1602123
-1.8757584
0.0741097
-1.2013438
0.3691500
0.4279277
-2.0241780
1.9934868
-1.5668952
3.0461080
0.2866621
-2.3668375
1.0988626
-1.2438283
-0.4017064
1.6003766
1.1820842
-0.3969071
-1.7845936
0.8256838
-8.3066139
6.5762024
-2.3376770
-1.4327910
0.3242261
-0.8529275
-0.6485634
-0.3495844
-4.8354416
1.2042083
-1.6497427
0.2955990
6.3742871
-1.6545628
0.8656499
-0.1481387
-1.7324542
-0.2210366
-2.2885678
-2.8723543
-1.1903183
-1.4932305
-1.8844615
-1.5228801
-5.8007917
0.6152849
0.0336601
-0.7206622
-0.4023373
-0.1924459
-6.1302838
-1.6774513
0.1045053
1.8927873
-0.1149329
2.1985393
0.3583866
-1.0327908
-2.7756295
-1.2635235
0.4598142
1.1034118
-0.1691531
0.3989813
3.3940108
-1.1894488
0.1631242
-0.5771011
-0.3031799
0.4683259
-4.4736400
0.5647129
0.2786935
-2.8853395
1.1536226
0.5785888
0.6166072
1.4836582
2.7296846
-0.8339447
11.4404154
0.9016610
-2.0375822
0.8707733
0.9515290
-0.9389347
0.6245164
-0.4218070
-1.6068883
-2.3345473
-0.0900431
-0.8636138
-2.7998891
1.5769117
-0.7670013
-2.8989136
-2.4762869
0.8847840
-0.1535403
7.8213425
0.6962333
-1.1861321
-1.3290540
2.2885351
-0.1173691
-0.1673144
6.5219016
1.5180503
-1.4308182
-0.1413543
-0.4378076
-0.4086304
2.0544653
0.4625511
1.7443700
-1.5089182
1.5592225
0.5099388
-1.5519345
-1.2351856
-0.7073620
-3.7219484
-3.2017951
-2.2536373
-6.3131332
-8.7672396
-2.1538160
-4.2948341
-8.1343040
0.1015877
-0.8532521
-6.7740998
-5.5944757
-0.5978113
0.9628615
-0.1174720
-3.7493696
1.6578388
-0.5793880
-5.3445692
1.4671800
-3.6906681
-2.8398683
4.9403338
0.2277836
-3.7330542
-1.5354412
-1.8348069
-2.8800614
19.0498333
-3.5762289
-8.2861872
0.0237639
-2.8262756
-1.9144019
-1.7433542
-3.4512007
0.0016604
-4.9306579
-4.7874079
-3.2574389
-4.9110675
-6.9729171
2.1296632
-6.8369722
0.0298774
-2.2749143
-2.4222238
-4.7764859
-0.3106337
-2.4898193
-1.4775116
-5.8604364
2.1591005
-0.6456448
-1.2949964
-4.5069189
1.6956494
-6.8408880
-1.1618253
-4.1048942
0.3028049
-1.1725590
2.3073838
-0.4188271
-6.2350841
-5.9333296
-1.7797507
-2.2382810
-0.6020468
-1.1354074
-4.0372720
3.5760150
-3.0656803
-4.4352813
-12.5481377
-5.5142679
-3.0681343
37.3485870
-2.2563603
-0.8278645
-3.4607685
-4.8179860
-2.5743549
-3.2831087
1.4067733
4.3020506
-5.4048624
23.5501461
-2.6958299
-4.0116057
-1.4629185
0.0516576
-2.6985030
0.7770132
-3.4655206
-3.8963065
-4.2351937
-1.9419677
-0.4609109
-2.3916228
-0.3194685
-5.4966016
-3.5073411
-3.5211265
-2.0624735
-0.9852889
21.6602573
-1.0142534
-5.4300866
-5.4418540
-0.5620030
-1.1963677
0.2559871
13.8628759
0.2454335
-6.0779185
-2.7808571
-1.2863541
-3.4104545
0.6175097
-2.2855430
-8.2200079
-2.7849367
2.9512997
-1.4897938
0.0283991
-1.4745295
-0.2316750
-3.1805916
-5.6056490
-1.2822428
-5.8791938
-13.8876953
-0.6128539
-6.4022827
-13.7495346
-1.5616225
-1.9003315
-8.0516310
-9.1741819
-0.3161282
1.7968339
0.5176753
-3.7004151
4.3425212
-2.1180568
-5.1749830
2.7235651
-4.9803662
-7.8925586
6.1419644
1.4476649
-5.7418842
-1.9658085
-0.7481645
-7.0491157
19.8684311
-4.2481813
-8.1287603
2.4237731
-1.8895851
-2.8920655
-0.8358946
-5.8637433
-2.5863233
-6.0295973
-4.4320235
2.0959971
-5.6721535
-5.6693530
2.5383728
-8.8386993
-1.0868832
-3.1901369
-3.7219124
-6.0608044
-0.9924638
-3.1796863
0.1437436
-8.1493902
1.3492815
-0.3648179
-1.2840570
-10.1906099
2.2255766
-13.5117760
-1.5481071
-6.7201109
3.6896667
-1.3772151
8.2875528
2.7004287
-8.1721582
-8.1728811
-3.9715228
-4.1096148
-0.2568877
0.3200089
-2.1534693
12.8570824
-3.5745397
-7.0828261
-7.1766949
-5.5300422
-3.5072417
7.3240094
-1.6136218
1.7305949
-3.2676265
-3.7460873
-1.8959602
-0.4434742
0.9928689
6.4353981
-6.5495381
29.5066948
-2.2732613
-6.8259730
-1.4125389
2.1692114
-7.1313939
1.1370473
-4.6134558
-5.7572017
-5.5020876
-0.3201676
-0.6270476
-6.1340737
0.7028445
-6.7250605
-6.4927201
-4.4856491
-1.9595128
-2.3582246
36.9868126
-0.4503704
-4.7569056
-12.3729868
0.4534039
1.4795250
-1.8218886
13.5661182
2.2936418
-9.0961723
-1.3826509
-2.3379965
-3.6624355
2.1967030
-0.0064134
-7.8301067
-6.1674781
4.0487771
-2.3597088
0.2467046
1.8093690
-6.4746461
1.2561901
0.9205772
-0.1944377
-4.0306625
2.6983202
-1.1381112
-4.7594028
-4.1302147
-0.4550402
-7.0705466
-3.0444536
-2.6830771
3.6659615
-1.2158723
-1.6681986
0.0561558
0.5890042
5.0465517
-6.0039139
5.8002043
-4.3925805
-4.2245727
2.2304373
-4.3486509
8.0205069
-0.8944748
1.2288976
-0.3611726
4.3120584
-0.9205676
-2.6518946
1.9669328
2.2439518
-1.6656548
-6.9356599
0.7648448
-1.8230276
-6.4490399
-3.5189488
-0.0381146
-3.6374025
-5.8252964
0.9688551
-0.3363903
-3.2172544
-5.3118501
13.4504395
-4.3676271
-2.0619662
1.7665108
-1.7535826
-1.8120898
-2.3385754
-0.5726870
-2.3035262
-6.4265594
-0.6226891
-4.5914807
0.8642722
-3.2395620
4.1665087
-2.2344651
5.2103376
-2.6569581
-2.6283057
-0.9996837
-3.8277805
8.4253168
-4.5555315
-1.6192732
4.8647847
2.7147536
3.1450195
-11.1810865
-0.2416098
1.0851127
-4.4089723
1.7555226
5.9010119
3.2228999
-1.2242565
-1.7842493
-2.3136804
12.1249332
-4.0928078
-8.4734201
-3.5817239
-0.2008816
0.5238703
-5.9721351
2.5472112
-0.9575150
4.8541756
-1.8827128
4.1330681
0.0396071
-3.2419567
2.8639147
-0.1671525
-7.1526399
-4.8304958
1.3152667
0.5496536
-2.4185979
0.2791950
-4.2777286
12.6848192
-2.7735269
-3.8135912
-3.0991004
4.2457933
4.8808966
3.2598281
-0.8046347
1.2589269
-11.5192070
-4.8385100
-3.0189893
0.3377546
-6.8111281
-4.7195597
-2.5295930
-5.3312821
3.2651565
-4.6174560
1.9810604
0.4679157
-5.8363357
0.1896188
-2.1886752
-1.2731625
-0.9418287
-3.1967902
1.2681952
-1.7298778
-2.1640015
-3.2949641
-0.5773942
-1.3095247
-0.3773459
0.3386288
-3.1226878
2.0866635
-1.6914325
3.2514429
0.5231466
-2.4174063
1.4905642
-1.2250779
-0.6808304
2.2039115
0.4466138
-0.0608974
-0.7033678
1.1180447
-8.6916800
6.1432109
-2.9513195
-1.1095424
0.0437633
-1.0677161
-0.9111350
-0.1956476
-4.9976168
1.2440810
-1.9122981
0.0182224
5.7906852
-1.4753686
0.9543136
0.3716872
-2.6253769
-1.1335577
-2.4913797
-3.3578923
-1.5156522
-1.6860571
-1.8260009
-1.3021358
-7.3258057
0.6302439
-0.5724697
-1.2734251
-0.7302467
0.0114666
-7.0557432
-1.5565505
0.1129183
2.1963129
-0.0233593
1.9789730
-2.3718674
-1.1079880
-3.1336868
-1.4623914
0.5665676
0.8771675
0.1338582
0.6768655
2.6842036
-1.5745206
0.3275806
-0.4859813
0.1277054
0.2076774
-4.7421737
0.2385987
-0.1845147
-2.9199693
1.4404820
0.4026022
0.4096484
0.6196910
2.3849599
-1.0682333
10.9706593
0.8129579
-2.6375611
0.8278667
0.6145437
-1.2125778
0.8217853
0.0440475
-1.6091955
-3.0040329
0.1787419
-0.6336155
-3.0269110
1.0015918
-1.1844338
-2.7036781
-3.3041053
1.3464221
-0.2457714
7.9913387
0.2184444
-1.5416411
-2.2087913
2.4541929
-0.7199773
-0.0373979
6.3461967
1.7167761
-1.0874687
-0.1131703
-0.6176903
-0.4697885
1.5034969
0.4559124
1.6695473
-1.5107996
1.6133156
0.1444572
-4.0659075
-2.3749726
-1.3271614
-4.5702319
-4.3922019
-3.4450147
-8.7039204
-11.8090925
-2.1137602
-4.3633714
-8.2155762
-1.1903344
-2.4447551
-6.6855478
-4.2835069
-0.9792008
0.3212125
-0.1748077
-5.1045380
2.9667208
-0.4341034
-5.6637154
2.2288229
-4.9180579
-3.3209596
4.3043351
-1.9496624
-3.0153580
-0.7797766
-1.4113823
-1.8737088
18.9795189
-5.0036364
-8.3634405
-0.7045902
-3.4738486
-2.3469689
-0.6123601
-4.0818558
-0.9293948
-5.6599007
-4.3291011
-3.1067142
-4.8648863
-7.4836760
2.2178674
-8.5709581
-1.7258354
-2.2872028
-4.1438417
-6.2094293
-0.8183206
-2.3301957
-2.1389985
-8.8422537
2.0168965
-1.3495996
-1.8040154
-7.0579376
2.2480958
-4.1355658
-1.1129131
-2.9463670
0.1941451
-1.6432461
1.5455794
-0.6821433
-7.5858750
-4.6803427
-2.3993332
-2.6126459
-1.5950046
-0.0370497
-3.7775135
2.2927358
-2.7768965
-5.6290464
-12.7441187
-4.7051616
-3.2450142
12.9584684
-2.1868551
-1.0632656
-3.3112023
-4.2683153
-1.4430794
-4.6976438
-0.3933721
4.1600289
-5.3017640
24.7597008
-3.8000777
-4.3749714
-2.1315417
0.0109174
-4.7147369
0.8457715
-4.3378339
-3.9327879
-6.4818969
-1.5614309
-1.4526734
-1.4700519
-0.8052145
-7.4862466
-2.5157478
-3.7665327
-0.6170530
-0.9555343
24.4877682
-1.9837697
-5.8513546
-11.8024235
-0.3516573
-0.6177891
-0.0101773
14.9770298
1.1991438
-7.2205901
-3.3141487
-1.9167249
-3.0586216
0.2951355
-1.4359767
-10.8622065
-2.5291073
2.9418681
-2.3732412
-3.2683654
-2.7616010
-0.5037842
-3.6110799
-6.2558846
-2.0965137
-10.7711735
-16.5689220
-0.1893507
-6.4615750
-20.1576595
-2.4773510
-4.9074397
-7.5799084
-5.1367731
-1.2650429
1.6008554
-0.0513920
-9.1661654
7.9691443
-1.1112098
-5.7337584
4.9717999
-7.8058634
-6.9240541
4.6562386
-0.1371876
-2.4294896
-1.0759254
-9.6979980
-4.0389390
26.4605007
-7.0616612
-7.6982942
2.3967824
-1.3468179
-2.7249672
-2.5278227
-5.0543880
2.0146997
-6.4933686
-4.8506408
5.6913776
-5.1520700
-5.1522274
0.5934818
-9.7489538
-3.2837300
-3.3135145
-3.9502623
-8.6667519
-1.3590471
-3.3165174
-0.0599690
-15.9524546
1.9043365
-1.2082660
-0.6842278
-9.7451572
3.5945258
0.8878947
-1.7057656
-3.0055883
2.5972378
-1.5695120
5.7839208
1.4626220
-11.2600451
-8.5242815
-4.7794876
-0.1347211
-1.9235049
1.8205774
-1.2170297
8.8562384
-3.9762919
-7.2804136
-6.8435206
-4.3607092
-3.5680389
5.8868537
-3.3502622
3.4384348
-4.1003485
-3.6165285
-1.1697199
-1.8675300
-2.3892574
8.4934540
-7.1180291
30.6340160
-3.6619265
-5.7656665
-2.5303876
1.6837963
-5.8052330
0.4253680
-10.0352888
-6.2525911
-8.7943735
0.6593639
-1.9780490
-4.8283796
-2.2572258
-13.6794739
-3.3039515
-1.8453988
1.2485962
-1.0673709
39.4490967
-2.5598998
-6.8336968
-14.8132544
1.1058578
-0.2090751
-0.9091400
9.0058517
4.5848541
-11.3915205
-2.5593479
-2.0086107
-4.4654627
1.9352689
0.4123910
-13.9029188
-4.4462938
4.8292375
-0.1015548
-13.1416502
0.3899885
-7.5678644
3.2336249
-7.7777333
-1.7825924
7.7153654
2.8776565
2.0765984
0.7078856
-3.5687132
-2.9864180
1.4783608
-6.2755051
-2.2575939
-4.5689077
-4.2716022
-1.6973245
1.8737983
4.8050189
-3.0261664
-4.5349011
7.8385458
0.6504858
-3.2258852
0.3400549
-6.5216660
0.0005199
-3.7101536
-1.5673684
2.1765079
8.2246313
-1.0350319
-6.1209860
6.6744161
-1.9094442
2.2064624
0.6829028
2.5133340
-3.8625379
-2.2634907
4.0196586
5.9295015
-2.4344444
-0.9442205
-2.8428431
0.5173373
0.9209114
-3.2245827
-3.4911814
-2.6253319
-0.3937617
-6.8846540
-1.1189517
-7.1068959
5.8225174
-1.6590489
-5.8094215
-3.6578090
2.4307110
-4.9077716
-5.3683391
-3.6888771
2.6394353
0.2316416
5.9925170
0.0371309
-7.9213667
-5.9726701
-3.8154948
-0.9973069
-2.5702171
-7.9477034
-0.1468284
11.2744236
3.9635360
-10.7212038
0.0764537
-0.1189680
-0.3553528
-2.0368567
-0.9482908
-0.0162919
2.1187758
-1.2427553
2.0020442
-3.0994966
2.8651545
-10.2057800
-1.3124816
0.6699408
-6.4808621
-1.7161986
-1.6867807
0.3030543
-6.6232300
2.9738777
-1.9908943
-14.8029099
-1.0156857
-0.0219866
-2.4875674
-5.4697556
2.0441611
-5.4967155
-7.4335847
-2.5797133
1.7883830
-2.9206872
11.7767391
-1.2377226
3.0731921
-4.3432527
4.7239079
4.7828541
-4.4563160
1.6968728
1.7774928
-3.6612291
-0.4375187
2.2304845
-7.2616882
4.2761345
0.5314784
-8.5801392
-2.4551620
6.1938334
0.5493693
2.5131855
0.7599762
-8.2020855
-2.0298467
-2.7510121
-2.0333271
-1.1881992
-2.3324871
0.6539137
-1.6233765
-2.3826489
-4.5923109
-0.6896556
-1.2883437
-1.8096136
0.3282297
-4.5043640
2.3274169
-1.6128820
3.8203671
0.5072955
-2.6347134
2.0090826
-0.6831930
-0.9715258
2.6120684
-0.1754810
-0.0807953
-0.4667159
1.8270118
-7.2542200
5.5275059
-1.8568872
-1.3791950
-0.1734025
-1.8249708
-1.1851906
-0.1175504
-4.0273705
1.6895061
-1.8491640
-2.7105353
6.1394610
-3.1149955
0.9703171
0.2031161
-2.9443383
-0.9777067
-2.6148605
-2.8112180
-2.2358356
-2.0848382
-1.4624655
-1.8524808
-9.0756702
0.6823167
-0.9225440
-2.0459721
-0.8100975
-0.7511961
-6.7411222
-1.6338201
-0.0725420
1.8515244
-0.0991956
1.0196457
-0.1146546
-1.0086126
-4.2363582
-1.2503469
0.6787698
0.8523495
0.7753323
0.3833377
1.3954192
-1.1156529
0.5896417
-0.4234125
-0.0679587
-0.2245446
-3.6127965
0.9404352
-0.0645988
-2.9351573
1.0091345
0.7527525
0.7240326
-0.3045306
2.4644914
-0.9316790
10.6075563
0.9126010
-2.6612940
1.4172180
0.0569265
-1.1479759
0.9314407
-1.3322936
-1.6961865
-3.3789592
-0.2574235
-0.6563332
-3.7716372
2.0299771
-0.9827421
-2.6813560
-3.7658484
1.4983237
0.0309007
10.8065109
-0.4774319
-1.1220856
-2.2867517
1.2770540
-0.6977311
-0.0806740
3.5214214
2.1289687
-0.2559910
-0.8810276
-0.7409257
-0.4423971
1.6031065
0.7259697
1.6524795
-1.6242371
1.3996290
0.1054482
-0.8245175
-1.9173156
-1.5842798
-8.0125294
-4.5653424
-3.8469701
-12.0061188
-9.6577702
-3.1537988
-4.6745510
-7.5593772
-3.3704658
-2.8044624
-7.3650818
-4.4386716
-1.9754349
-0.5255716
0.3195128
-4.8538661
3.1182766
-0.2055239
-6.2755718
2.5799553
-4.9487872
-3.5412807
6.3942742
-3.8745666
-2.7686672
-1.4275889
-0.2926590
-2.0381744
19.8688107
-3.5893219
-8.8096771
-2.6922543
-6.3049350
-4.2357330
-1.3015558
-4.1704578
-0.3297382
-6.0105181
-8.2300692
-5.1357818
-6.4212437
-9.5833702
2.1396339
-9.4978237
-2.7862334
-3.5833280
-8.0454407
-7.4818788
0.6337119
-1.6941382
-3.5620496
-9.2906036
1.4488583
-1.5940083
-2.7716734
-8.1952982
0.9519814
-1.9408684
-1.4843146
-2.2035186
-0.4390028
-2.2738006
0.5668494
4.3228736
-7.9916921
-6.0328350
-2.2296991
-0.8751428
-2.8463337
-1.0425391
-4.9381547
1.2428699
-2.8857396
-5.2327938
-12.8440456
-5.1084013
-2.8804247
5.5590768
-1.6001142
-1.1060890
-3.6177626
-4.2615399
-2.1267271
-8.0688601
-1.2544804
3.9047453
-5.6274853
22.8203831
-4.9607735
-4.3451433
-2.7858992
-0.7664965
-3.6353240
1.9317063
-6.7689662
-3.7566350
-9.1989269
-2.3301888
-2.2179077
-1.0807650
0.0155119
-9.0130062
-3.0050311
-4.2935896
-0.6870090
-1.0550660
23.6508560
-2.7994699
-7.9927125
-11.7763643
-1.8788970
-4.2467990
0.4716030
14.2778072
1.7198057
-6.4004564
-4.3841205
-2.2819512
-4.6623130
-1.4040859
-2.7323740
-12.6942177
-2.8897340
2.3493855
-4.0609236
1.8014097
1.1840398
-1.7498152
-9.8968945
-7.2517328
-4.1191602
-14.2029181
-6.3516603
-2.6397355
-5.0592599
-18.9370785
-2.0622597
-5.2800674
-8.6936216
-2.3210502
-0.8931930
-0.3786650
1.9121714
-9.4427490
5.5687103
0.0453400
-6.7995749
5.6345806
-6.7382216
-8.4459963
9.3994951
-4.3906474
-3.2733898
-3.3300285
-1.6275771
-3.8111515
20.7143002
-4.6618414
-12.3554516
-0.4137888
-6.9816847
-4.5522141
-0.5661357
-6.9572253
0.2040828
-6.9680724
-14.8512516
-0.1191319
-7.6773229
-7.3962579
2.5170493
-10.6275549
-2.6146123
-4.4254766
-14.8937769
-10.0668039
-2.8270345
-4.3414769
-3.4589882
-9.5975952
1.6688197
-0.9267785
-2.2534723
-15.9029961
1.4444544
-6.8482184
-3.1782563
-3.3838551
1.9879627
-3.8540113
4.8242097
-1.3737441
-10.4542828
-10.2179022
-3.1288705
-2.8758714
-6.1669836
0.0251399
-4.1013761
8.0456276
-3.4081743
-8.4879951
-10.9072437
-4.9086456
-4.1818151
-2.7363601
-1.9486831
-0.3443506
-7.1888399
-3.7261028
-2.0652230
-8.1959772
-1.4857703
2.4615126
-9.2243042
12.3763027
-3.9525025
-5.4663887
-1.4660832
0.3654037
-11.0093756
2.9607651
-5.9523888
-3.6418030
-15.6220465
-1.0285873
-0.3948151
-1.9774913
0.5249350
-10.8265753
-4.4560728
-4.2724042
0.1284168
-2.4766142
25.2667789
-3.3113821
-11.7868519
-16.3072662
-1.2645441
-6.8900108
1.0847404
4.9818959
2.1270447
-5.0528669
-3.8853545
-2.9386280
-4.5760226
-0.2478025
-1.4968085
-16.1997623
-5.9027452
3.2363396
-5.6951351
3.6830878
1.2014540
-2.8013549
-1.7266089
-0.8031883
-0.2477989
-2.0797787
-5.4016337
0.3400927
-3.2298191
1.8063909
-0.8664855
-0.4543033
-7.4550438
-0.4199647
-1.9684856
-4.2034616
-1.9004424
3.1224017
3.3285062
-6.0658126
-4.0942292
0.0499318
0.6120734
-2.5939326
9.4876451
-3.2471776
4.6560812
-6.6300230
0.3391933
0.4479273
2.3621113
-5.1249094
-2.1217811
5.0909805
-0.8009419
4.4173689
9.5495138
-3.1473422
-0.5653840
-1.2357429
-0.3696327
0.6552051
-0.4253470
1.9674690
0.6404895
-1.4712787
-2.5826254
-3.8113472
0.8170145
-2.2667096
-2.3193202
-7.5303659
-6.1013355
-6.8043337
-1.3079306
1.0682606
-4.2936087
-1.7583522
-2.4895649
-1.3678921
-1.0516500
1.0364151
0.2071845
3.8820016
1.2629825
0.4243260
-3.9297671
-3.0231893
-4.6195850
0.4214096
4.9671593
1.6029128
3.4408240
7.6619043
-5.2480788
-11.0578098
-0.1406270
0.8741679
-2.5455687
-0.3713267
0.2202526
5.4309235
-2.7602077
1.5739372
-4.4510469
4.9631195
-0.9978167
-1.4226911
-5.1975856
0.2845684
-1.6711597
-7.6468806
2.2844372
-3.3121793
-2.1212947
-1.5521933
2.3787217
-6.9211502
-3.8150775
2.7336731
-3.1380429
-9.4500303
0.4970086
-0.5618092
-8.2338953
1.2127130
-3.0228348
2.2640748
7.1875143
-3.5093825
-11.9782991
2.1422753
4.2080965
-1.1116173
-4.2318068
-0.8677776
1.8961474
-0.6486344
0.1274472
-14.4648209
-1.4363763
1.0425377
3.7458389
-6.2060318
-5.6165309
2.1672797
-3.5287352
2.3895340
1.1973009
-12.3333197
-3.4822743
-2.6220942
-2.2901194
-1.1490149
-1.7257912
-0.2935615
-1.6861172
-2.6133025
-4.3974824
-1.0332403
-1.1956134
-1.0386962
0.5354568
-6.1937575
2.5979908
-1.5522929
3.8395195
0.6183506
-2.5547149
1.5146909
-0.9114328
-0.3814541
3.5394223
-1.5048692
0.1890562
-4.8791590
1.5048745
-5.6203589
4.5288682
-1.7652236
-1.3773217
-0.5686482
-2.5017188
-1.4996239
-0.1115284
-3.8717620
1.3600281
-1.9235035
-6.4944291
6.1760678
-2.7401571
0.8881170
1.5048217
-2.2989407
-1.4361073
-2.9389184
0.6672132
-2.2796612
-2.1506953
-1.4402031
-1.7078270
-11.1464005
0.5978956
-0.6376685
-2.1715181
-1.4468468
-0.9716184
-5.6105924
-1.4066666
-0.9548265
1.6442044
-0.1425298
0.3257462
-20.8519382
-1.2361137
-5.4062071
-1.4472896
0.9962603
0.8338519
-2.2530019
0.6458874
0.1964642
-1.7463274
0.8283234
-0.2259752
0.0672492
0.3870159
1.2309397
-0.2710586
-1.1787168
-2.9111350
1.8123590
0.4962299
0.9581815
-0.5874959
2.1962011
-1.1704547
10.3280916
0.6080600
-3.1729572
1.8017074
0.1064906
-2.8011880
1.1757123
-1.9147325
-1.6644653
-4.1457505
0.1960531
-0.5196909
-3.0918853
1.8361481
-1.4104820
-2.8649571
0.6216853
1.6896265
0.0913827
9.6913595
-0.7818840
-1.9074975
-3.3822458
0.4401997
-0.7763104
-0.0509655
3.2723606
2.2563627
-0.0990493
-0.7568954
-0.7611254
-0.8864114
2.4363430
1.0580016
1.8438559
-2.0680678
1.3860779
-0.0312947
-1.5246781
-0.8889234
-0.5864360
-10.9610243
-3.9871862
-5.2447972
-10.8443136
-7.1232138
-3.3563964
-4.6538634
-6.5776625
-2.9224896
-3.6113443
-7.2132716
-4.3014660
-1.4153039
-0.4991801
0.4676516
-7.3179908
3.5453842
0.2292788
-6.5366521
4.2449837
-7.3053589
-3.2496164
7.7066550
-4.5147004
-2.3074882
-1.9658651
2.3416076
-2.9264760
22.3400536
-5.4967546
-9.9340143
-3.2078500
-8.5031624
-3.9961727
-1.9951339
-5.7425671
-0.4692267
-5.8826590
-12.1555290
-4.8296533
-8.7264538
-9.2980003
2.3986967
-8.2448797
-3.3334224
-3.2833526
-18.9139576
-8.1138887
-1.3092889
-1.3243285
-3.2040813
-6.7496691
2.2456501
0.8265935
-3.7405179
-10.5276613
-0.3847125
-3.5431526
-2.3515496
-1.8468674
-2.3069582
-3.6058993
-1.3186558
10.0027943
-8.2791395
-5.5461979
-1.5721394
-2.5264666
-3.5311213
-5.4066591
-3.8420396
-0.9568211
-3.0934472
-6.3396907
-13.6104469
-4.7713022
-3.1409619
10.4390697
-1.7614900
-2.1251488
-2.8096027
-3.5266523
-1.4051881
-2.8744988
-2.1872189
3.8858566
-5.7342324
23.7270241
-6.2945008
-4.2980404
-1.9780928
0.4667073
-3.1611407
2.9479208
-10.2240829
-4.8919349
-9.4974546
-1.6207260
-1.0789896
-0.6077184
3.1884727
-9.7414236
-2.9180167
-3.7190957
-0.4922792
-1.1150033
24.5243931
-3.0372655
-10.7805977
-17.2593937
-3.0845933
-1.2454312
1.1679659
13.9844646
2.1350257
-5.0498052
-5.4551954
-1.0863488
-4.4425135
0.9359232
-2.2721944
-13.8710194
-2.9455235
2.3061931
-4.0118594
0.7821676
0.4826733
-0.6341688
-13.4210739
-7.0535665
-4.4466119
-12.1881952
-12.9681520
-3.1032128
-7.1479187
-16.9220123
-7.0666728
-6.0099878
-8.1791115
-3.9751909
-1.2406346
-0.0326355
1.4285530
-9.8256454
7.1817088
-0.2966051
-7.2634387
5.9097652
-7.9487562
-7.1179595
10.8320551
-4.8308496
-2.8018608
-4.8952966
2.6711402
-5.7681656
21.4456062
-9.0088825
-10.6151104
-2.6447101
-9.2350931
-4.6599536
-4.1843081
-6.7640133
0.6801615
-7.3712463
-18.0133858
2.2291086
-7.9912629
-6.7152185
3.9616904
-9.6380939
-5.5409083
-5.5857725
-23.1461372
-8.9574184
-3.8651955
-1.8745573
-3.5471234
-4.5386333
3.3174174
0.5446935
-4.2355170
-18.5389900
0.1494220
-3.1262760
-2.6112721
-3.3208442
-0.0867363
-2.8835719
3.8765600
12.5722942
-9.9236317
-13.3822250
-3.4715979
-2.4068286
-3.2622924
-2.8202052
-2.0968328
7.4778671
-4.7977266
-9.4792147
-12.1801319
-4.2892003
-4.8766007
-8.7834568
-2.3883049
-0.0164934
-3.2975135
-3.4379232
-0.8768294
-20.3222427
-1.2712705
5.8746562
-8.0727530
31.0984344
-5.1268845
-6.4091063
-0.8400832
2.9595358
-5.3988299
5.6300240
-11.4593496
-7.1163788
-12.7778234
1.3196925
-1.7579844
-2.7818198
3.4099140
-12.8995714
-4.7432957
-3.4612494
1.8853588
-2.1280246
32.8215141
-2.8183496
-14.4049644
-16.6937294
-2.9526379
-7.6009536
1.4662807
-17.9277458
4.8789959
-8.6110659
-4.4951005
-0.9809136
-3.8581126
-0.0559984
-0.7426839
-12.6295977
-7.4384222
4.1021328
-4.5652566
5.8280182
1.5722712
-9.6156616
-3.8875694
-0.0067985
-1.5105587
-1.7886469
4.8940921
1.2862806
-6.7246161
6.6378813
-2.4873595
-11.4566326
-8.1876450
3.5651426
3.6634545
-4.5777287
-2.1086159
-0.5183326
4.8172088
0.9941711
-3.6713307
5.3889713
-2.2846265
-5.4894266
5.7389789
-8.2620354
-1.7298275
2.0671368
0.3904691
-2.2021294
2.9577937
-6.1426740
0.6550523
2.2397401
-1.5388800
-3.6420619
-3.6229281
-2.7381186
0.8391212
-4.4047856
-10.8742323
-2.0356123
-0.2263521
2.8770304
-4.4319386
0.8969197
-5.7261534
-1.5522299
1.5119355
-5.7386818
-2.2833190
1.3968455
-1.5840700
-0.4528150
-2.9678891
-0.5709270
-9.3289261
-10.4877100
-1.8450931
-5.1671529
-2.7959828
2.1916003
2.0717525
1.1392990
4.4929552
1.9572264
-5.8552909
-5.9921923
1.7377757
10.6269617
-7.6471896
-0.2491221
6.0854349
7.8688202
-4.6569638
-7.6241536
-0.8660939
-0.2463082
-0.5726473
-1.6813158
-2.7109363
3.8469164
-1.8899715
6.6992645
-7.3298898
15.6070948
3.4038484
1.0012782
-7.7800226
6.6571336
0.3308429
-3.6771140
1.2398751
1.5874897
2.9575634
4.1415830
-0.5503860
-0.0230407
-6.3511882
-6.0171018
-2.1255143
-3.3700829
-10.8742046
0.2126890
-2.2611196
-10.2227783
-0.8951359
-2.9422772
17.9179039
-2.8351071
-3.6655364
-25.0218849
0.2270514
-17.5015984
-2.2919226
8.5242872
2.1598880
5.9147120
-0.5437787
-5.2493415
-10.5633593
-3.3882952
-5.5796690
10.8384819
-0.0993786
-0.0554662
-12.9016256
2.5141034
0.5169458
-18.7139397
-8.0015984
-2.1141543
-3.0538797
1.7182611
0.5087996
-0.6940606
-0.6786326
-5.7442012
-6.1165915
-0.7643891
-0.9643608
-4.4315729
1.7503381
-12.8584862
2.7568488
-0.9643453
3.2498562
0.3801188
-2.9347169
1.6322318
-0.6868405
-3.2587688
2.1118414
-1.7883561
-0.7103556
-4.3148990
0.5489702
-6.8995228
3.4934146
-4.1146235
-1.7537479
-1.4126420
-7.1220288
-1.7239573
-1.4429817
-3.4905074
2.3241313
-2.9494262
-14.5404472
6.7947097
-1.5314419
1.5329621
-0.4225672
0.3292567
-0.8142928
-1.0784831
-4.5112805
-2.4498038
-2.2654529
0.8716205
-0.7409428
-9.5909319
-1.5796942
-0.6736891
-5.5659561
-1.1640046
-2.2514966
-6.7545505
-0.8716390
0.1051066
-1.8020334
-0.7812263
-7.0084920
-46.3383217
-0.9287043
-7.7074041
-1.1931670
-0.3287276
0.5592819
-0.0399899
0.7034065
-8.3516150
-2.8149376
-2.2251277
0.5519743
-0.3048346
0.5349114
1.9115998
-2.9713762
-0.0889646
-2.1476605
3.1334684
0.5272320
1.3791796
-0.7937130
1.6173025
-2.3247166
11.2759857
0.5208477
-3.4622080
2.9810944
-0.0133625
-1.9740970
0.5592790
-0.7393559
-0.4778927
-4.8581791
1.6398261
-0.8394581
-3.5635345
-6.7594662
-1.3829168
-3.0183361
-3.8638692
2.7634499
-0.8093713
5.9138622
-1.4744929
-4.3608246
-3.3806760
-0.5166826
0.3611847
0.2665747
2.5324252
1.9128443
0.4017785
0.3139833
-0.9955140
-1.1373419
2.5483379
1.1804397
1.6881264
-2.2392716
0.9937328
-1.8610150
-2.3985860
-2.1291394
-11.2141790
-16.9153194
-1.2163812
-3.0292192
-4.0671544
4.6312666
-5.9385715
-2.4770808
-0.3569780
1.2464272
-1.7181009
-6.2605195
-1.0620887
