GNU Backgammon 0.15
250 128 5 1   0.1000000   1.0000000
-1.1286598
5.6459165
-0.6714309
-1.2084650
-6.7631621
-0.8802382
1.3040725
1.6762106
-1.2045636
-0.3371116
-0.8034536
1.7799193
-0.2099370
-3.8821776
-0.8586042
-8.3714495
-0.9152180
-9.9807997
-1.9981763
-5.3305631
3.4416943
-1.1496316
2.5699527
-0.7576233
-0.1390961
-0.4068051
-8.2267199
1.2265017
-2.2192125
-0.6498805
2.1344852
-5.3119326
-5.0732584
-0.0783663
2.0032780
0.2636043
-0.2510738
-1.7898922
-0.6723614
2.9464953
-1.2485683
1.0262533
-0.1319688
-0.6819366
-0.5582494
-0.7043151
0.9911357
4.3098993
0.8664961
-0.5126297
-0.0854336
6.2871346
-1.6406530
-3.7994261
-1.1293137
-3.4651866
-1.2788007
1.2031691
0.0667870
-1.2755435
0.3795222
0.5555582
4.2731261
-0.9160647
-1.2513794
0.0645604
-5.8775563
-2.4109561
-0.8355488
0.2583179
-1.0559511
-23.5596848
1.0961996
2.3467960
-2.4524729
-1.8082359
-1.6465763
-1.0482930
-3.0478418
-1.0755736
-2.5964978
4.9591494
-1.3376449
2.2967219
-2.3426259
-1.2362030
-2.9738188
-2.5720518
1.4734837
-2.2058434
-2.6204343
-5.0612130
0.2040590
-1.6137329
1.7952329
0.0988710
-0.0408671
-2.8258567
-1.8939192
-2.2723160
0.1289375
-0.3162600
-2.5555892
0.2788072
-0.0776972
1.5893892
2.1821413
1.8116299
2.6835997
-1.4180214
-0.9224281
1.1163505
0.5266788
0.5974604
-0.3250947
0.2784262
-5.4810581
-0.9329694
0.0620641
-2.0659685
-1.4201684
1.7059724
0.4152586
-1.7144268
2.0831635
6.9181943
0.5410824
-1.2794663
0.8290840
5.3316798
-7.3310246
-1.0958890
-2.2006388
-0.5297248
1.4878997
1.4889022
1.0536013
-2.0239573
-2.8361270
2.5422781
-3.3957160
-5.6179485
-1.1546310
6.4360056
-1.9465928
-5.7342548
1.6401223
-10.7767467
5.9602699
-1.7765682
4.1457253
-0.3789456
0.6497961
0.1705771
-26.6361809
0.1510807
-9.9643955
-0.9184386
-0.1563830
-2.6804967
-13.9359159
0.0846737
1.9243438
0.0807223
0.6631444
-3.2611992
-8.4617786
6.4773660
-8.8772669
3.1396399
-8.9260302
-4.6580000
-2.7868083
-0.8395913
3.6948686
7.4489713
3.0788331
-4.5227351
-0.0975207
-0.6036528
-2.4841483
-4.0551720
-2.2319014
0.5976536
-2.3803241
-15.7587290
-3.8078856
-2.2822521
-4.5813575
-2.5250185
3.3268023
-2.5540340
-8.0039062
3.4578459
-15.9406004
-4.1217999
-0.8896920
0.8964341
-4.3581023
-17.1555710
-1.2409816
3.8069861
-1.4774455
-1.8833644
-6.6471543
0.0586444
-8.1508474
-3.5638845
-4.0374308
5.6256804
-3.0006428
3.4627061
-4.1656637
-2.5132275
0.0377034
-7.0627871
1.4701031
-2.6869485
-12.6182919
-11.6881418
2.0235660
-0.4383858
4.4918375
-0.6586897
0.4473146
-1.9573432
-3.3017106
-3.9739385
9.4471684
-0.6042156
-4.4075460
-0.3644792
-3.3949897
3.4902472
1.7210867
0.6353535
2.2108214
-5.5663772
-4.9764848
1.1570735
-0.5021065
0.0338894
-1.1545191
1.3617107
-1.5107249
-2.6745090
1.6300124
-2.9881928
-1.0608385
5.0818758
1.0601019
-3.1774616
2.9204161
10.1135607
0.1846145
-3.6619315
-4.8093538
6.1740642
-7.3656549
-1.0388743
-7.9938917
-1.3014526
1.1284685
1.6404344
0.4405868
-4.5880628
-7.5623832
3.4910963
-2.8426368
-8.6678972
-0.1561549
4.0495334
-3.5215442
1.3470429
-0.3727221
-18.2556229
8.3259048
-4.0637259
6.4663353
-1.2562321
-0.3710043
-0.3666062
-34.9788017
0.0000097
-11.1719551
-3.1589847
-0.3261558
-5.8953753
-18.5487080
0.7510156
-0.3182412
-1.5212197
0.1610041
-4.5980077
-15.1865635
7.5612216
-18.7574406
2.8548229
-13.5157709
-9.5431175
-3.6129231
-2.2432566
3.4873202
8.6707592
1.8437753
-5.5438838
-2.4432888
0.1223408
-5.8253684
-0.3017896
-2.9726613
7.3528638
-5.7640371
-21.8619328
-8.6098213
-3.1223164
-2.4543397
-3.8648233
5.1911650
-4.5947194
-10.2724943
2.7885561
-29.0518322
-5.8608961
-0.6408367
1.5250295
-6.6378317
-17.4702282
-3.2466724
3.0435352
-2.2280083
-2.9280791
-8.0938892
-2.1577377
-11.7024899
-5.3574371
-14.3500109
5.9956503
-3.4768744
5.0022998
-6.6156802
-3.1332273
-1.9104593
-9.0688963
1.8645592
-3.5673637
-31.3603497
-21.7183990
0.3163580
-2.3571520
4.7247138
-2.1140454
0.9908431
-5.2186852
-5.3211932
-9.8617563
-12.5302649
-0.4614120
-11.0589666
-0.1986594
-3.8827183
3.4627268
1.4529957
-0.5565287
2.3530238
-7.9016504
-8.3651972
3.1861112
0.0367481
0.1546563
-5.7127986
0.0589029
-7.2524123
-4.3757992
0.1660716
-16.6181183
-2.4496319
7.7803383
0.7378646
-7.0009646
0.5110483
11.9020433
0.6076858
-3.0687935
-12.4032717
1.1946037
2.8722775
-0.7645468
-7.8123660
-1.4097250
-0.4862501
-0.0725653
-1.7066593
-3.1673148
-16.3804359
3.7467318
-0.6465403
-5.4235106
-0.8052905
-7.7883396
-3.1646900
0.4061507
-4.4541922
-17.2580509
3.4346573
-4.5323601
4.2236314
-1.0665361
-2.6996882
-0.6375739
-9.0907183
-3.1388052
-5.8671465
-6.2928591
-1.6579304
2.8104775
-15.6414576
-1.7587508
-2.0538211
-2.4281361
-1.2443855
-2.2963045
-15.4821444
1.5230310
-14.4142456
0.6935403
-10.6870613
-17.0913925
-2.2808144
-3.5085120
-0.0682452
0.4757012
-3.1205134
-1.7277625
-6.0720859
2.9220197
-6.5608172
0.9997639
-0.0876623
-3.1959877
-9.1440897
-6.9007239
-8.0304890
-1.7229140
2.0112967
-4.8120246
2.9387856
-2.4680994
-4.1534586
-2.5064023
-33.5893860
0.6161534
1.0674226
0.9446163
-3.7055452
-6.3335128
-4.7843060
-0.3322485
-2.0812240
-3.6833167
-3.3179595
-4.7370620
-1.5700128
-1.4785136
-25.8610401
1.5003166
-15.9849968
1.5707880
-5.4555206
-1.3375648
-2.7793920
-4.9443793
1.1294279
-1.0417460
-27.0445213
-29.4963779
-5.9166837
-1.2600560
0.6668273
-2.5830481
-0.0660776
-7.7884102
-6.1720142
-25.3280754
-5.5479884
0.4000128
-16.4394875
0.9626462
-0.9471354
-0.1173580
-0.2566544
-4.3119707
-1.3040738
-6.1918898
-8.9844751
2.3312180
-0.4970520
0.2137582
-16.1205120
-1.3603485
-22.4806442
-2.8196175
-3.5981688
-3.2800028
-2.2886608
3.6520300
1.0394166
-4.2954216
-4.9671898
2.0956209
-0.0437643
-1.2414955
-1.8004644
4.5142975
-0.4828282
-1.2380898
-4.4483886
-1.4518434
1.8191421
1.2472641
-1.3720143
-0.9138927
-1.0188729
1.5134624
-0.2428066
-3.6812017
-1.0009176
-5.5712667
-0.9494352
-7.3396473
-2.7137072
-4.9503584
2.2630470
-1.2919490
2.6167011
-1.6375861
-0.2195096
-0.7174838
-4.0072732
-0.0731114
-2.0281963
0.2433346
1.6395825
-4.4781861
-5.1494713
-1.3373955
1.2603631
0.4503046
-0.1367415
-1.8446169
-0.7167603
3.3445563
0.0341500
0.6744897
-0.2219577
0.1962578
-0.6132279
0.8307549
1.2378291
3.6872549
0.6886079
-1.4624202
-0.0215114
0.1914902
-1.3601868
1.1556380
-1.1283913
5.1239071
-0.2282847
-1.5700282
0.2434481
-1.8210253
-0.5659868
0.5357609
3.5618021
-0.6412376
-0.3994395
-0.9350812
-4.5365157
-2.1304686
-1.0121249
0.6290745
-0.7157640
-1.9861981
1.4973046
2.2366288
-2.7006183
-1.8611617
-2.4073586
-1.0526270
-1.4620416
-0.9683440
-1.5827031
4.6264954
-0.2485273
2.5341551
-2.0841644
-0.9828713
-1.5906937
-2.0299003
1.8421825
-1.6463759
-0.6523877
-3.2138388
0.3394714
-1.1039202
2.4574397
0.5937891
-0.9839331
-2.8843927
-0.7988846
-1.8416737
-10.6385508
-0.3207855
-2.5789683
-0.7623623
-0.6980498
1.2695681
1.9695547
2.0081782
2.5937333
-0.4631416
-0.4725447
0.6683962
-0.1192942
-0.0335041
-0.2695293
1.6324465
-5.4634290
-0.8434349
0.8316986
-5.1673379
-2.1491613
0.9159452
0.7189313
-1.0567515
1.5337268
6.1325908
0.7865890
-1.2052647
0.3679664
4.3801699
-8.5185356
-0.8687179
0.7087610
-0.4982491
2.0735161
0.8356541
1.3592815
-1.3651360
-3.4226563
2.0896668
-3.4172468
-6.8159900
-1.8562917
4.6608829
-1.5439994
-13.9525127
2.0363064
-3.8053308
4.9964271
-1.6788068
4.1513920
-2.1745927
1.5585012
-0.2767686
-11.2290792
-0.5129073
-10.4725437
-0.2030960
-0.5620679
-0.7023748
-15.5123987
-1.1846461
0.2081109
0.5108644
-0.1049516
-3.4205205
-7.1606145
1.2600416
-5.7299380
2.1356266
-6.8578210
-4.7252140
-2.1439161
1.5011033
3.7991965
7.5677633
2.4288402
-6.6189823
0.1501685
0.4238403
-2.3807645
-5.4969225
-1.9912348
-0.4573343
-3.4647856
-5.6440430
-4.5802131
-2.3239720
-8.4397011
-2.4924393
1.9943987
-2.3059087
-7.1978188
3.5205412
-12.4286518
-3.7206097
-1.4215907
1.7982396
-2.8226748
-9.9454412
-0.3308310
3.8507700
-2.2970297
-3.7875357
-6.7970686
-0.8669828
-1.1180825
-3.7158854
-4.0252490
4.0495129
-2.0309753
3.5134172
-3.4132493
-2.8968339
2.2206385
-5.3947287
1.8698913
-2.7626491
-9.1221933
-8.3799868
0.8976498
0.3833860
5.4461946
-0.0172725
-0.9018558
-1.3377553
-2.5598378
-2.3832088
-4.2774158
-0.4727173
-3.2047911
-1.6268053
-3.9772971
3.0647542
2.2668540
1.4042106
2.2304294
-4.3698802
-3.8657224
0.4840372
-1.7205230
-0.7425889
-1.1618782
2.7644668
-2.2042892
-2.5100648
2.3554952
-5.6364422
-1.1191734
7.0929322
1.0384663
-2.2300806
2.7580578
9.2298155
0.9484684
-3.5011849
-3.3014631
5.8778019
-9.6133003
-1.3730179
-3.3427057
-1.4107834
2.0069742
1.3510396
1.7342294
-2.9367197
-6.9758101
2.9428627
-4.0357280
-9.2120056
-2.4450839
-1.0394882
-2.4311900
1.5363792
1.3622190
-10.1840916
7.9711342
-3.2257605
5.9424262
-3.0198879
0.8651818
-0.8653035
-15.2732868
-1.2568485
-11.8200216
-1.9181402
0.1347642
-1.9641852
-23.4571781
-0.9450076
-0.9012174
-0.1515644
-0.1901190
-5.0945544
-10.5168648
1.5642521
-10.4823265
2.6958480
-14.5335436
-7.9144592
-2.6505823
1.3894746
4.6871433
9.7639828
2.2920077
-7.4360929
-1.3668880
3.3087368
-4.5319085
0.8513207
-2.6660361
-0.9934722
-5.1938977
5.7363381
-7.9255676
-2.6357839
-8.5859776
-3.2102873
3.9652057
-4.0832458
-9.6428061
2.8981707
-18.6545639
-5.4716067
-1.1253765
2.7215114
-4.8157229
-16.9550037
-0.8676445
4.1719446
-3.0703099
-3.4955192
-9.1447725
-2.5313251
-1.3708109
-5.8887501
-10.9221191
6.4722347
-3.6046412
5.3205566
-5.3360047
-3.2470212
0.5545695
-7.3847766
2.7340665
-4.8414731
-19.3649311
-15.2854261
-0.4323488
-0.7560009
6.4756913
-0.5726660
-0.5243790
-4.1183391
-4.7352891
-5.8341188
2.4929118
-1.0825509
-6.5871449
-1.6007539
-5.0553031
4.7561679
3.0497689
1.1035867
3.5479815
-6.4632235
-6.5429974
1.9736080
-0.9942278
0.1290887
-3.4012892
2.8594537
-6.4076390
-4.3026462
2.3651371
-4.5239511
-1.7517114
9.6190929
1.0476680
-4.4469566
2.2707376
12.6153851
1.6380173
-4.0254436
-12.4828939
2.3381603
0.4462099
-0.7753269
-12.3782253
-1.5082318
0.0319492
0.5713524
-4.1694803
-3.4437873
-11.9077530
3.9136682
0.4313674
-4.1626492
1.3095863
-6.1885777
-3.4003413
-3.4105372
-3.7795320
-25.8846226
4.4516416
-5.4230347
4.4906373
-4.1332874
-2.3021739
-0.6344333
-10.4014559
-1.4163629
-3.5395813
-1.3202136
-0.1171658
-15.6978035
-13.0692997
-2.2156227
-1.8146352
-2.7969499
-2.2534242
-1.7570347
-16.0374775
-2.7720869
-10.6105843
1.1866713
-12.1865101
-10.7336864
-1.5014780
-1.2508802
-0.3065466
1.3952717
-2.2977321
-1.5298692
-5.3438182
1.7294738
-7.3313251
0.3071290
-0.6227249
-8.0236797
-7.0724945
7.3403955
-8.7671747
-1.4310347
1.3801625
-3.5341909
3.0563350
-2.8172460
-4.5905943
-2.2236927
-33.9221954
-1.1070803
0.5477899
0.8430175
-4.5234284
-0.8320519
-3.6091869
-1.9548199
-2.1611867
-3.8055336
-3.6677775
-5.4933314
-6.2343426
-2.7268519
-16.7792187
1.6338016
-4.0518403
2.2690356
-3.5972750
-0.9054292
-3.9340260
-2.2399261
1.4202349
1.0857584
-17.1531811
-21.0663929
-2.2615380
-0.5557914
0.2678534
-2.1712430
0.4958931
-7.6952982
-8.6519260
-16.6764297
-6.7181692
0.9560344
-12.1821041
0.9191014
-1.8390371
-0.9656236
0.0853830
-2.4222527
-0.5709928
-4.3874054
-7.4250979
3.4061069
-1.6961029
0.2681570
-11.3486300
-1.5899249
-17.2191334
-1.5512319
-4.0373797
-6.5395870
-2.4327760
4.1828737
1.5227699
-5.6792278
-4.6856647
3.5486627
1.7396721
-0.8661535
-2.8316748
1.7916321
-1.4348549
-0.8014918
-3.4033685
-1.3712351
1.7499952
0.9063103
-0.9950782
-1.0777216
-1.0523469
1.4988587
0.2371556
-4.3621759
-0.9152902
-3.8068287
-0.7331132
-4.9043336
-3.1095524
-4.7084084
0.2492807
-0.5605031
2.7943563
-1.2839447
-1.0589176
-0.8078172
-1.1180437
-0.6341488
-2.4094644
-0.6269225
0.6058112
-2.2451410
-4.4021020
-2.3725972
0.1156379
0.0807383
-0.0983061
-1.7705840
-0.7141118
-2.5650589
0.0614173
0.8976232
-0.6309472
0.7417491
-0.6986282
0.6830012
1.6162096
3.4528871
1.0598546
-2.1607244
0.3640852
5.0493174
-0.8395162
-0.1481166
-0.3850750
-4.6735835
0.2806014
3.4078248
-0.2882249
-1.7243738
-0.8743496
0.4820177
3.5046747
-0.6052594
-0.3414468
-1.3843485
-3.5691748
-1.7515563
-0.7304294
0.2055600
-0.8876584
-9.1371527
1.6771150
1.8104270
-2.9459424
-4.0800562
-2.3030257
-0.3538476
-0.0972723
-0.4020605
-0.2689433
2.9767995
-0.2502615
2.5376132
-1.7455686
-0.9932994
-0.2715643
-1.8607758
1.8581057
-1.5582397
-2.1585305
-2.5012777
0.8478040
-1.1233828
2.5552223
0.3044320
-1.5636555
-2.3174121
-0.3953186
-1.6630127
3.5256095
0.1097791
-2.4402404
-1.3729225
-0.2786127
0.7047913
0.6433888
1.8544314
2.1878352
0.0090530
-0.1177187
0.0712269
-0.9999679
-0.5424204
-0.4076308
1.9482104
-4.3229828
-0.9948241
0.8783396
2.6559238
-1.5598297
-0.3558466
1.7432743
-0.7350501
0.4969802
4.7977371
0.8925254
-0.9852074
0.9398743
2.8487005
-9.2099924
-1.0253595
1.8702072
-0.3860680
1.8781976
0.5026652
2.6809211
-1.0526487
-3.9114115
2.0081737
-2.8111162
-8.4581089
-1.5130051
3.7423694
-0.8722104
-2.9760566
0.3891855
-1.2331392
2.5396574
-0.8554780
4.2613945
0.1427488
1.3244816
-0.7864363
-6.8970461
-1.2788997
-11.1676483
-0.4857099
-1.6551483
2.5757675
-10.9196682
-1.8400615
-1.4525068
0.0969004
0.8119851
-3.6225407
-6.6848173
1.9022357
-4.3512197
1.6842130
-4.6696744
-4.3178425
-1.9612466
1.6168796
4.1757722
7.1704769
2.5555153
-8.7090712
0.7414281
-1.9896792
-1.7901287
-11.3060093
-1.4612551
-8.3688593
-3.5407827
-6.8069119
-5.7885742
-1.7106011
-9.3912163
-2.4468818
1.6803521
-2.2314250
-6.2441697
3.3179462
-10.9090824
-3.3931634
-1.7909541
1.5265566
-2.4046230
-16.4293308
0.5097518
3.7218146
-2.4338443
-4.7106528
-6.9770904
-0.1915617
3.2680507
-3.5375650
-2.5198357
2.9193017
-3.9863408
3.5920799
-2.8614178
-2.8903139
3.9077215
-4.2558460
2.1511042
-2.1051607
-8.5721321
-6.6239371
1.1745354
0.8185989
5.8481126
0.1207850
-2.2482138
-0.3289763
-1.5326900
-1.0411406
-7.8689370
0.5390295
-2.4235258
-2.4197714
-3.7774017
2.4551253
1.2957398
1.5255193
1.9567646
-3.8144827
-2.8417432
-0.1198648
-2.9534681
-1.0264583
-1.7236621
3.4480410
-0.9603733
-3.0112443
2.4803495
-10.7087994
-0.7011929
5.7194276
1.8004329
-1.1424183
2.3023679
7.4796267
1.0992559
-3.2282171
-0.8210118
4.1153030
-10.9348335
-1.1612502
-0.9914619
-1.6379977
2.3422086
0.7912271
2.3492723
-1.6148424
-5.0152736
2.8702490
-3.9129996
-10.4995708
-2.0642822
-3.2290385
-1.5028219
-7.8961043
1.0082408
-7.6703653
5.1480803
-1.8773477
6.1853614
-0.2317876
0.7623434
-1.3455476
-10.9134674
-1.1204313
-12.4496813
-1.5406653
-1.0079733
-0.2032509
-16.6655865
-0.8074545
-2.0814250
0.0626467
1.1813208
-5.7118020
-8.8222055
2.3535819
-7.8528123
1.7488045
-10.3413610
-5.5252838
-2.7400753
1.7703542
5.4088860
9.7877388
2.9443820
-9.8200245
0.2223454
-0.0886219
-3.3573141
2.9388492
-2.0654643
-4.0259023
-4.6863713
-4.1849818
-7.8257041
-1.9034696
-11.7373819
-3.1253126
3.2385483
-3.3361449
-8.7678528
2.8110912
-15.8076391
-5.3965311
-1.7886978
2.6287634
-3.8483536
-7.9549136
0.2024479
4.7121511
-3.5099711
-5.1739192
-9.2339602
-1.3381728
2.1079183
-5.5314188
-5.9585853
4.5126424
-6.3446307
5.5567465
-4.8324442
-3.0870802
1.9452955
-6.2649584
3.1412206
-3.7591159
-12.0082693
-11.3801441
0.8542936
0.0358916
7.7253799
0.0054793
-2.1725893
-2.0103898
-3.4697030
-3.3189824
-10.5130959
0.0584343
-4.7682185
-2.9890237
-4.9052711
3.8667819
2.3036284
1.5677292
3.2692163
-5.6703081
-4.3419018
0.6258429
-2.3905900
-0.3360406
-2.8049722
4.6374726
-4.0552449
-4.3490834
2.9506853
-11.6950617
-0.9917940
9.2846870
2.4144759
-2.3196182
2.7803404
11.1158590
2.0181313
-4.4346271
-4.7471290
3.1873877
2.3814692
-1.8167349
-11.8929806
-2.4042833
-0.3677038
0.0484577
-3.1107876
-1.9961749
-6.9929585
3.0089612
-0.4814681
-4.3164196
-0.0197127
-6.8042421
-1.8438783
-4.8376842
-2.1489735
-12.2644663
4.4829273
-3.5007021
4.0551419
-2.5936158
-2.3913052
-0.7367261
-6.8491721
-1.0432210
-1.3053473
-1.8338921
-0.8398807
-10.9727421
-11.2845678
-0.3718467
-1.7390952
-1.5051793
0.3941744
-2.4957221
-8.5547132
0.1458510
-15.6266937
2.3671200
-22.1692753
-6.7030807
-1.3879166
-0.8862487
-0.0391735
2.5202813
-2.4135766
-1.5696272
-4.2534328
-5.6263499
-4.6399584
0.9984627
-2.0460582
6.1620250
-6.0201287
-2.9992361
-8.0911598
0.4496347
-3.6695704
-3.4362164
2.8582125
-6.3228574
-6.6312642
-1.5619137
-15.6651173
0.3856295
0.7919219
1.3384923
-1.5901483
-2.6666207
-2.8373802
0.4702999
-1.7876326
-4.0834174
-4.2009192
-3.9792776
-6.0781550
-3.5496185
-7.8583713
1.4738685
-7.9573083
2.5977232
-4.8216262
0.8239573
-5.6123624
-5.1352425
1.1181600
-0.4199833
-20.9932766
-16.4811115
-1.2233626
-0.6188794
2.1978998
-1.9377620
0.0197792
-3.4592855
-5.5971041
-9.5716600
-3.9226999
1.4258517
-9.5114403
0.1925011
-3.3904741
0.1879313
0.7301294
-1.0734714
-0.3647462
-7.6394119
-6.0553856
2.8806922
0.9220934
1.2258888
-8.3078852
-1.1038232
-6.2509689
-3.5655367
-2.0009289
-4.5121040
-1.6088893
5.0515676
-0.2255770
-4.9171233
-1.8935950
3.2691922
2.4696856
-1.9562403
-2.2787707
-1.8539599
-1.2488165
-0.5901924
-1.6340379
-1.9933742
2.4783847
0.4745120
-2.8448420
-1.1793432
-0.9670103
1.3857672
-1.0415422
-4.9863110
-1.1867818
-2.1566119
0.1830550
-8.0778866
-2.1761873
-4.9248695
0.2720905
-0.4475736
2.6663444
1.1219765
0.0083524
-0.7973294
-0.0948368
-0.8921892
-2.3949442
-0.7751772
-0.0194010
-0.5466873
-2.3347139
-4.2409058
-0.4957733
-0.0092258
-0.2692081
-1.7603229
-1.1014655
-5.3394923
0.0349735
0.8255934
-0.9998965
0.7996761
-0.8891326
0.2062093
1.5016674
3.0111139
0.7217113
-2.0183074
0.2995950
0.3920142
-0.3435221
-2.8833885
-0.5539379
-6.7568855
0.8804722
-0.0591401
-0.3346299
-2.1508927
-0.9833605
0.1034385
2.6801648
-0.6974754
-0.2118168
-2.2555697
-3.4517334
-0.9893848
-0.1792280
0.9768008
-1.2150006
-1.0527700
1.3979406
1.1917883
-3.0567422
-3.5514441
-2.5103593
-0.5109071
1.3418876
-0.2237932
0.5124068
2.3065443
0.3430017
2.8036792
-1.5155263
-0.7707519
1.1568000
-1.1048101
1.9400110
-0.1830620
-2.7466507
-1.7054715
2.0185716
-0.9094660
2.0793548
0.1726256
-1.5379620
-2.0237491
-0.0078337
-1.4494921
-10.6940632
0.4159240
-2.3653970
-1.6056749
-0.5043709
0.1441675
-0.1740875
2.0462432
1.4323859
0.9800716
0.5629752
0.6914825
-1.5043603
-1.6695498
-0.6382802
2.9546535
-4.0982862
-0.6760385
1.1145525
-9.0307198
-1.4381087
-0.6284015
0.3665698
-0.3099673
-0.6857585
3.1041734
0.7746447
-1.1443073
1.3955609
-0.5761544
-8.2334309
-0.7930833
5.0401073
0.2745459
1.5956933
-0.1374927
1.3244085
-1.3078783
-3.6063023
2.2051013
-3.8439920
-9.5763788
-1.5344706
0.7699873
-0.6420617
-3.5490406
-1.0968322
-0.4341500
1.4667189
-0.1538454
3.8534176
1.8902273
2.6377385
-0.8651667
-7.1955953
-1.5478450
-12.0714388
0.1827849
-2.5766573
6.9680729
-5.7962551
-1.9223543
-2.5546451
0.3607497
0.9905465
-3.5114996
-6.8347969
0.8710734
-4.3344126
0.7972147
-1.8079754
-4.1075497
-1.7803531
2.9630747
4.0109849
6.6273351
2.3478901
-9.8172150
0.9331498
-1.8791038
-1.0184628
-7.3782001
-1.0443760
-3.2499249
-3.2263787
-6.1479092
-5.4110022
-1.6884346
-9.1886587
-3.0105321
-0.4256542
-2.5353904
-6.3171754
3.3821392
-10.6093092
-2.5142679
-1.6873804
1.5357047
-1.9586527
-9.8321457
0.6127440
2.9595501
-2.9769700
-4.5192022
-6.4371257
-0.2059287
7.5297012
-2.3512034
-1.4413197
0.6489850
-4.1873536
3.5833366
-2.1954522
-2.2002697
5.7047377
-2.9444902
2.3051021
-0.2642402
-8.3552666
-5.3561249
0.9261007
1.0077896
6.1333475
0.2841582
-2.9530056
0.3527350
-1.4662045
0.3819048
-16.0883083
1.0177219
-1.6938840
-2.6446238
-4.0792565
1.8944477
0.6909156
1.9675053
1.0848550
-3.6318326
-1.9407609
0.4765713
-4.3348136
-2.3285933
-2.0697296
4.2579865
-0.4156406
-2.9257534
2.5884526
-5.3419104
-0.5676287
2.2889395
1.0146430
-0.2134096
0.9956355
5.3372612
0.7525622
-3.2905681
-1.0236629
-1.0507919
-9.7493172
-1.2702918
3.1255691
-1.4495506
1.8967372
0.2222620
1.0989008
-1.8430703
-5.2249603
3.0358610
-5.4051867
-11.3586903
-1.9842491
-5.2164979
-0.9636737
-13.1598864
0.1553743
-6.2005863
4.2130728
-1.2205373
6.2402654
1.8102049
2.4348834
-0.9872254
-10.0280151
-1.1717615
-13.7241306
-0.5575683
-2.2160368
4.5106764
-10.8411312
-0.3981869
-2.9269629
0.6344674
1.3859088
-5.6887660
-8.5746651
2.6427541
-6.7045026
0.1099211
-5.4448924
-3.8889155
-2.7617245
3.6824005
5.4365101
9.5351658
2.8949511
-10.9951334
0.8888634
-3.5304039
-2.1584456
-5.4580131
-2.0557475
-3.0887253
-4.2277608
-2.4520853
-6.2141747
-3.0454609
-13.0918045
-3.4188325
0.5051557
-3.7256055
-7.8552289
3.1518171
-15.0279655
-4.7585506
-3.7020638
2.2517886
-2.6378226
-20.0455513
0.8825889
4.2383924
-4.2941871
-4.9356389
-8.8095713
-1.3475270
4.9746470
-3.7676690
-3.6077673
2.7392113
-4.6862578
5.7222805
-3.8094101
-3.4460187
4.0765319
-4.5166388
3.3905766
-1.7712008
-12.4946270
-8.6167002
0.1725812
0.4201024
8.4853573
0.7333648
-3.2368395
-0.6927972
-2.8548439
-1.1426544
-5.9452887
0.7147259
-3.7918158
-3.4951541
-5.3896699
3.5388329
1.7000996
2.5327384
2.6026685
-4.5053749
-2.3955173
0.9954876
-4.3425136
-1.2899811
-2.7304265
6.2030201
-2.9321074
-4.1620059
3.3110235
-6.1392884
-0.7603360
5.3968287
1.6028451
-0.7487298
1.6006392
8.8767338
1.4126631
-4.6979532
-2.8513401
3.8471353
-12.0173645
-1.2456894
-9.9035578
-1.6400944
-0.8867638
0.7563685
-1.6919246
-5.3055315
-4.5257230
1.8791363
-0.4454062
-5.8283834
-0.3073888
-4.5228157
-2.2496648
-2.5988245
-1.9970428
-12.8840017
3.0787878
-2.5231321
4.1824412
-0.4266753
-2.6270523
-1.1065626
-5.4144716
-1.5209782
1.0130529
-2.8375955
1.4223267
-7.2897615
-10.9064465
-0.5142971
-0.7872007
-1.0646349
0.2526322
-4.6879244
-4.7742176
0.8365481
-3.6398754
2.2636096
-15.7485380
-5.3926082
-0.8006788
-0.3118593
1.7071083
3.0074654
-0.7579058
-2.7867630
-2.4931197
8.1393137
-4.3149171
-0.7343732
-0.4459239
0.4588722
-2.8545713
-7.4304056
-7.1155691
0.1538823
-4.3939633
-1.4540465
3.4256043
-3.7624540
-1.6992466
-2.4059532
-7.7252235
1.3367208
-0.1538841
0.5223232
-3.3067031
-7.3763733
-1.1060381
0.3574085
-3.7142599
0.5458844
-5.7271438
-2.2260568
-5.0259762
-3.3537221
-6.1215439
1.3803188
-1.6249903
2.7614348
-3.0040386
-0.2856574
-5.2343884
-4.4310064
1.3964530
-2.0295405
-10.4781733
-9.8926954
-0.9519060
-0.5297936
3.1572149
-0.7549375
-1.8341146
-5.9415736
-3.8010659
-5.8910418
-2.3572614
1.6691574
-6.1328006
-0.1783772
-1.9667487
-0.3322929
1.4951766
0.8737943
1.4228185
0.3167462
-3.8392382
1.5659356
0.4461618
0.9221381
-4.8139377
1.0728239
-6.7864347
-3.4933035
1.4426885
-3.9323475
-0.7502115
4.1010547
-0.2180918
-2.2865715
-0.2302840
4.0522990
1.9608916
-1.0508919
-2.0014629
-2.1037033
-0.6762710
0.2539227
1.5175881
-1.8323352
2.2273347
0.0245592
-1.2614485
-0.7569983
-1.0270205
1.9994084
-0.1375468
-5.5316234
-0.6396887
-2.6175573
0.8721768
-5.1985602
-2.1153648
-14.1067200
-0.7088745
-0.6524711
2.2045529
-1.1498052
0.2213186
-1.1623883
0.3084835
-1.4219550
-2.4427927
-0.2209872
-0.3781216
-0.7136535
-1.6647692
-4.9265375
-0.9996958
-0.7523196
0.2413709
-1.4002728
-1.1508920
-7.9760990
-0.3708825
1.1095662
-2.7317002
0.9481289
-0.9461129
-0.2736347
1.1692677
2.6897748
0.4123085
-2.2690761
0.6835710
1.8203892
0.3109275
-2.2581494
-0.3556920
-6.9026442
0.1458731
0.3470430
-0.1132888
-1.9496307
-1.4753042
-0.2026162
2.2767146
-0.6898176
0.3458252
-3.2323012
-3.2813411
-0.7385917
0.0411741
0.5123156
-1.6868440
5.5908380
1.0103592
1.0719395
-3.0060611
-1.6166667
-2.9973092
-0.1802075
0.3804346
0.3294875
0.9698897
0.9827119
-0.7081530
2.8462787
-1.5393353
-0.3552975
0.4845349
-0.7770287
1.7332808
0.0997937
-3.2630496
-1.3843787
2.1511726
-0.8745152
1.7442122
-0.4787977
-1.8437189
-1.5570025
-0.0798947
-1.3604695
0.3187113
0.5114748
-2.6220994
-2.0390360
-0.8166497
0.4376146
-0.3706560
1.4048427
0.7611331
1.6454917
1.0806596
0.3738753
-1.9337423
-2.1625929
-0.9139498
2.5773697
-2.8077865
-1.7738189
1.9485722
-1.2050834
-0.5129039
-0.0246795
0.2772052
-0.1221897
-1.0575645
1.8749306
0.4093042
-1.1542060
2.7149625
-2.1384072
-7.4674001
-2.1500008
7.7006564
0.5302710
1.0695481
-0.4842013
2.1388543
-0.6140381
-5.0684037
3.0976849
-2.8218422
-10.2059917
-1.1202824
-1.0468173
-0.1820479
0.2527814
-2.7806633
4.5331578
-0.0219609
0.0165839
3.4126334
2.2834122
3.8963983
-1.4160194
-7.2514277
-2.0427828
-12.4261580
2.0846989
-3.2315309
10.6429262
-4.1261292
-1.5964391
-3.7638812
0.0812359
1.7651731
-2.9045064
-6.5319681
0.1375981
-3.6115232
1.6436709
1.2864469
-2.5559752
-1.9833388
4.3664260
3.6849287
5.9647985
2.0487857
-11.4583187
1.2926661
-2.7645946
0.9644727
-13.1332350
-0.6338841
-8.4706535
-4.1751971
-8.5855474
-4.6117897
-1.1374670
-8.3489895
-3.3909967
-2.4700389
-2.3492243
-5.6136489
2.6864429
-10.1527748
-2.5845850
-1.6436741
0.7966009
-1.9772162
-21.8858891
0.9596635
2.8685548
-3.2318347
-2.2184877
-7.0778708
-0.2014959
6.7475696
-1.7081161
-0.4469681
-2.0847504
-2.9672096
3.5003283
-2.1479273
-2.1251400
6.0478830
-2.5214403
2.4279284
0.7323837
-6.7021713
-4.6420918
1.3866601
1.0828151
5.9056406
-0.0676529
-3.3612564
0.7696688
-1.0849230
0.8306835
-9.9359665
1.3367174
-1.1941870
-2.4059477
-4.0333405
1.4109496
1.1946863
1.8045660
0.2127422
-2.6915171
-1.1626084
-0.2328761
-6.3812990
-3.0118833
-1.8580990
3.9797239
1.3177564
-4.0249133
3.5939689
-2.5222178
-0.2374566
0.0128743
0.9390532
0.9873323
0.2445348
3.4815950
-0.3068192
-3.1305439
0.4960145
-5.4466281
-9.1820822
-2.7511921
6.1849480
-0.4170825
1.3632013
-0.1538787
2.8507147
-0.3503524
-5.6238890
4.5676928
-4.3598509
-12.0065498
-1.8587365
-5.5574355
-0.3939211
-7.6476502
-2.2644329
-0.3575722
1.3325357
-0.2487234
5.4924116
2.2349136
4.2287903
-1.5684327
-8.3477821
-1.7889526
-15.4461460
1.5791327
-3.3024702
9.2249928
-7.9444542
-0.1553045
-4.0526543
0.4288018
2.6018364
-4.7431612
-8.0421638
-0.1674874
-5.0952134
0.1312860
0.5115750
-2.3013501
-2.6877263
4.2838283
5.3118949
9.2150717
2.7656856
-12.5317783
1.5362461
-4.7098112
0.3995943
-4.5926085
-1.0463490
-10.0489845
-5.1633997
-4.1443634
-4.5238070
-2.6148007
-11.5528603
-3.7858963
-1.8081207
-3.0802839
-6.9522786
2.5770175
-13.9003096
-4.2230411
-3.7500832
1.2872431
-2.2134140
-26.7290802
1.5504450
4.0223079
-4.6758828
-7.4382739
-10.0863066
-1.0562395
3.7132585
-2.7738502
-1.4814736
-0.3324767
-4.1437268
5.3376327
-3.5481720
-3.4739380
4.8742619
-3.5139852
3.3038754
-0.1605534
-10.0466375
-6.7706094
0.5848021
0.6687152
8.5844450
0.2347098
-4.3275123
0.4273346
-2.1880581
-0.0394272
-13.1722898
1.3495463
-2.7498353
-3.5895889
-5.0788631
3.0583317
1.5286295
2.8521261
1.7728425
-2.9525158
-0.6730705
-0.1342042
-7.5544567
-2.1904407
-2.4346800
6.0951018
-1.7874678
-4.9272599
4.2632318
-9.9256592
-0.3884144
2.9165525
2.1278532
0.9362843
0.9791173
6.7984347
0.2885130
-4.6337352
-3.3163879
4.4289608
0.1118664
-2.2824006
-5.2781725
-2.6684105
-0.7325387
0.8998620
-1.7857542
-1.2574145
-4.6010866
0.8904979
-2.6352305
-5.3276329
-1.2749816
-5.7129736
-1.3328656
-1.9383880
-0.5946973
-10.5764771
3.8349750
-2.6120243
4.5309625
-0.2307503
-1.2305281
-2.6996388
-4.4106221
1.1096866
-4.9187841
-3.1657000
0.2516112
-3.9564872
-7.3176622
0.4134180
-1.3251960
0.4781076
0.5301974
-5.0174012
-3.4906111
0.4179825
-5.1440082
-2.3118603
-8.1376753
-1.7919337
-2.7940736
-0.7223628
1.1477842
5.1367421
-0.2744387
-2.3107316
-0.6673994
6.8588247
-2.4352257
-1.9868269
-1.3442773
-2.2854397
-1.3352449
1.0934730
-5.1230254
0.0782759
-3.1564393
-0.6390485
2.5214510
-2.9057167
-6.1752748
-1.9474355
-8.1395187
-4.7865033
-1.9907502
0.5098909
-1.7533711
0.5139371
0.0811972
3.1090016
-2.9820468
1.6585436
-4.5541768
-1.6952621
-4.3506451
-3.1368599
-4.1382127
1.9265742
-1.6146283
3.0870676
-2.1998596
-1.3976929
-4.2357531
-2.4520907
1.5565056
-1.3139966
-14.3393078
-6.5002871
-1.8679874
-0.9999048
4.1679592
-0.2857944
-1.8848046
-1.6091802
-3.2049811
-2.9175787
-1.9400269
-0.3215033
-4.3878899
0.4563864
-2.2025650
0.8545385
3.8511906
0.0304285
2.3939738
-5.2286615
-1.2974660
-0.1682146
3.3879805
1.1918367
-2.9619758
2.9531453
-9.2464142
-4.1355729
-0.9756777
-1.5191730
-0.8901827
3.8561106
-0.1893346
-0.7334986
1.0364388
5.4547386
1.9102666
-1.9177734
-1.2095293
-2.9803946
-1.9680098
-0.8521885
7.3325138
-1.6088403
2.3920476
-0.8296687
-2.8866432
-0.9843109
0.7716298
1.9230206
-0.1566457
-5.0033774
-0.0416744
-2.2832220
1.0289896
-4.9319344
-1.1025164
-6.9603176
0.2600782
-1.0737503
2.5691574
-4.3792467
-3.9107847
-0.2629631
2.9959655
-0.3503036
-3.0657511
-1.2450360
0.4943635
-1.9323163
-2.2752695
-7.6508675
-0.6480315
-1.6991941
1.0634176
-1.8084105
-0.9320649
-6.0172668
-1.0860257
1.0639410
-7.1706619
1.3699132
-1.0108285
-1.9982542
0.4393630
3.3489976
-0.3537627
-1.1477497
1.6471471
4.5796442
1.2206696
-1.7858434
-0.7749934
-2.8383658
-1.5253806
-0.9984068
-0.4647957
-1.3894243
-2.4051909
-0.1080513
0.4117294
-0.6141457
-1.7770749
-2.7617030
-3.7137997
0.5101467
0.5422597
0.3828036
-0.4195728
1.2584503
1.0892822
1.5937989
-2.5531631
-1.4970217
-3.0086665
-0.9548957
0.6393232
-0.0380125
0.6939375
1.2079509
-0.9305979
3.9096105
-1.0298325
-1.3125567
-1.0701867
-1.0254217
1.0035812
-0.6744916
-4.8662701
0.7114313
0.8599247
-0.2605327
1.2039616
-0.0583594
-1.3914610
-1.1282511
0.8800281
-0.7461997
1.4825709
0.1335887
-1.3365940
-2.3653176
-0.7192031
0.7486853
0.3105523
0.5461968
0.3657321
-1.7837343
2.9640534
0.0024766
-1.7963637
-2.2903252
-0.5445344
2.6091676
-2.8424151
-2.3411310
0.8497105
1.3597277
-0.1318292
-0.3004302
1.1623691
-0.5538475
-1.2048247
1.5586368
-0.1740692
-0.9215548
5.2948432
-3.8409970
-7.1000209
-3.7020047
8.4628515
-0.2819308
1.6160066
-1.1169425
0.1909572
-2.8713415
-2.8701406
2.6398308
-4.0524397
-10.8014174
-1.0066490
-2.0920742
1.3589579
1.5437374
-2.4338231
-3.2496262
-0.7377098
-0.2531506
2.7297223
1.5549271
4.5050941
-1.4157112
0.5633437
-2.7460907
-11.7514458
1.6436167
-2.4043489
9.4826403
-3.3760123
-3.4109933
-4.2656918
-0.5124207
0.6106278
-2.6303868
-6.3061614
-3.0599947
-4.0700092
2.3790617
1.1927873
0.8756729
-2.3693535
2.4557116
3.0018163
7.1981874
0.7175081
-12.7960958
2.7710261
-0.3110813
3.5510118
-4.5916958
-0.8562915
-12.6371193
-5.3785405
-2.5906096
-3.6522710
-0.6893675
-10.5256491
-3.2385180
-4.0206442
-2.6265471
-5.7704115
2.9905739
-10.5384541
-1.1022729
-0.5280618
0.3611148
0.1181506
-9.8793325
0.7161387
4.5161719
-3.0945342
-1.5477864
-6.2015839
-0.2632847
4.8066311
-2.0251763
-0.5746331
-2.1261690
-3.7534094
5.2780333
-0.9717392
-2.8051085
8.2717695
-3.0521047
2.5844481
-0.1021458
-9.5151482
-0.8612391
0.4266374
2.1808038
4.7473083
0.8032087
-3.1358728
0.9809877
0.3003395
1.8377920
-2.7366121
1.4914167
0.9774042
-2.4044678
-3.7258682
2.3537800
2.2162714
0.4338858
-0.1099520
-2.8914504
2.0402308
-1.3979065
-3.6262963
-3.3014820
-1.3968809
4.3490500
-1.3989458
-4.4728098
3.6400781
1.1219099
0.3360394
-1.5356687
1.6663407
2.9373741
-0.2825644
2.4192240
-1.0900096
-2.8639150
2.9896908
-8.3451471
-8.1799994
-3.5468631
7.4557905
-1.1962820
1.8650723
-0.8111581
0.5046743
-2.6142626
-3.5789559
4.3711524
-5.5443821
-12.5082045
-1.7510792
-5.5913348
1.7458942
-3.7968347
-2.6581326
-6.9245057
-0.2093084
-0.4618306
4.8425522
1.1202399
3.9663818
-1.7198204
-0.1413728
-2.7416940
-14.5574732
1.5789428
-2.7841778
8.2481775
-7.1001964
-2.1693048
-4.5739942
-0.1104987
1.3786757
-4.5163016
-7.5291214
-2.6613946
-4.9700952
0.6532726
1.5812176
1.1046829
-3.1611238
2.5465083
4.5570107
10.0271444
1.3190287
-13.2767630
3.1170425
-0.0635629
3.4067674
-2.7358582
-1.4017545
-12.9801903
-7.1554189
0.0852716
-3.1935818
-2.5448327
-13.9447575
-3.6087887
-3.3245993
-3.6428120
-6.6037893
2.9983673
-14.2796516
-2.6044977
-3.3499167
0.6999752
-0.2681322
-4.9342628
1.7527963
5.2938571
-4.5112586
-4.8936734
-9.0265112
-1.1680623
1.8408161
-3.1080329
-1.2311276
-1.5373276
-4.6815095
7.5271850
-2.1540246
-4.0911140
7.1501985
-4.0612502
2.8769116
-0.7593961
-12.1451092
-2.1961579
0.3524312
1.8214530
7.5464535
0.6165751
-3.8730052
0.8752325
-0.4809280
1.3161540
-3.3854153
1.4370345
-0.2961646
-3.8473630
-4.9082685
3.8222809
2.4969137
1.9110328
1.2875987
-2.5831103
2.9611402
-0.9283372
-5.7836757
-2.6589663
-1.9788716
7.0057125
-3.3763874
-5.0706229
4.8474431
-0.0146091
0.2413837
0.5035644
2.9165397
3.3032756
-0.0930009
5.1135364
-0.5893947
-4.2800431
-2.0860882
2.7873323
1.9293383
-1.7045958
-4.3315096
-2.9199500
-1.4560592
0.1197030
-0.7728328
-3.2130392
-1.6960216
3.1622632
-1.6638418
-4.3292336
-1.1431069
-5.0610366
-0.4723037
-9.1325636
-0.4223210
-7.0911021
1.3988038
-1.8399568
4.0515728
-1.6815957
-0.8435239
-0.2105540
-3.8613021
0.8376157
-1.9554234
-2.7266252
0.9082240
-2.4897683
-5.2391825
0.4969330
-0.0153321
-0.0248233
1.2964979
-4.2955618
-1.9303149
2.0763741
-2.3246887
-1.2833174
-1.0493649
-0.9697641
-1.2817678
-0.3257417
2.1782789
5.2556486
0.3025761
-1.7078923
0.1862562
-1.0924461
-1.3442454
2.9164941
-1.8162673
-0.7798091
0.7024081
-3.8586960
-3.0905309
-0.0092217
-20.3206940
-0.4169247
1.5516723
-2.6912229
-5.7500730
-1.3580526
-5.7323260
-4.0857487
-2.8013408
0.1169039
-1.2811669
15.1365643
1.1853899
1.5750352
-2.2581065
-2.8549459
-5.0686741
-2.2561469
-4.7878799
-3.5485599
-4.1110311
1.2918475
-1.6125513
3.5213990
-1.9751467
-1.3146536
-4.4255185
-2.5351608
0.6135488
-3.2298501
-7.5488296
-4.1440787
-2.6679432
-1.1094574
4.8630934
0.1949305
-0.2618404
-1.3362821
-0.8196552
-1.8114994
-9.9430723
-0.5848809
-3.1207361
-1.3470292
-3.0215755
2.0403175
2.1089194
0.5652695
3.2632473
-4.8479919
0.1846641
-0.4104353
1.9315667
2.3484573
-1.4235275
3.6371984
-5.6290369
-2.1049352
0.7120167
-2.8524504
-1.4070951
2.6715882
1.1666032
0.6361184
1.1059929
5.8881774
0.8561579
-2.4337502
-1.8120234
-1.4829433
1.5717081
0.6025031
1.7364554
-1.7586708
2.2327902
-1.8687243
0.2063951
0.0404605
-0.2469454
1.3262089
-0.7578995
-1.1843065
-0.9347219
-2.4807186
0.4226502
-3.2681761
-0.3579821
0.2491308
0.4440087
-0.4414436
1.1384592
-0.9835727
-0.7293705
-0.3668153
2.5315824
-1.6496407
-1.9117457
-0.6561837
0.7150031
1.2742467
0.5668249
-6.6583819
-0.6106118
-0.3634886
1.0953033
-1.4563981
-1.2143050
-2.5862834
-0.8359308
-1.2914715
1.3424584
-0.5066404
-0.6522457
-0.8361462
1.1461037
2.3252583
0.2919861
0.1390022
0.0981197
-0.1385897
-0.0395570
-3.7563252
-0.8005486
-4.8148832
-1.2558181
2.5350931
0.5459061
-0.1835229
-2.6621473
-0.5045488
0.3602362
-0.5550033
0.7909776
-0.2314736
-2.6348240
-0.6386129
-0.8963249
0.9856007
-0.8452354
-15.2862482
1.1801114
0.3687726
-1.2440116
-0.4021786
-3.2381630
-1.0068253
-1.3721298
-0.7902237
-0.3432997
1.4876062
0.0054644
2.4331350
-0.8638570
-0.4675175
0.0383390
-0.9182975
0.3093306
-0.2971952
-0.2300439
-0.1030289
0.5617529
-0.5373237
2.2168853
0.0372260
-0.8490817
0.1497818
0.2675107
-0.4427064
-7.6027942
-0.3815365
-0.4040325
-1.0877017
-1.5642831
1.4579256
0.6127781
-0.0278393
0.1492202
2.2390866
1.9118677
-1.5371751
-2.0120170
-3.7630394
-0.3625225
2.9244747
-1.5308702
-1.4391632
2.8548033
0.6802086
0.0499033
-0.7415489
0.3505184
0.4073807
-0.0936673
1.9147716
0.3934262
-1.0712953
-1.2636639
-5.1714573
-4.7399235
1.0165228
-2.0868051
-2.3134537
0.4330786
-1.4079673
-2.2607801
0.4190295
-3.4813914
1.9095333
-2.3245778
-0.9765446
-1.3718184
-3.8582108
0.7015480
-3.1346271
-0.4564496
-3.8968649
-0.3175530
-0.7075442
2.9884498
0.6757644
-1.0413027
-2.2402914
3.9816341
-0.4677553
-3.8455849
-1.1621552
1.3676479
1.2264804
-2.7943141
-1.3336535
-1.5399029
0.0693240
0.8371585
-1.6738526
-1.6994696
-7.3586316
-0.9097480
-1.6734831
1.2574453
-0.6223886
-1.9216318
0.8782160
1.9689221
4.8825130
0.0929809
-0.1833432
0.3380080
-0.8308365
-0.1205176
-3.7020543
-1.0117894
-13.2400570
-1.7812651
0.6956018
-2.8756373
-0.7366878
-3.1265557
-0.6341195
2.3274114
-1.0809406
-0.3183663
-1.4466517
-5.1360297
-3.0377748
-1.9684576
0.0512733
0.0027925
6.8299870
2.5410488
2.8133614
-2.5334363
-1.0965873
-5.4488311
-1.7555833
-1.1806213
-4.0364671
-1.3681957
-0.9633366
-0.3646499
4.7971115
-1.9380982
-1.5693682
0.5140976
0.2339098
1.2760484
-1.3361695
-2.5814896
-0.6979113
-0.7159269
-0.6703369
4.6797323
0.4569840
-1.9411420
-0.9003798
-1.0339363
0.4555520
4.3337231
0.6510622
-1.2007487
-0.4053624
-2.4752831
2.1507468
2.7761407
1.2693939
1.5728607
0.7520320
4.9287896
-1.4959360
-2.3293674
-1.3283052
-1.2751142
4.4470901
-2.6479578
-3.2085712
5.1448922
0.5521801
-0.4989552
-5.6964545
-0.0734151
1.4677593
1.2540287
4.2977877
0.4354485
-1.6574701
-2.5374534
-20.0437984
-5.4845529
1.5006354
-2.9598556
-3.7751043
-1.0652369
-1.6588455
-3.2991829
-0.2875468
-3.9498367
2.4189248
-4.0378799
-2.6749184
-2.4947672
-9.0929174
0.8167149
-4.9148655
-1.2960688
-7.2012677
-2.0264812
-0.7289034
3.9968514
-0.4155726
-2.1396630
-2.2251508
3.8466833
-0.5714066
-5.4323883
-1.4742662
1.9194510
1.1120464
-4.8544760
-0.4649675
-1.7394116
0.2115112
2.1239994
-3.3030698
-2.2490406
-12.6483784
-0.6329049
-2.3245282
0.6658486
-1.0327779
-2.3891332
-0.2460731
3.4558797
7.2087326
0.7557164
-1.8271127
0.4346153
-4.5488138
-0.6729270
-2.8317888
-2.5770245
-14.1438885
-1.8760886
-5.0681453
-4.1766992
-0.7562501
-4.4194136
-0.9678900
3.3481731
-2.3963182
-1.4637007
-2.2558670
-8.0252571
-5.1158290
-6.3428931
-0.5365182
-1.1173831
2.4189720
3.5757983
3.2756779
-3.8610055
-1.9761579
-8.0215769
-2.5326693
-3.3838789
-4.9069395
-1.7238506
-0.6632112
-1.2803530
6.8156095
-2.8049088
-2.1504216
-1.2051122
-0.3032783
0.5816569
-2.1609099
-5.2099833
-1.2345717
-0.3765965
-1.3144999
7.1528006
0.2186290
-2.1516800
-1.1379086
-1.1083894
0.1513373
-9.6347895
-0.0988850
-1.7464424
-2.4881878
-3.7714381
3.4304619
2.2008152
2.4420061
2.8889344
0.4001860
6.1475492
-2.2637591
-4.0725555
-0.5671600
-1.9334540
7.3537245
-4.0294819
-3.9845319
6.3897920
-4.5068293
-0.7339045
-4.7857571
0.3246834
1.9399430
1.5661261
7.0123615
1.1767181
-2.8378093
-1.3843876
4.8768744
-1.8997236
-0.5751228
-5.8313899
-2.1024537
0.7689471
-2.6422398
4.0339847
-1.7866527
-3.2712872
-2.8065708
-0.6818499
-3.0054619
0.1055815
-4.7138066
-0.5952898
-0.1497496
-0.1476023
-4.6101785
0.3849726
-1.5572400
2.9353971
-1.5303897
-1.2446764
-1.4805273
-1.8864306
2.3613510
-3.1939328
-3.1948786
1.9259180
-0.7559245
-3.5482533
0.6213686
0.9530623
-0.3393955
0.5378278
-6.1291347
-0.5148032
-2.7217762
-1.1031177
-5.3741755
-3.0955658
-0.7828935
-1.2766241
-0.7004779
1.3284391
5.1318979
0.6945803
-2.7500901
0.4945489
-4.9102664
-0.4793588
-4.0532842
-2.0176916
-0.7838871
-4.2137470
-2.6557310
-4.4133115
1.5385947
2.3434563
-0.1211375
1.0323133
-3.2196963
-0.0378887
-0.7816067
-6.9047651
-3.1930683
-4.9936018
0.0619504
-1.0554848
0.6432211
2.1304297
1.7600806
-3.5202129
2.0821736
-4.2813654
-1.0372636
-4.5721288
-2.0711856
-4.1813807
2.4404736
-1.2167321
3.7009990
-0.6509331
1.3961424
-2.5955322
-0.8172604
-1.4710455
-4.2023330
-1.9103401
-1.5044096
-1.5157346
-1.5988665
4.0310545
0.8262202
-0.4303593
-0.7893828
-0.7139595
-0.8726829
1.0801601
-0.9052730
-0.8059806
1.1256139
-2.7606776
4.0196624
3.9635975
0.5834044
2.8395605
0.9284911
2.5577941
-3.5964482
0.0727371
-2.4554996
-1.2303478
3.9075711
-2.5689964
-5.1170163
2.6362610
-2.0392818
2.0305915
-1.0381532
5.7155628
1.1714466
0.4092064
6.0620880
1.3860623
-2.3804202
-2.0747161
-0.4281948
1.3410345
0.2883920
1.5209144
-1.9107071
1.8517036
-1.7382991
0.7021192
-0.1396115
-0.0535332
0.9139010
-0.5642028
-1.0980647
-0.6806180
-1.5197200
0.5548570
-2.3513660
-0.5709997
-3.0226104
-0.0571795
-0.6504428
0.3681338
-0.2645537
-1.1301811
-0.4163864
1.0143362
-1.3192843
-1.5571202
-0.2951541
0.8794037
0.7991785
0.6063000
-6.3521166
-0.5839813
-0.6311211
0.3403645
-1.3998988
-0.8979685
-3.1106584
0.0681058
-2.6819124
1.4512943
-0.0437836
-0.6286652
-1.0614086
1.0477198
2.2779269
0.4219216
-0.3393626
0.2675785
0.4294203
-0.2504225
-4.5822949
-0.6601244
-0.7981707
-2.3260159
2.8536170
0.4671608
0.3171358
-3.0843906
-0.4149356
-0.1713774
-0.6414722
0.8587073
-0.4805557
-2.1716878
-0.5005910
-0.8563649
0.7628502
-0.5694275
-25.6493835
1.4532247
-0.1223300
-0.8285400
0.1524528
-2.5360599
-0.8425553
-2.5538280
-0.3087820
-0.4517918
1.1834897
0.0127357
2.6023414
-0.8384053
-0.6609223
-0.5953044
-0.7124061
0.1863642
-0.6726192
0.6338084
0.6515378
-0.4491114
-0.7646313
2.1491594
-0.0825161
-0.9455783
0.2583570
0.1883067
-0.3943997
3.6960955
-0.3873809
0.0247228
-1.3384933
-1.1652633
1.3301286
0.3453631
0.2833502
0.1138159
2.3316951
2.4113548
-2.0578194
-1.5377423
-4.1107726
-0.4622982
3.2707918
-1.1963780
-1.1439995
2.6875594
-0.8563420
0.0548723
-1.3706774
0.5221858
0.7213321
-0.3607737
2.0794263
0.2016149
-1.0777581
-0.9558962
-5.2398877
-4.1200175
-0.0897522
0.0711214
-2.1244986
-0.0174610
-1.1030883
0.5054059
0.7092903
-1.8031650
1.8183460
-1.9909488
-1.9370738
-1.2778337
-2.2066250
0.5645999
0.0548321
-0.9877353
-3.9602430
-1.5528941
-1.4060842
1.3873675
0.0718072
-2.0062501
-1.7473302
-0.0199060
-0.7748778
-3.0753136
-1.7814798
1.8214903
1.0675887
0.1172623
-1.4501799
-1.5753316
-0.3845081
0.8618008
-1.7445637
-1.0543423
-6.5930581
-0.3714049
-4.3056636
1.6052239
-0.2647961
-1.9051028
-0.0907606
1.4755691
4.5550175
0.5494947
-0.7610565
0.5169486
-1.2677850
-0.5109951
2.8401897
-1.0143425
-1.5467563
-4.5522509
1.8414454
-1.6864721
0.0834678
-4.0975728
-0.3983896
1.0395752
-0.9111814
-1.0211695
-1.5633870
-3.5745347
-2.8850627
-1.9579729
-0.1463481
0.5040742
8.4497385
2.6704090
2.1494827
-2.1432202
1.3585607
-5.3092637
-1.8081338
-4.6510072
-2.5309811
-2.2740805
0.9169825
-0.4583403
4.6694098
-1.9988506
-1.6304222
0.2068994
0.6096048
0.5197461
-2.0829008
-2.2782254
0.5389744
-2.2752676
-1.1795393
4.3607521
0.6402110
-2.0229270
-0.1308796
-1.5861238
0.8175242
-0.2865888
-0.1057491
-0.4400296
-2.3458159
-2.6125369
2.1115377
1.0021592
1.0918871
1.5375686
-0.0152483
5.2786808
-0.7213210
-2.1755452
-1.8233540
-1.0998503
5.1262641
-1.1036798
-2.3470461
4.2879868
0.3564335
-0.4290675
-7.2676210
0.7109368
1.8946791
0.6154293
4.6321607
0.1194056
-1.7104017
-2.4450946
-26.0301132
-5.6103358
-0.0505300
-0.0103434
-3.8388648
-0.1388725
-1.4901254
1.8314184
0.7347878
-1.7698866
2.5235603
-2.7698245
-3.1438568
-1.8528848
-4.5131912
1.0254165
-1.6966974
-1.3850062
-6.7317142
-4.4796124
-2.5485201
2.1337473
-3.4939981
-3.7512102
-1.9351804
-0.7888712
-0.6489611
-4.3159995
-2.8034575
2.7669165
0.9758948
-0.6911713
-0.8567031
-2.2582319
-0.1079662
1.9116719
-2.8655698
-1.7982754
-11.6296186
-0.4650821
-6.2000098
1.3698953
-1.2160887
-2.5098257
-1.2202389
2.2473433
6.5552683
1.2378817
-1.9064070
0.6701575
0.2412305
-0.7089207
-1.0780915
-2.4338632
-0.1651634
-5.4425402
1.6825045
-3.1401844
-0.0952488
-6.0459285
-0.5099425
1.4039929
-1.8940630
-1.7210716
-2.3857698
-5.8237896
-4.1525989
-4.5579634
-0.2609785
-0.0932542
10.9739981
3.8330178
2.1868248
-3.0600674
-0.5691662
-7.7995381
-2.4704759
-8.1934557
-3.2568729
-2.8077824
0.7374952
-1.2140936
6.9621339
-2.2611804
-2.8238826
-1.0904714
0.5368595
-0.4682598
-3.0615001
-4.9199295
1.2003808
-3.3940253
-1.9444237
6.4870148
0.4861315
-2.6317711
-0.2279806
-1.6026484
0.8688297
-5.3082166
-0.8893624
-0.4173460
-3.9391594
-3.5351324
3.8302112
1.0800730
2.2849028
2.9174395
-0.1020107
7.6535802
-1.2510850
-3.9698370
-1.8160577
-1.9894538
8.2405453
-1.6297601
-3.6454887
6.3904481
-5.5329533
-0.4578634
-3.5463727
2.4463863
2.7790041
0.7435060
7.1967926
0.3337711
-2.8888757
-2.4468937
-1.7722037
-5.5545678
-1.0543056
-3.9201903
-3.2913053
-2.3734064
0.2873605
2.8195446
-1.9124699
-0.0400709
0.4245149
-3.0044410
-3.2385643
-1.5896348
-3.5577338
-0.5288333
-0.4676255
-1.0808209
-5.4018006
-5.8541322
-2.1158535
2.1785762
-4.9679728
-0.3637039
-1.6911924
-2.7534196
0.2060646
-1.8887023
-3.5566669
2.4302299
-1.5574945
-3.0847099
0.4067533
-0.4567144
-0.2391430
0.5499080
-2.1126001
-0.7652504
-5.7012510
1.2487793
-16.2392845
-0.9635162
-2.2594976
-1.6425519
-1.8626187
0.4876977
4.4327297
0.7529991
-2.1268773
0.9836590
-0.5305725
-0.8294524
2.9630320
-2.7748425
-2.1724958
2.9869931
0.1477466
-4.7651529
1.0534164
-1.7519416
0.1735874
0.4235162
-1.5913786
-1.7239338
-0.9801624
-3.5461471
-2.2910597
-3.9682989
-1.2882248
-0.4851418
7.2504139
1.8025936
0.5803221
-0.3157474
-6.7991376
-3.8464847
-1.7263246
-5.7152567
-3.1627886
-3.8896148
2.8830018
-2.4061310
3.9849811
-0.0975907
-1.7980384
-0.8816413
-0.9281322
-1.4766115
-1.6969662
-3.1576190
-0.0019333
-2.2362604
-1.9552927
4.1352506
0.2240402
-0.9483087
-1.8493469
0.1227159
-0.5542282
-3.1390734
-0.4999031
-1.9745915
-0.7200193
-1.7355875
2.6230073
-0.3842196
1.4546630
3.0379052
-1.0293289
4.1709690
-3.2047222
2.3665674
-0.3709708
-1.0780925
5.1415024
-2.4578269
-3.4942114
0.2718302
-2.2465253
-0.3311941
-1.8763211
-0.6701475
1.2601165
-0.2233246
5.9991107
3.4162672
-1.9989104
-1.3249180
-0.2556730
1.8164928
0.5922461
1.4755772
-1.8541276
2.1230836
-2.3865314
0.6845534
0.0552430
0.1979997
0.8124173
-0.1336121
-0.8421744
-1.0112969
-1.0099926
1.0267918
-3.4288449
-1.6593132
-2.2099333
-0.1919760
-0.3542061
-0.5012416
-0.8525666
-1.2764629
-0.4204559
1.1912811
-1.6071291
-1.3384026
-0.2913386
0.6190854
1.5369228
0.5539305
-5.4233637
-0.2794313
-0.7212383
-0.3574530
-1.1812184
-0.6907177
-4.2772765
0.2178275
-2.8395495
1.8100053
-0.5911728
-0.6385102
-1.3153538
1.0844862
1.9985772
0.9147908
-0.3350680
0.4247791
-2.8983531
-0.0822701
-1.2330774
-0.9827658
-2.7788887
-2.0519917
2.2397106
0.3262151
0.6011875
-1.8311795
-0.6411195
-0.1451401
-0.8801314
1.1144814
-0.4709867
-1.6892003
0.1243252
-0.9962491
0.7564242
-0.4355547
-7.0261812
1.4810954
-0.2989566
-0.8021793
-1.2161156
-2.3711884
-1.4506363
-2.3602431
-0.1281980
-0.4882911
1.1997546
1.0121042
2.1011477
-0.8768620
-0.4820184
-0.3757101
-0.6707474
-0.2093508
-1.0117565
0.2313898
1.1591970
-0.7617956
-0.8829314
1.8226278
-0.5424871
-1.1104097
0.4372982
0.4418694
-0.2785622
-1.7397386
-0.3826872
0.2252250
-1.4131995
-1.2978817
1.2842894
0.3493356
0.1243183
-0.5648459
1.8938146
2.3831425
-1.8390048
-1.8978183
-4.6887417
-0.3028662
3.3976672
-1.5718681
-1.6836162
2.8177617
-3.0563111
0.4361594
-1.9169196
0.4418812
0.7961478
-0.5550269
1.9462509
0.2259012
-0.9992728
-0.9037498
-6.3553100
-3.9137709
0.2143608
-0.0457181
-2.3001647
-0.2222177
-1.3190112
0.8310258
0.7554472
-1.1098362
0.9971242
-2.1659393
-1.3928686
-1.9709418
-1.2005169
0.6074424
1.3416536
-3.1232829
-2.9336710
-0.6964187
-0.2344484
0.1576120
-5.0727930
-2.3824627
-2.1531582
0.0918652
-0.9350448
-2.7819324
-2.0912783
1.5706766
1.3256080
-1.1165775
-1.3805227
-1.4384452
-1.3055986
-0.6267249
-1.3677422
-0.3206606
-3.9571784
0.4703674
-4.4458323
1.5116789
-1.1992252
-2.0881455
-0.4864324
1.7438139
3.7015588
1.4760545
-0.9452826
0.3923928
-5.4908185
-0.3687558
-2.8146286
-1.5911309
0.7723331
-5.1646056
1.2769777
-1.5554651
0.5782126
-2.7604082
-0.5339768
0.6551439
-1.1725477
-0.6760530
-1.8583503
-2.5524552
-1.0071925
-1.0633330
-0.3310901
0.6036261
2.7326701
2.6255872
0.8310266
-1.7213233
-1.2539090
-5.0736742
-2.0919840
-4.7281995
-2.0940838
-3.0080652
1.2158045
1.3485137
4.1516914
-2.3924229
-1.2484455
0.0425234
0.8531024
-1.0605400
-2.6523814
-1.1251593
1.7756108
-2.2727218
-1.2308809
3.8965573
0.3348451
-2.0828145
0.5985436
-0.9223753
1.1856421
1.1005434
-0.3571075
0.0075410
-2.5112751
-2.4122963
1.9062471
0.8888305
0.5684730
1.0426043
-0.0877788
5.9898329
-1.9152362
-2.0849357
-2.8539286
-0.7576516
4.9725461
-2.3917563
-3.1612606
3.3421774
0.6697100
0.0291487
-9.5584345
0.0191904
2.1572714
0.4291456
4.1759310
0.2772151
-1.4721433
-2.1329484
-15.9665499
-7.1241493
0.3700791
-0.0452980
-4.2438173
-1.8248725
-1.8870001
2.1911669
0.3731802
-0.7489402
0.6275464
-2.9163413
-2.3783512
-3.0743678
-2.2811167
0.7328250
-4.4024210
-3.3224938
-4.9090557
-1.2401767
-3.7732699
0.3525875
-12.4622974
-3.8722324
-1.0251602
-0.4562809
-2.4580479
-3.8819404
-1.6148010
2.7361887
1.5960277
-2.1609533
-1.2451155
-2.4180391
-1.5626163
-0.4104935
-3.3676164
-0.9801058
-8.4219255
0.9503185
-6.9462256
1.1283412
-3.5719523
-2.8078482
-2.0337441
3.0889401
5.5678587
3.0551400
-1.6129227
0.4329890
-3.7345276
-0.0738378
-2.7347071
-3.7136221
1.9885455
-6.3318548
0.1190007
-2.5986683
1.0326173
-3.8380969
-0.6957126
0.5759760
-2.2033908
0.2435857
-3.5856621
-4.2109313
-1.1560655
-3.7918515
-1.2075658
0.6444445
-3.8194838
3.9197054
-0.0235590
-2.2288222
2.9337893
-6.9051046
-2.8974302
-8.1125498
-3.2493086
-3.7714784
0.6363391
1.3493847
5.7675686
-2.0552094
-2.2929714
-1.1593133
0.8409444
-2.6407998
-3.0599334
-3.0794821
3.1260369
-4.7178020
-1.9375646
6.0879788
0.7135240
-2.7730083
0.4353286
-0.9549545
1.7682937
0.6312582
-2.1424053
0.9875874
-3.6834884
-3.3536661
3.3152726
2.0316744
2.2114010
2.5201547
1.3422171
9.0130444
-3.3228049
-4.3795485
-2.4570122
-0.8602784
8.0749865
-1.7425462
-4.1179242
5.1193070
2.7323799
0.2090783
-7.4254274
-0.0981677
2.8179464
0.6338811
7.2770538
0.6108949
-2.3040800
-3.7151413
3.7998812
-4.2193532
-1.2822646
-6.0978370
-3.8975749
0.1838156
0.7408848
1.6660836
5.3796487
1.9706835
-2.5985909
-1.3612961
-0.5376447
-0.6001864
-1.4685724
1.2870948
0.3153981
4.9930887
-3.6415696
-2.4366336
-6.2447600
1.5223057
3.3927255
-1.6757003
-0.3422061
-4.6412253
7.0515070
-6.3182211
-0.1599125
2.0701089
-1.9789253
-2.1497016
-1.3690089
1.4587055
1.3260491
1.2452097
-3.5246396
-1.4673015
0.5088160
2.1098297
-7.7883115
1.4571501
-2.3954241
-0.9265388
-1.7311313
-0.3695580
3.5593081
0.2647370
-6.3562479
1.1645583
-1.1280974
0.0288410
0.0559652
-1.9580034
-3.6662381
-4.9082508
6.8313794
-2.6259265
1.4840883
-2.8857000
0.1720037
1.4970640
-1.7002124
-0.7049696
-3.3713508
-2.6169441
-3.1311986
-7.5479488
0.4129871
-1.2152799
2.7784374
2.2283628
1.0140547
-4.1938934
-8.3152046
-5.4712806
-0.5948741
-5.0092077
-1.6229113
1.3819904
0.9791009
-7.7226806
3.5126646
-0.3618121
-4.4550228
-5.1102448
0.1415648
-2.4468143
-4.2503200
0.8134718
1.9188888
1.8621773
-1.6951026
4.1992617
0.3622174
-0.8678433
-0.3942780
0.3214237
1.9237720
-0.0083237
-2.6634748
-1.1459148
1.7712981
-1.6054202
4.0414042
2.5443704
1.9703346
3.4605970
-1.1577048
4.9727292
-3.0577006
1.1474186
-0.4698091
1.2545344
6.9504089
-4.8056192
-3.0633070
1.0595886
-0.3910003
1.8619142
8.7492170
-0.2083513
-1.6522555
2.9800949
6.1049275
3.4786124
-1.8638682
-1.7664704
-0.1823678
1.1653453
0.4278264
1.4324263
-1.5966408
1.8183743
-3.0606308
1.1021912
-0.5464520
0.2306535
0.6950323
0.0785688
-0.9087005
-0.9041266
-0.6103453
1.1782056
-5.4016776
-2.3511372
-1.6013385
-0.9951044
-0.4409932
-1.6903666
-0.6535816
-1.9637791
-0.5513703
0.8713239
-1.7450911
-0.8507287
-0.0004378
1.0336211
2.1493304
0.7438439
-4.9281855
-0.0950399
-0.8841496
-0.3327977
-0.8958256
-0.5729592
-3.7827418
0.0962414
-3.1235492
1.8522234
-0.9747062
-0.5350432
-1.7904115
1.0240729
1.6591198
1.0246567
-0.4187042
0.2006183
-3.3968780
0.2350259
-2.8366787
-0.8299007
0.4521010
-2.1886134
3.7036946
-0.1251293
0.7734520
-1.5508854
-0.7072698
-0.0537763
-0.8048728
1.2653763
-0.7833117
-1.4478180
0.2584750
-0.6163250
0.8762770
-0.3335124
-4.3860831
1.5151955
-0.8067987
-0.6234688
-1.7265741
-1.8058318
-1.4295729
-1.3489695
-0.3013520
-0.5605990
0.8919028
0.8549162
2.2113273
-0.7885423
-0.6629145
-0.8077108
-0.4187934
-0.2887329
-1.0536543
0.9224824
2.0232830
-1.4892621
-1.0640266
1.8504432
-0.8192654
-1.3523935
0.7224639
0.6583854
0.1499436
8.2107697
-0.5864080
0.7074729
-0.9636288
-1.1136899
1.2063808
0.1201118
-0.8408746
-0.6948981
1.9355974
2.9370732
-1.9897333
-1.3977342
-5.3349638
-0.3273160
4.0172815
-1.1565068
-1.6535767
2.4059165
-3.4657786
0.8459678
-2.4490676
0.2287946
1.0151116
-0.7932265
2.1544175
0.0823605
-0.9276817
-1.3802371
-9.4942389
-3.6956310
-0.4204250
0.1015290
-2.5511835
-0.4886030
-0.7804008
0.0851918
-0.3760022
-0.7592624
0.7186369
-1.3612956
-1.4683714
-1.6063508
-0.7234200
0.6237603
3.2188261
-4.8566146
-3.5151763
-2.1695433
-0.6467976
-1.4413162
-1.0568594
-3.4908335
-1.1452495
0.9572565
-1.5116231
-2.4574497
-2.0351422
1.9428391
1.2556484
-2.0292993
-1.4423213
-1.2873282
-1.5645919
-0.4699933
-1.8645979
-0.4622710
-0.9718828
-0.2998017
-5.2838054
2.1192234
-2.2305214
-1.9625981
-1.5934618
1.4457351
3.3814681
1.9231611
-0.7221231
0.4546518
-2.7544181
-0.3615542
-0.2732710
-1.6355898
-1.1170050
-4.6273928
3.1503201
-2.2439296
0.8859079
-2.6822989
-0.6340778
0.9040065
-1.7927953
-1.5750788
-2.1289065
-2.4964159
-0.3226905
-0.5115317
-0.0647537
0.5411770
1.7459568
2.2219918
-1.1617802
-1.2118161
-1.3863074
-4.0764866
-2.5039618
-3.2580593
-2.8624728
-2.8559790
1.3049221
1.7954413
3.9315031
-2.2503157
-1.8885720
-0.7471315
1.2133067
-2.7661030
-2.5151348
-1.0485106
3.0251930
-3.8535979
-1.5425470
3.7351935
0.3555342
-1.9774938
1.9837176
-0.6373397
2.2484076
2.9544623
-0.5509391
0.7030694
-1.2481117
-2.1649454
1.3631117
0.4455157
0.1571657
0.8353947
-0.8804221
7.0110908
-1.0660694
-1.9839045
-3.2116137
-0.1475041
5.2387023
-0.9412853
-2.1337361
3.1916726
4.2601132
0.3744052
-5.2229242
0.6835412
2.0598776
0.3896039
4.4318395
0.1233813
-1.2434440
-1.5792223
-11.6867905
-5.1394067
-0.7173612
-2.3331153
-4.0146146
-1.5516242
-1.8676168
-9.9666834
-0.5482560
-1.4160638
0.2645691
-2.1320205
-2.3897216
-3.4231112
-1.1505806
0.5574690
11.8220463
-5.3885889
-5.6858449
-3.5363865
-1.7290335
-2.6844754
-8.7349157
-4.8827505
-0.3896584
0.3030545
-1.9595026
-3.2491431
-1.3219235
3.1396172
1.8305827
-2.3658290
-1.5307102
-0.7019992
-1.2525439
0.3404394
-4.3239655
-0.3902821
-2.3524194
1.4843353
-7.2710738
2.4419429
-4.1317182
-2.9657774
-3.0973039
1.9173985
4.7514405
3.9266465
-1.7456515
0.8877090
-5.3778806
0.2149690
-2.4592350
-3.5642912
1.7758499
-3.4722784
7.2756424
-4.0450230
1.4881176
-3.4403901
-0.6237868
0.9793246
-2.6999722
-3.0413465
-2.8898938
-3.8671134
-1.8405325
-1.8776814
0.0123388
0.8741447
-0.1969804
3.5387068
-1.5835464
-2.3789692
4.4387379
-7.1913109
-3.5920105
-5.8905859
-3.9726698
-6.4066510
2.1655889
2.6505163
5.8121328
-1.7223998
-0.8754324
-2.6556213
1.6074096
-4.3244100
-4.7681336
-1.9412689
5.3550353
-7.1108346
-2.8386395
5.7414927
0.5676219
-2.4750671
2.2441061
0.2388533
3.3019772
2.9985323
-0.7867131
1.2005346
-1.5473182
-3.4879329
3.6925650
1.0730375
1.2899082
1.5966002
-1.9615835
10.1455717
-2.3970866
-3.7075922
-3.9154143
-0.9446034
8.7559242
0.0938679
-2.7749486
5.5553846
6.8350320
-0.2825701
-4.3263555
-7.9979572
2.6430001
0.4911375
7.2165260
0.4063605
-2.2293842
3.6727006
-2.4389291
-0.1605833
-0.0324983
-2.1216724
-0.5717365
-3.5810835
-1.2690806
-1.2730163
-2.6210718
10.0008440
1.5045105
1.7797043
0.8111869
-5.8064399
-1.4315671
-3.4800155
-0.7462391
-4.7666616
-0.8557385
-5.1341395
4.6948662
-0.6585081
-1.4608419
1.5465015
5.1744576
-1.8030035
-2.8229554
-3.8959906
-3.8859105
1.2037503
3.4241104
-2.0317051
-0.9781551
-3.2264724
-1.7233212
1.5992076
-5.5391011
1.6532614
-2.4707770
3.4833121
-9.6482258
-0.1308731
-3.2956691
-1.2958548
-3.8595455
-2.5015388
2.1236656
2.5095048
-5.2392340
1.2887049
1.5266789
-1.5968386
0.4801246
-1.4075378
-12.0857286
-0.5085407
-3.6274526
0.3592053
4.7915697
-0.9452233
0.2575378
-1.0152620
3.2766111
0.0798054
-6.1193271
-3.0703633
2.3522627
-1.8292975
-2.9429326
1.2872912
8.2741709
4.2364459
-0.6067151
-6.5759101
0.7748804
-0.0725848
-1.8126754
-7.7944975
-6.7455096
1.9771965
0.9007825
-0.6982453
3.2723184
-0.7018094
-0.7119653
-0.7313678
0.6725420
-2.4408858
0.7895282
-4.7288570
2.0692928
-8.2669640
-1.9684870
2.5721560
2.2846944
0.8513033
-2.0745163
3.1332531
0.3679686
0.0054224
-0.9578276
0.7354318
-4.7828465
1.2492306
1.2265075
1.8024247
1.5033976
1.3928658
1.9469990
6.2508864
-8.6563282
-2.6642871
-3.8837068
0.1814352
1.9119195
-2.0860071
-2.8514059
0.4534417
0.5147425
-1.2969579
-0.6826866
3.3157420
-0.0925868
-1.7497050
4.7292786
6.3704467
-1.8513384
-1.3626146
0.2508287
0.3150220
0.4550315
1.7808373
-1.7289376
1.6773652
-3.2762785
0.5487211
-0.3095605
0.4603060
0.2847141
-0.0680923
-0.4739258
-0.7456537
-0.6334895
1.2797500
-0.0511095
-2.3491416
-1.6477346
-0.7350331
-0.5612990
-1.8987316
0.5210326
-2.3797445
-0.5680886
0.4291743
-1.4484986
-0.3098392
0.4007388
1.0956044
2.2138209
1.0880189
-4.1600938
-0.0607840
-1.4399046
-0.2637572
-0.8754941
-0.3556400
-4.5453691
0.0809223
-2.9149892
1.7297946
-1.7753340
-0.8925585
-2.3914742
0.9705667
1.6276489
1.3325768
-0.3416677
0.2494944
3.5227516
0.4949878
-2.3241923
-1.2838255
0.0850377
-1.7132488
3.8706131
-0.4902954
1.7480286
-0.9247589
-0.7484477
-0.2385441
-0.7811919
1.3861861
-0.6759849
-0.9853853
0.4592599
-0.7207364
0.2807593
-0.5417901
-7.4613061
1.4348018
-1.2820268
-0.3423824
-1.5048751
-1.4243367
-1.7981143
-0.4621314
-0.3529823
-0.6657010
0.8903457
0.3587217
2.3972857
-0.7902457
-0.1961557
-0.8187943
-0.3189156
-1.0335907
-1.3976967
0.5897180
2.6913636
-1.0984238
-1.0905665
1.5669607
-0.9456643
-1.1229653
1.1392764
0.7779937
0.4498842
1.7699170
-0.4535614
0.6768435
-0.9544476
-1.2229682
1.1222942
0.1601201
-1.0334940
-0.9331835
2.2508516
3.6953590
-2.1510298
-1.8886375
-5.8127732
-0.2189849
4.0651784
-0.5371038
-1.9569238
2.1357913
-0.6132374
1.2661521
-3.8201520
-0.0500932
0.1603613
-0.8954663
2.3079033
0.0624257
-0.8353243
-1.0289097
-8.3033152
-3.6343243
-0.3979744
1.8174696
-2.8830070
-1.0319782
-0.1111927
1.7251636
-0.4372945
0.5421654
1.1217570
-2.0034554
-0.8589799
-1.5639353
-0.4916308
0.5066243
-1.1124231
-5.5224905
-1.6466323
-3.2132201
-1.1812412
-2.7381020
-0.9193618
-3.7865827
-1.6053691
0.4027258
-0.9573609
-1.0911473
-2.6004329
1.4245172
1.5534019
-1.0045421
-1.0397739
-0.9777656
-1.9661331
-1.4989117
-0.2639224
-0.1049782
-3.2402687
1.1875236
-4.5432262
1.9148597
-3.2893202
-2.3136497
-2.7301936
1.1936412
3.0871215
3.1408520
-1.0589615
0.6849996
-7.2158532
-0.4533810
-2.2721508
-2.4621332
-5.0301833
-4.3632030
1.8361435
-2.8106534
1.9786886
-0.9233043
-0.8642206
1.1930996
-2.1109495
-2.4142575
-1.9850726
-2.1252897
-0.3551282
-1.1606503
-0.2112366
-0.2099667
0.4100884
2.2347608
-2.0492227
-0.9440911
1.2531899
-4.3062501
-2.8810153
-1.2242092
-3.0624115
-2.1411555
0.5589655
-0.4243836
3.8504083
-1.4646292
-0.6429321
-0.0172059
1.0701927
-4.3652425
-3.1413414
-1.2578317
4.6425848
-2.3520923
-1.9914328
2.9341285
-0.3318286
-1.7940717
2.7291117
-0.3417427
2.2192369
-1.5978121
-0.1315466
0.5130956
-1.5423614
-2.3761401
0.5384217
0.1216028
0.2843020
0.4116373
-1.9068283
7.4495516
-2.2470324
-2.7431145
-5.0411162
-0.4036168
5.8360510
0.6327893
-2.7785170
3.2518604
-3.4736946
0.3204795
-9.4922218
-0.6590445
1.1072351
-0.7493261
4.3606510
-0.4614536
-1.5322208
-1.2986921
-6.7206502
-5.7056556
-1.3778663
1.2840044
-3.7080102
-1.9394373
-2.0201869
4.8739781
0.1375092
0.9656684
-0.7829031
-2.5404000
-1.1019619
-2.6993952
-2.1490746
0.1658858
-2.6202066
-7.0834537
-4.9253669
-8.9899445
-4.3103361
-4.0871720
-0.7382029
-5.1294026
-2.7626765
-0.0238839
-1.2285451
-1.5316896
-2.7129717
3.1604309
2.1336229
-2.2358441
-1.0681529
-1.6449814
-2.2207770
-0.5071383
-2.0824080
-0.2269413
-2.5780118
2.1603506
-6.2869401
2.5220006
-6.0586014
-3.5133436
-4.0801888
2.2162869
4.3040972
6.3089685
-1.5203646
0.6631812
-9.4815760
-0.0129297
-4.5432248
-2.9774354
-16.3401489
-7.1615558
0.1401747
-4.4125166
3.5734978
-0.9666044
-0.9959824
0.2380241
-3.1802742
-3.2365131
-2.8733275
-3.4444575
-3.7188463
-2.6356161
-0.4077602
-0.3962040
-1.4466827
3.8480282
-3.3074276
-1.1405088
4.0432053
-7.2506161
-3.9183583
-2.6694007
-3.6153185
-3.2624743
0.2740405
0.1522295
5.8508000
-1.0344929
-0.2633365
-1.0517530
1.7838728
-6.2856631
-4.9898496
-3.3605189
8.1489859
-5.6759987
-2.9978111
4.9404945
0.0845818
-2.0357168
3.3767900
0.4846289
3.5100522
0.5897115
-2.7322049
0.5711151
-2.5759852
-3.4710979
2.3355300
0.0712462
0.6759572
1.5485594
-2.2727394
11.9929829
-4.3622522
-5.0591812
-6.2775464
-0.4564274
8.6269131
1.9632597
-2.5701342
5.8641090
2.0146668
0.4989471
-10.0917950
-1.7397515
2.6908267
-1.4773698
7.4034958
-0.9274142
-2.6555626
0.3708879
-0.4054470
-9.5230513
-1.2170302
-4.1652083
-3.1309414
-0.7548094
-2.5440316
1.6257656
1.4568356
-0.7255322
-3.5427485
-0.9885131
-0.6257862
-1.2670064
-2.5066381
-0.4400746
-0.7146482
-1.6997621
0.0084272
-1.0823427
-7.7789998
-2.7445970
1.3427428
-1.0923578
-0.8604040
-1.4899790
-0.5680355
1.1458783
-3.1512451
3.8550854
3.6355124
-2.8308949
0.3681832
-1.9826517
-2.7099836
0.9132245
-0.9654747
-0.4973100
-2.9357247
2.5231972
-5.2011561
-1.1603525
-4.7332759
-1.2965028
-4.5469670
-0.1909948
1.2200150
2.5340979
-3.5414832
-0.9891338
-4.1230774
0.6005133
0.3287357
-2.4220269
0.8247144
-1.1134443
-2.0591218
-4.8491182
3.7286088
-6.8883386
-1.3336519
1.5302252
1.8022929
0.5387611
-4.3340268
0.5778090
-6.4820089
-3.8330696
-1.3503926
1.8680024
-0.8674943
2.3857105
-4.6065440
-5.9141464
-1.0829587
-6.2232962
-2.2664912
-3.8824852
-1.7788697
1.5158501
-3.7759006
1.4165319
4.8045559
-0.4778804
0.5189066
0.8278114
-0.3911038
-2.7484329
-9.0725164
-3.6327133
5.4940047
0.5739287
-2.0094686
2.8616989
-2.3153241
-0.0898314
-1.2035207
0.8817078
1.5967489
0.1751489
-3.6382649
-3.9387929
-5.5264544
-1.4896555
1.5142967
1.3654414
-0.3480979
-1.0829127
-0.4212566
8.2748690
-3.8439186
4.7739968
-6.7870569
-0.9221168
4.7663770
-2.1219337
1.0474862
-0.8187958
0.3346688
1.9217904
-2.2225459
2.0583191
2.6446507
0.9206440
3.8365591
3.8572094
-1.3180323
-1.4527565
1.0258186
-0.2112575
-0.3838339
1.8926177
-1.9285084
1.8822982
-4.6784358
0.1114546
-2.3315725
0.1321750
0.4955789
0.1282140
-0.2844934
-1.0532260
-0.3052902
0.8582034
1.8943312
-2.4766905
-1.2467077
-0.2785634
-0.5523816
-3.4088838
0.0042763
-2.4100165
-0.2949450
-0.4316825
-1.8920203
0.3213737
0.6614220
1.1458492
1.6438332
0.6910071
-3.1820984
0.2496934
-3.2377477
0.8818423
-0.2754390
0.1671950
-5.5741968
0.2256457
-2.2481225
0.9734566
-2.2548902
-1.5878160
-3.0043395
0.6924916
1.4262707
1.0980580
-0.9709890
0.2156627
6.3413773
0.7776297
-2.8991988
-2.3613691
0.8737963
-1.3037475
5.5864401
-1.3384564
1.9602066
-0.7729877
-0.8814838
-0.8602259
-0.5293847
1.9932232
-0.8880418
-0.6282693
0.7674933
0.0836411
-0.0445453
-0.0361301
-3.1828442
1.4236612
-1.4581939
-0.6176149
-1.0700151
-0.7895454
-2.0893404
-0.1612124
-0.0319966
-0.3675703
0.4703688
1.0264007
1.6984874
-0.7122918
0.0931204
-0.9215682
0.0597061
-2.0546412
-1.4413002
2.5632722
2.9428580
-1.2553960
-0.8699513
1.6860029
-0.2942711
-0.8243192
1.4487829
1.0982354
0.8614517
-1.6748258
-0.5189993
0.8666887
-0.7094844
-0.7333087
1.0208117
0.0690139
-1.9371120
-1.9384321
3.0628510
3.4000981
-3.0797453
-1.3896112
-5.6382403
-0.1792023
4.2229576
0.0135823
-2.6106248
1.5016720
-3.1797335
1.5465363
-5.3606024
-0.5704629
-0.8578476
-1.3143326
1.4300954
0.3271702
-0.7036232
-1.1899469
-3.8357847
-5.9277620
-1.9392279
2.6869864
-4.8941016
0.1181924
-0.3517094
3.0451121
-4.2133417
0.6443663
0.2862692
0.0797189
-0.8299960
-1.3950154
0.1719721
-0.4419195
-5.8929534
-3.9167354
-2.1770697
-3.1511807
-1.0316240
-3.6689126
-1.4616082
-4.5323548
-0.8254473
-0.1665743
-0.9064412
1.4525059
-3.6356595
1.5063903
0.8967322
-0.6229454
-1.0573314
-1.8979621
-2.4845576
0.1565234
-1.1483889
1.6834346
-5.9293609
1.5720694
-3.5029004
2.0981114
-4.9723930
-2.8160279
-3.5966542
0.2111425
2.2660770
1.0208298
-0.8084241
0.7497059
-2.7348130
-0.2160719
-1.2227603
-2.1127601
-8.9380865
-3.8954213
5.7733898
-3.3280787
3.7397265
-1.4206963
-0.3338374
0.0694484
-2.5970340
-0.5368784
-1.6698595
-0.3077768
1.7740734
-0.5866709
-1.1051487
0.3189743
1.9049915
3.4281213
-3.3929932
-0.8258626
0.4981560
-3.6505334
-3.5223298
-0.4538955
-2.6678133
-0.9927402
-0.4492748
1.1159050
3.2596815
-1.2054145
-0.8788459
0.8850353
1.6510087
-5.6981435
-4.5875435
1.3497002
5.4463573
-2.5088284
-2.2836730
2.2779331
1.0284497
-1.2721399
2.2415776
-0.2054710
2.9183702
-2.0384107
0.3759359
0.7758530
-0.7422049
-1.0609747
0.5661749
-0.3311113
-0.0606675
0.1962764
-0.4693826
7.6249094
-3.2646203
-2.7189538
-6.1627450
-0.4947896
6.2535400
0.6140823
-3.4754081
3.2645173
-0.0991498
-0.0944122
-6.4009614
-0.4831868
-0.3229849
-2.3305044
2.3354149
-0.7153792
-1.4062052
-0.6170911
-6.7134905
-5.0237579
-1.4813708
3.0890992
-8.5171995
-3.0683630
-1.3694246
2.6963489
-6.8438721
-0.3201549
0.3786688
-3.2134271
-1.2695465
-2.6497910
-5.3641043
-0.7050289
7.1736207
-5.4022098
-1.5079234
-3.1398273
-3.6476173
-5.3379421
-1.2219062
-6.7097602
0.4792115
-0.1314194
-1.3301134
1.2727231
-2.8536828
2.9250793
1.4910225
-2.2873392
-0.9245493
-2.4060781
-3.4428854
1.3791529
-0.5263525
1.8847712
-1.4131742
2.4880998
-2.2464631
0.2787874
-7.8582473
-2.3228362
-6.3695788
-0.0783355
3.0586948
2.2397439
-0.9042977
0.6988927
-7.9080315
-1.7582375
-3.2078266
-2.3099408
-5.9934072
-3.7086856
-5.6886172
-5.9558105
6.3186088
-3.7325673
-0.4764803
-1.6340439
-5.1186876
-2.0432165
-3.6475701
-0.4473253
0.4629400
-2.6759629
-2.9107704
1.6631212
0.6296558
5.0343161
-5.2781005
-0.8513702
-2.0158715
-5.3337560
-3.7842512
0.0949931
-8.1798267
-1.1378411
-8.7615175
1.0587647
4.9860587
-2.0194812
-2.9568231
-6.8208427
2.9210937
-8.3641968
-5.2645149
-1.4991946
7.4012523
-4.6737390
-3.3905067
4.5859852
1.1702465
-0.4511237
2.4296257
1.2149363
4.6845703
6.6952367
0.1445638
1.3593069
-3.5360239
-3.4390013
1.0960997
-0.2361615
0.4481704
0.8698916
-2.3814554
13.3002348
-5.2386732
-6.7042074
-6.4004169
0.4753107
7.7987800
0.0090766
-2.3842592
2.6834669
5.1007681
-0.2901180
-12.2444792
1.5186391
-0.6245257
-2.0673602
3.8198566
1.6822588
-3.1871297
-8.0779343
-0.4503183
3.6776481
-4.1147890
-1.7870636
1.3857353
-2.9246187
-7.4382172
-0.9579725
2.1672022
6.2673812
-1.2444429
4.1829519
1.1025746
-2.4033124
-1.4982318
-1.6627561
2.7977896
-1.6631424
0.5138505
-3.5358889
2.3831666
-1.4908038
0.0072324
-5.9533296
1.1534343
-3.2960460
-0.4066223
-4.6845245
3.3828213
-2.6405101
2.3511343
-13.0600004
-6.4992547
-1.0757960
-4.8175125
-0.6712542
-2.4926157
-4.6210504
-0.1098164
-2.5908527
0.9966512
-0.9568071
-2.0473843
-4.5918093
-1.3960965
-2.7810414
-1.4575032
-3.2620726
0.1939207
-1.3316733
-5.8100629
-3.2230661
-2.7941074
1.9365634
-0.3515725
1.2249366
-5.9560862
-5.8492074
12.0670490
-5.1596479
-0.2925069
0.5293909
-0.4338925
-3.2647433
-2.4222779
-0.7273091
-1.0199469
-4.6221576
-3.2480021
0.6786321
-2.1700501
1.6727716
1.1802343
-2.0874836
-4.9380026
-2.8097358
3.9785807
-5.3804574
-1.0274696
-0.0161971
-0.6409531
4.4167080
0.4160813
-0.2555660
-2.1272559
0.1361079
0.4693083
1.7634103
-0.9414012
-1.4997352
-3.3048909
3.2041171
-3.0040562
2.2013927
-2.1336191
5.3816628
-3.9189460
3.0781891
1.3191041
1.9651161
3.9147997
0.7246291
-0.1574834
2.9149456
1.5844851
4.8724074
0.7618141
2.8353186
-0.9248688
5.2937613
-6.5496168
-7.4979129
-6.2026496
0.8399690
7.0902410
-4.9714880
0.7900220
3.8295310
-3.0999455
-1.2036843
-2.2349815
-1.0063328
1.3753120
-3.1254909
-2.5925140
0.3158085
0.0867318
-1.1482068
-0.6358103
-0.5874546
-0.7119823
1.8415738
-1.1835765
1.9953758
-5.4060416
0.7217902
-1.4446206
0.2675341
0.0439126
0.0500121
0.2880987
-1.1835190
-1.1427913
1.1722604
-2.8508756
-2.4593034
-1.2304461
-0.4753281
-0.1680472
-4.7793555
0.2732330
-1.7540635
-0.8069518
-0.4339337
-1.9323546
0.7284569
1.0555449
1.5572556
2.0805993
1.0012807
-2.4507058
0.2684882
-3.8948498
0.7353041
0.1916515
-0.0111821
-7.3975325
1.0215628
-2.6932883
0.9389879
-2.0190289
-1.6103797
-4.2722850
0.8014274
0.9260253
1.5551482
-0.9829851
0.4177161
1.6983459
0.9053379
-4.1878223
-1.8030463
0.0310800
-1.1126753
3.7603648
-1.1439908
3.0145636
0.0429724
-1.3049558
-0.7189118
-0.1682629
1.7452599
-1.2559830
-0.1994727
0.1700623
0.4848562
-0.0230075
-0.1660828
-5.6348672
1.0392319
-1.9181118
-0.4698103
-0.9098254
-0.2330640
-2.8584445
0.1412978
0.4953790
-0.3204110
0.7671840
1.1290309
2.0760596
-0.7328485
0.1126710
-0.0468254
0.0788387
-3.7498865
-1.4606603
2.2521899
4.0662031
-1.7996542
-1.1375639
1.1953019
-0.7308231
-0.9571711
1.8239309
1.3253152
1.0661391
4.0087576
-0.3718907
1.0263506
-0.9064262
-0.7485533
0.7830071
-0.3264572
-3.1132808
-2.8574755
2.6047029
3.7753372
-4.1094880
-1.2031436
-5.0594211
-0.1325473
4.5899878
0.3399208
-2.6708162
1.3354707
2.3371141
2.0281079
-6.8095684
-0.9582911
-2.1580255
-1.0503805
1.3016527
0.5777166
-0.6913795
-0.8219200
-3.8062518
-4.2594094
-1.5768900
-0.6694441
-3.2234304
-0.9308088
-3.5708845
0.8539899
-3.5165486
-0.3499619
-0.4433956
-0.4544930
-2.6220739
-2.9371250
-3.2901585
-3.7917659
1.1209246
-5.8321323
-6.4097562
-4.1153650
-1.1648144
-6.5714478
-0.5242588
-3.6651793
-2.0054271
2.8854890
-0.5154645
0.0720747
-2.3607302
0.5990382
1.1694132
0.8428196
-1.8181497
-3.8304722
-4.0417066
-5.4820352
0.6261443
0.6321581
-1.5646101
-2.9021609
-2.9637816
-2.3708582
-4.5225673
-3.1011286
-6.3915949
1.2065513
1.1180151
0.6318631
-3.5437710
-0.0201238
-3.1595998
-1.6413594
0.0297836
-3.3374088
-9.3426714
-3.9564722
-0.3944574
-3.2169106
3.0740802
0.3150991
-2.9831057
1.7741081
-4.4239063
-1.0155978
-1.9240174
-1.8753331
-0.9176895
-0.4386948
-2.0789988
0.1970636
-23.5929699
-2.2302299
-3.2610950
-1.1975381
-1.8147172
-3.0682707
-4.0391021
-1.8134673
-1.4327080
-1.3774629
-6.7218528
0.5603278
3.3209755
-1.4327368
-0.5247242
-1.3134681
-0.2411095
-12.0066366
-4.6730714
0.0071357
5.3755431
-4.2265568
-1.9091654
1.1783757
-4.7182093
-1.7390461
2.5621874
-0.4577160
-2.7911882
4.8436537
0.0906139
0.5892321
-2.3264890
-1.6418270
-2.2769356
-2.6791170
-4.2045283
-5.5352273
-3.4615822
7.9004254
-3.9750233
-2.9717422
-7.3943195
-1.0748044
7.6958151
0.8398093
-3.0545962
0.2866819
-4.7364936
-2.3329842
-16.1843796
-1.8380810
-7.4571180
-4.7654414
-2.3257682
-1.7888786
-1.4414378
-1.7541459
-13.8373842
-7.9684372
-2.5033581
-0.4589226
-5.1959419
-1.8231039
-5.0876045
1.9503070
-3.4358964
0.1420274
-0.9048008
-1.7275918
-2.5684040
-3.3171384
-5.0165272
-4.1224022
1.6044837
-6.9481845
-9.5752306
-7.2461662
-3.2312868
-8.4729872
-5.7256846
-5.8815498
-3.1039381
1.7258658
-0.9268100
0.9434850
-3.7946155
2.2926531
-0.4777338
-0.1117077
-1.5605800
-4.1385598
-4.1214204
-5.3880839
0.4880823
1.1574290
-6.6247287
-0.8739229
-5.2279816
-2.9038694
-6.9234319
-4.0260358
-9.0465813
0.4747101
1.6976091
1.2886260
-4.3162508
0.1720636
-12.6699181
-1.8020132
0.0774786
-5.3740830
-10.2571278
-6.2229018
0.4435147
-5.4044261
6.2865343
-0.0064933
-2.7555361
1.0474614
-5.6969757
-1.4804126
-3.0285559
-1.4700752
-1.7835014
-1.0392795
-2.6080489
0.1519660
8.6050100
-0.6934983
-5.5613341
-1.3072592
-0.2205753
-5.1096458
-5.6714921
-2.4900866
-3.1949224
-3.1755798
-10.2644587
1.7296275
5.3983250
-1.2239230
-1.4916972
-3.6986310
0.7178447
-15.9282284
-6.5063715
-0.7054333
9.6792507
-7.0995765
-3.0346801
2.2452705
-4.8919306
-2.2782981
2.7246878
0.0453141
-1.3530278
10.3533497
-0.3885370
1.9795902
-4.3336086
-2.7357538
-1.1788812
-3.1201336
-3.0060406
-4.5527201
-3.2195191
13.4735117
-7.4612498
-3.9164312
-12.3290377
-1.8404794
10.4749050
1.5083503
-3.6269598
2.4232583
11.7700510
-2.7951925
-12.2637119
-1.9604858
-5.8221178
-5.6516209
-0.3861370
-2.2948377
-2.1831017
-2.7402918
-11.5829811
-13.4277115
-1.9709929
-0.8335311
-3.2541163
-0.9427704
0.5388348
-0.9421294
0.2133646
3.4657831
-4.2197542
1.3769398
0.2806086
-2.0586696
-2.6542966
-1.5661736
1.7833486
-2.4909155
1.7119560
-3.9516885
-6.8221283
-3.5384297
6.9077559
-4.5921626
1.4562933
-2.6027684
-0.4015397
2.6714358
0.0644321
4.2056775
-6.6746321
-1.6910009
-2.0901031
-3.3075454
-1.1338419
-0.9132540
-0.1454051
1.0067787
-4.6630769
2.8531473
1.1945730
-0.5531450
-6.0027380
-1.0150129
-6.6210284
-0.1720310
1.1571966
3.8494277
-1.5122372
0.0186872
-2.8908627
-1.2191683
3.6281743
-3.8203530
-7.6422582
-5.8482685
2.7735963
-4.7653127
8.0123701
-1.2040273
0.1732296
-0.4538264
-4.6723166
-3.8820059
-1.5926623
1.9229485
0.1014554
-3.1126845
-3.4715204
-0.5222471
3.2502303
2.3147664
-5.1172118
0.0537797
-4.2420735
-3.8684897
-3.8180618
-1.4017128
-3.1969111
-4.0917134
-10.2913523
-0.0280331
3.8915305
-0.0266146
-1.4631348
-20.9802418
0.8185697
-6.4845495
-5.1903934
-0.8554153
7.5798063
4.4332161
-2.1185534
0.7315099
-2.1719077
-0.9274122
-0.1018928
0.4416391
1.4485855
1.9054372
0.8623620
3.0670741
-5.7492809
-3.1054118
-1.2167249
-0.9921520
0.7436696
1.9449302
-3.5979984
10.9126759
-3.9395666
-2.6777303
-8.8850555
-3.9516885
3.1085267
1.3575062
-2.7629583
0.6831300
1.9460427
0.8090122
-4.6175113
-0.7625066
2.9531295
-1.7020701
5.3248763
-1.2452782
-1.5006799
-1.1129334
-0.2807167
-0.8416589
-0.7994039
1.1927726
-0.9328085
1.6255926
-6.0742607
0.0477716
-1.2717417
0.6449471
0.3879935
0.9805067
0.9101002
-0.6012289
-0.7303796
0.8673872
-4.6788878
-2.7533393
-0.7559822
-1.2020919
-0.1618768
-7.3423724
0.5837373
-2.4795845
-0.6466854
-0.1033836
-1.9364800
1.2458500
1.5146490
1.0148542
1.4422674
0.4739707
-1.1363517
0.5712807
-4.4676738
0.7298658
0.6667554
0.3516895
-5.7459559
0.9246657
-2.9959671
0.6613282
-2.1870315
-2.2069831
-5.1371360
0.5435221
0.1995436
1.2877291
-1.1699553
0.4361127
0.6927702
0.7413263
-3.5214422
-2.4875689
2.9039319
-1.5675747
8.3984509
-1.2277043
2.3878009
-0.1818682
-1.4337229
-0.8712918
0.0228401
2.1081913
-1.5607435
0.1360869
0.1041421
0.8181283
-0.7868153
0.5305380
3.3043408
0.3796684
-1.8983746
-0.4727045
-1.7262372
-0.9474414
-2.9503024
-0.5647926
0.4596502
-0.4283771
0.7209621
1.6469368
0.6179615
-1.1261179
0.2146655
-0.8201690
0.2251637
-4.5028458
-1.8581171
2.5107284
3.9653053
-2.2277408
-1.0754451
0.8272670
-0.7147109
-1.0324119
1.4050150
1.1961124
1.1033485
2.7014296
-0.4117776
0.5696163
-1.2243469
-0.0512449
0.4768757
-0.2217294
-2.7924602
-3.0610805
2.6975152
3.5976672
-4.6063161
-0.4841777
-4.9817429
0.3374797
4.0635757
0.3597769
-3.4439702
1.0347692
2.5582714
2.0857525
-6.9628258
-0.4350742
-4.0772409
-0.8489729
0.3017176
0.4360721
-0.5456779
-1.5248611
-9.2325497
-2.1326942
-1.2967802
-0.2381592
-4.0205269
-2.2801497
-3.1271515
0.8843509
-1.7491606
0.7153976
0.0541230
-0.4927729
-2.1015725
-2.3276906
-2.4756298
-5.7278962
-2.7273815
-4.4665818
-6.8089194
-5.6298251
-0.4873901
-8.1341171
-3.2284842
-4.9727526
-1.4160881
2.0809290
-0.9020471
0.6839232
-3.1133053
-0.8304633
0.7901619
1.2702503
-1.5460659
-2.6769536
-4.6001534
-3.4988821
0.8909010
0.1077868
4.9848609
-2.7542932
-1.6732312
-2.8115010
-6.0888953
-4.3074684
-3.7442026
0.7195034
-1.1243297
1.3170793
-3.6273422
-0.8761324
-9.0457802
-2.4975395
-1.8885690
-6.2827229
0.1032637
-5.3959050
2.1785088
-3.2935047
3.1083586
-0.2816114
-3.9327924
0.1142645
-3.1888616
-1.9605957
-3.6326828
-1.0408185
-0.2334683
0.1505751
-2.6957068
0.5575910
-0.5894457
-4.1466126
-6.2382941
-0.6651667
-6.5561519
-2.4857020
-3.3744326
-2.5803611
-2.1659076
-0.7540188
-5.6809230
2.0542703
1.7730904
-1.5200328
0.1002529
-6.5702395
0.5858124
-10.8132439
-4.9849005
1.4472570
5.3974214
-4.5034995
-1.3266275
0.7501279
-5.0793576
-2.0634789
3.1945527
0.1290999
-2.7422245
4.5435166
-0.7918242
1.7137759
-2.6833117
-2.8845711
-2.5805490
-3.3822210
-2.6892369
-6.8486896
-5.4023366
8.6339741
-5.7657084
-3.2107742
-8.3877974
-1.5453150
7.6603475
-1.3392421
-5.4766750
-0.8615476
-0.7569171
-2.4082024
-5.8964477
-2.4755278
-8.7154608
-3.6336708
-4.4147215
-2.7379694
-1.4475412
-6.7888145
-6.0392761
-6.1959171
-3.2223492
-2.4033103
-6.2904682
-1.5820920
-1.4654542
-7.6127262
-2.6750414
0.8348395
-0.8809896
-4.2032943
-2.3418691
-1.8785000
-2.7055507
-5.1510615
-3.9709997
-3.5448697
-4.2077785
-4.4772358
-7.4134841
-10.5692072
4.3025808
-7.8991203
3.4530129
2.4587948
-1.8813252
1.1053520
-10.4549255
0.8938733
-2.6370201
1.0472834
-3.0424316
-3.3372884
-5.4290261
-2.8962204
0.8452415
1.5556654
0.2292405
-2.6324611
-2.0525339
-3.0913322
-7.3250451
-6.5249901
-7.2869902
-1.7461671
-2.2351058
0.6899260
-2.8618255
-0.0138496
-9.8939018
-3.0743566
-4.1828208
-5.5887799
-8.3126011
-8.0930042
-5.8203011
-6.5462661
5.8168211
-1.4540215
-3.5377481
-6.0929370
-3.9996171
0.5736790
-5.1341634
-1.8408287
-9.5514126
-0.3127061
-2.8626263
0.8967187
0.6596990
-2.5726962
-10.2638950
-1.1252831
-8.1495724
-6.9036641
-4.5724821
-5.8231320
-1.1500318
0.0854208
-10.6494141
0.7419350
4.7124381
0.5268934
1.2039111
-6.8479214
1.5102365
-17.6550694
-4.4265060
-1.6599252
8.4280825
-7.2913518
-2.9919231
0.8462892
-7.0697060
-1.7046330
2.6054113
-0.6204766
-1.0982999
0.0795270
-3.2334099
3.8992159
-2.2207835
-2.6912763
-3.3515677
0.4840416
-0.3005160
-6.3949513
-3.2096069
14.2135258
-7.4599166
-4.9242320
-12.7807293
-0.9630833
10.8908491
-1.8183659
-6.5866308
2.3292644
0.0215408
-0.2567272
-10.5859423
-2.3974640
-9.7207832
-6.0296364
-6.4811568
-0.3696159
-1.2246764
-2.0503373
-0.3097425
-0.2503204
1.4157903
-3.9692860
-2.6916051
4.3420701
1.0343063
-0.2618141
-7.7584391
-0.1052520
-0.6003369
-0.9549308
4.0550075
-5.0560751
-2.5620241
-3.5941012
-0.1908698
-4.1989770
-2.0505762
-2.7261186
2.1826339
-6.8322983
-1.0967242
-3.9098094
-6.3813491
-3.0297523
1.7050025
3.9070399
-0.1155916
-0.7451811
-5.5144682
-2.0817444
-3.2256050
-0.0367316
-1.8216696
-3.2744365
10.1340656
4.4362669
0.0020533
-0.4928117
-6.0089540
-2.3472757
-4.8651862
-5.2879686
-2.7155921
-1.9309512
-0.9290855
0.0067336
-1.3389140
2.8382251
-1.2820677
3.5390704
1.8947282
-1.5029777
0.0493505
-0.1040039
-0.2447592
-3.1486981
10.3821192
-1.7567810
-0.0072088
-1.6246673
-2.7701650
3.4845505
-4.5730548
0.3361400
-2.6036143
-1.4987037
-1.5957066
0.6102076
0.2052578
5.2156258
-1.5559517
-0.4126712
-2.2671247
-0.7420080
-3.9367411
-4.1728978
-1.6446398
3.2088528
0.2280293
3.8467114
3.5460255
-3.9779654
-3.7400403
0.4828994
0.8547465
-1.9362030
-6.1235738
3.3637109
-0.8688928
0.4666131
-5.2341843
0.2178481
-1.5719643
-3.5538807
-1.8475461
1.5167863
1.8599954
-0.1991653
1.6514101
5.1845546
0.7544235
-0.7682748
-0.8832921
0.6362675
-0.1472883
1.6350272
-3.0311160
6.2491531
0.1948797
-3.4330733
-0.0346610
0.6568084
1.8203919
-0.3500367
1.6959630
-1.6993909
0.2010997
1.4783139
-0.6323368
1.0036641
1.5577658
-2.9189487
2.8980358
-8.6237221
0.9100319
-1.5265732
-0.7559019
-0.6709829
-0.7211917
0.6585537
-0.6434292
2.1606762
-6.3357315
0.4166486
-2.0540855
0.7521864
0.2736216
0.9165221
0.9213518
-0.5423448
-0.5552273
1.3168193
3.1506639
-2.4203022
-0.5809541
-1.5075198
-0.1173043
-9.3871393
0.4483306
-2.4652545
-0.6319773
-0.6298697
-1.5747688
1.4680032
1.5717551
-0.0417011
1.3478293
0.7675634
-0.6757770
0.4281841
-4.9955115
0.4681492
0.8739378
0.2405018
-6.2772784
0.9343639
-3.1873448
0.6251863
-2.2973709
-2.5886159
-6.7014718
0.4516817
-0.1445209
1.3914075
-1.4324958
0.1860314
-0.3625821
0.6872661
1.0758315
-2.3979697
2.0057387
-0.7260854
3.9291923
-1.4010465
2.1929920
0.2459695
-1.7898314
-1.5070977
0.0204987
2.2047939
-1.7904563
0.5066259
0.8430250
1.5074801
-0.8103674
0.4423628
0.8465585
0.1140668
-2.2179530
-0.1466531
-1.2794192
-0.8505661
-2.6275213
-0.5232143
0.6652640
-0.3566451
0.6564335
1.2490717
0.2857111
-1.0872841
0.0798028
-1.5232846
0.2195407
-6.2819629
-1.7112455
2.8438232
4.2774100
-2.2504699
-1.2306205
0.2894760
-0.5483930
-1.0791610
1.6140221
0.8570697
0.8931915
0.3140737
-0.2899382
0.7304994
-0.8597227
0.1668848
0.3734995
-0.2605781
-3.8049698
-3.3016255
2.5083447
3.3464301
-4.9961553
-0.4304866
-4.9065166
0.5814861
4.4048657
0.3311044
-3.6526325
-0.3834330
2.4602234
1.3273021
-7.3673487
-0.8083808
-4.7232771
-1.5543736
-0.3614484
0.6694681
-0.5213509
0.1049457
-6.0148325
-2.1112511
-1.2173786
-2.2266896
-3.8804543
-2.5965257
-2.9123003
-2.8748558
-2.6114764
0.4566725
-0.2042947
-1.4011383
-1.9677912
-3.0873065
-3.1806664
-5.8073096
1.4474857
-3.0477624
-5.9308729
-5.9099708
0.0897344
-8.6974459
-0.7596362
-4.4546223
-0.2738504
1.7064391
-1.1760964
0.3771783
-0.3580321
-3.7365568
0.7032801
2.3826785
-1.7804466
-3.9779549
-4.4366570
-4.1345267
1.7118022
1.0300051
-0.0114746
-1.8482904
-2.4468849
-2.7663713
-6.1555939
-5.5937147
-3.2331097
0.0336235
-2.8520193
-0.0993161
-3.8336816
-1.9334369
-14.2064667
-2.8951006
-1.1106703
-4.6718736
-4.2742486
-4.2359104
0.4937415
-3.1273539
3.3273377
0.7474113
-3.8159173
-0.6201382
-3.4247434
-0.1547815
-3.3574991
-1.4769449
0.6186128
-1.0529650
-2.9052615
0.9476855
-0.3554170
-5.1156983
-5.4291277
-1.0070889
-1.5914743
-1.5480816
-4.8633747
-3.5648351
-0.1306398
-0.8245910
-5.9195580
0.7196074
0.0324279
-2.1898756
-0.4004958
-7.0179105
0.6917189
-11.5521793
-5.3516788
3.7313323
6.0047379
-3.0030677
-1.7842927
-0.2402880
-6.9421754
-1.8303803
3.3500960
0.0797733
-3.2820663
2.0658860
-1.6663297
0.6629072
-3.2045226
-2.8978887
-3.5683572
-4.8370919
-2.6477880
-7.2305522
-3.8282630
7.1530685
-4.3863311
-4.9562345
-8.1577415
-0.7855076
7.7559261
-0.1201267
-6.2320518
-2.1773205
3.6749730
-4.6252823
-22.7319183
-0.9866478
-10.3251505
-5.0785079
-7.5807853
-2.1600764
-1.6308533
1.6995021
-8.1927891
-6.5070362
-3.4702318
-3.0687156
-5.5400271
-4.1359711
-3.1744182
-3.4959750
-0.9658591
1.3335233
-1.3320824
-0.4910788
-1.8626966
-2.3136775
-3.4975381
-6.8233051
2.1413546
-5.5861449
-3.7448740
-10.7353725
-4.8306699
-12.8889866
2.8290045
-8.2055960
-4.0633454
0.1271005
-1.1577015
1.6395339
-0.2535844
0.2018756
-0.2429187
2.5701907
-2.5479894
-6.7453384
-4.6695433
-4.3344269
3.2267623
-0.2182628
0.0704188
-1.0153167
-1.8876642
-3.1941659
-7.4531188
-7.1137700
-9.7029600
-0.2156766
-4.6775041
2.2285950
-4.4866767
-2.2349763
-11.5544415
-2.7384140
-2.7665524
-5.4894266
0.2369824
-4.3438239
11.4313602
-5.8794799
6.3360238
0.2273603
-4.2532706
-3.6461916
-2.9452744
-3.2290781
-5.1654110
-0.0766993
0.8023030
-0.0509147
-4.3419690
1.4111130
-2.5117748
-4.7633400
-11.8894472
1.8504313
2.9853351
-3.1598468
-6.5042915
-5.0594134
-0.1419374
-3.4588501
-6.9883618
1.1532097
2.6598270
-1.8168108
-1.5381882
-10.9788408
1.0056007
-16.6522465
-5.4831142
3.0992391
11.4533720
-4.2650785
-3.7174230
0.2813263
-13.3906641
-1.7211668
2.3403547
0.7089462
-2.4578629
-0.2731623
-0.9412960
2.4879832
-6.5132861
-4.4199839
-3.6226604
-12.1320057
-2.3056412
-8.5852194
-7.7261105
14.6123495
-8.9035635
-4.0349998
-10.0706053
-1.8344928
12.7669048
-0.7399222
-4.8155074
-2.7058024
-5.7656832
-5.2574978
-12.2374611
-3.2128928
-10.1899452
-8.0178585
-6.4703240
-1.7914501
-2.6626186
-3.7941258
0.0403406
1.7775466
-6.9427309
-5.6120133
-0.3126009
3.8396578
-3.2480211
-2.6228766
-1.1845840
7.8835382
-2.7750835
-3.4919674
-0.6859074
0.7645791
-4.5771518
0.0906511
-0.3588856
-1.8027047
-0.3688329
-2.7921908
0.0618362
-8.4506817
-0.5752582
-7.4535494
0.3457779
-7.1692400
-8.8195248
2.2832232
9.6852674
-0.1357294
-7.6509733
3.0280299
-1.6651365
-0.5963536
-6.5699835
2.5947824
3.5597982
-5.9804592
-0.7846473
-7.7029395
-9.8682699
0.1620333
-6.8268313
-4.0192289
-1.6724724
-5.5937734
-2.1229789
-6.1993070
-7.0142126
-0.2472073
-6.0648537
-1.0732330
0.0809087
2.4859140
0.0976639
-3.6332309
5.6856241
-2.3943381
10.3051777
5.1461077
0.4733665
-5.5694714
-1.2972041
-4.8845034
0.7745767
1.5324075
5.8715191
-10.6959248
-4.8922801
-1.1975230
2.4047866
-0.1373758
-3.4099908
-1.8041871
-1.5671512
3.0394056
-3.3096700
-4.6223683
1.3587916
4.2393823
-1.2106516
2.3330371
2.2197399
2.2498584
6.5346723
-0.5649412
3.4389524
-4.8547263
-1.7197942
-6.0016809
5.4983540
-3.8458674
-2.8419826
-1.0049316
-0.2715144
2.5389524
-2.4033656
0.6031967
5.9763103
-0.9722909
-4.3484235
3.0817661
-1.9370788
-5.4806676
2.6078923
7.0301299
-0.8197159
1.5281441
-1.1218183
6.1680551
-5.2247891
-4.2869534
-8.8880100
-3.4325926
1.6160803
3.3810477
-7.7316270
3.3354211
-2.1311104
-5.1815557
-1.2480831
2.7905505
10.7649078
1.8825272
-3.7977440
3.7009499
-1.6322050
-0.5707902
-0.7893051
-0.7449298
-1.1631409
0.4388809
-0.6914878
1.8763746
-5.7952642
-0.5507888
-2.5294738
0.2547069
-0.1647474
0.7287434
1.4417638
-0.8357430
-0.8030169
0.9805460
-3.3248863
-1.9967275
-0.1654113
-1.2922347
-0.0497789
-13.3014574
-0.0671933
-2.3282337
-0.2906730
-1.0669850
-0.9951054
1.6110492
1.8875690
0.8898263
0.9111005
0.2646101
-0.6190290
-0.3748419
-4.8114223
0.5287494
0.8552989
0.5665913
-7.8771257
0.2849666
-2.2466483
0.5912026
-2.4090359
-3.1543667
-8.3451633
-0.1957643
-0.7406166
1.0400517
-1.4465351
0.1050788
-2.1822953
0.5921499
-0.5568247
-2.1245060
2.9455907
-0.6565211
2.5765033
-1.4822046
2.6371794
0.3465579
-1.9982139
-1.4451226
0.3442090
2.4433045
-1.6156199
0.5755182
1.1980044
1.1767787
-0.6210853
0.7061871
7.3792620
-0.5405188
-3.1308689
-0.3782723
-0.0775659
-1.1730361
-3.2545824
-0.3102358
0.2909279
-0.3111633
0.6709476
1.4605565
0.5808787
-1.2477922
0.1398073
-1.0003455
0.4169416
-7.4502239
-2.3868346
2.6333985
4.5615182
-2.6938205
-1.2603453
0.2113575
-0.1369365
-0.5865236
1.5577220
1.3567580
1.2995877
1.2258916
-0.6826513
0.4643602
-0.3146500
0.4017152
0.3274342
-0.0658421
-4.1925926
-3.9039342
2.7392919
4.4638109
-5.1432953
-0.2151617
-4.6765261
0.6537428
4.1069732
1.0092493
-4.0465727
-2.5603080
-0.4435481
1.4239126
-7.9720917
-1.5836086
-6.6935577
-1.9630896
-0.4021910
0.3949367
-0.3593977
0.0679800
-10.3026075
-0.5409349
-2.3531561
-2.4733131
-4.1372280
-3.6676295
-2.8415444
0.5054044
-3.6348612
-1.6626234
-0.5090224
-1.0427589
-1.1341007
-2.7757702
-3.8502190
-8.0550604
3.3662622
-2.4666891
-5.8906999
-5.7248497
-0.9462355
-13.6076441
0.1328134
-4.5359907
0.5375459
1.1583964
-0.9400016
0.9860207
-1.6929319
-2.7233891
-0.9338449
1.8756032
-1.8516227
-5.6115732
-6.7460728
-4.1428900
1.3853623
1.1879289
1.2026912
-3.3137503
-1.3854182
-3.2496748
-7.4928975
-5.1701188
-2.3865333
-1.6529139
-5.3135414
-0.5747154
-3.2437460
-2.5627820
-14.6505957
-2.7773833
-0.6239802
-3.0325079
-7.2032175
-5.0939183
3.3213422
-3.4610710
4.5008287
0.1430974
-4.4966888
-0.7255877
-4.9518480
-0.8340047
-3.5275230
-0.6036179
1.8520631
-1.7431947
-2.5263608
1.0978842
-1.0944183
-5.9094167
-9.4368906
-0.9918362
0.1056257
-1.1498801
-5.1723218
-2.9936707
-0.1353348
-2.0029194
-6.2240286
1.1714072
-0.1110239
-1.2520523
-0.1249731
-5.8593416
0.5051548
-10.8999491
-9.7124987
3.9079175
6.6448946
-4.0806422
-1.7049280
-0.7955739
-9.8660030
-0.7611402
3.0286238
0.4203335
-3.1136093
2.0804622
-2.2887592
-1.0765185
-2.1536388
-5.3573685
-3.5859110
-5.0297341
-3.6060243
-9.3129387
-5.6360002
8.0471077
-4.9313598
-2.4770472
-8.3590117
-0.1595872
7.3614783
1.7459910
-7.2734370
-6.1683259
-0.3061849
-6.4589057
-9.5812216
-3.4609268
-14.4456263
-4.7898021
-9.3039618
-2.5807574
-1.3608392
1.8203374
-4.8431349
-1.6799285
-3.3216772
-3.0697057
-8.2179585
-4.5439286
-2.7020054
0.8146858
-4.6916490
-2.6460984
0.8844867
-2.7889254
-0.8937406
-5.1235609
-4.6327534
-10.1551123
5.8313169
-1.5724856
-4.6074471
-10.4723415
-1.6326882
-14.7781429
0.4972727
-9.1346521
0.9713017
1.7749133
-1.9477926
2.9466965
-9.8757019
0.0815948
-2.2716913
0.6606879
-0.8300919
-4.4473939
-7.6879129
-4.5262747
5.0725770
2.3539829
-2.0359898
-0.0114530
-1.7258523
-4.9927506
-8.8397589
-5.9925232
-14.4043198
-2.9552951
-7.8080335
1.2342528
-3.2860789
-3.6479173
-6.2094111
-3.3766165
1.4946582
-3.3217442
-1.5829518
-3.5743279
9.9221563
-6.7187123
9.7479706
0.8386129
-4.1445403
-2.5285883
-5.0756879
0.7671336
-4.2972646
1.1329683
3.0760939
-1.9702533
-3.1569126
0.7618538
-2.3802152
-2.6597571
-13.1912746
-1.1756628
-0.6580058
-1.5174124
-6.7579985
-5.3159652
0.0336788
-1.8747518
-4.0078096
2.1918373
1.5245680
-0.8222272
-1.8971823
-11.9623461
0.9978387
-18.1565533
-11.6261930
5.8276954
12.3336391
-3.3534112
-3.1742449
-0.2433669
-12.0079708
-1.0375240
3.5324175
2.2363582
-1.8655611
-0.6976033
-0.6584609
-0.9037371
-2.1722293
-6.8597965
-2.6545148
-8.8546057
-1.7243037
-8.6987238
-3.8960938
14.3798647
-9.6937447
-5.2215638
-10.6845722
0.8162578
11.6908712
2.1586711
-8.0155392
-4.6760960
1.7526156
-6.0522466
-12.6107397
-6.3290834
-11.6701050
-8.4882832
-10.6556578
-2.4449036
-1.7675676
1.8886771
-3.0992458
-8.1428957
-0.4182890
4.9364901
-2.7415643
-3.4183540
2.4064569
3.5351772
-1.6342024
5.8203826
-0.1553204
-9.7156639
5.0419002
-2.3146431
-1.3425502
2.9955721
3.6127980
2.0905237
0.3910049
-3.8164518
-3.5357549
-5.6453252
0.3026463
-2.2618990
3.8227639
-0.5437020
-0.0365528
0.9815252
7.5320640
-4.5815873
-7.6938739
-4.9039183
-8.4520321
0.0576433
-2.2226853
-0.6307115
-5.6935406
-0.3569460
-0.6988565
1.8866138
-2.6967893
3.0282524
-4.4324479
-5.5093307
-2.1042759
-1.8144732
3.2222762
-0.2269094
-0.7292869
-0.4797892
1.4341730
-1.7499739
1.1182605
-4.3567147
0.1293845
-1.1739682
-3.8135240
-2.1849296
10.1082478
-3.3898315
-0.5245003
-2.0795193
1.3599066
4.7570577
-1.4517078
0.5332522
-4.0714521
-13.7849092
-4.2203970
4.6866641
0.0431295
-0.5003682
-2.7613695
-5.3081341
0.0467351
1.0227686
-11.4142942
-5.0968142
-7.2236586
-3.5282357
-0.6778250
1.0214835
3.0709746
3.5052850
2.2680945
-0.4668943
0.5771552
-2.2995200
-2.8733227
-3.0241408
10.2971439
9.3640289
-2.3282542
-0.3324318
-4.8115320
-0.5408643
5.7365875
4.3180599
5.2751751
-0.2944782
5.6510086
7.8834672
-3.6290212
-3.8793435
-5.3511882
0.1963858
-0.3903076
-3.8506751
1.2376235
9.8209457
-7.0505738
-1.5497985
-8.5362358
-0.6987560
5.0798321
1.4861373
-3.1752150
5.0405464
1.0174539
-5.0120544
-2.1305106
-0.3129432
0.7354054
-1.2180135
2.1252193
1.8675144
-2.4292252
0.3216933
-0.5927757
0.0794497
-1.3296847
0.1056136
-1.6128464
2.1665080
-7.1640849
-0.2019502
-3.1105230
0.0433305
0.2672166
0.3861995
1.4879700
-1.2803574
-0.9218568
1.3351451
0.6913871
-1.0274389
0.2644455
-1.0678259
-0.5701485
-13.8378439
0.5802903
-2.7535868
0.3058557
-1.6192248
-1.1304972
1.9035202
2.1344390
-0.8253719
0.4809431
0.4950922
-0.7639475
0.9089827
-5.3848643
0.4784262
1.4014895
0.5413586
-7.5626469
-0.3384455
-1.3399029
0.2944580
-2.1346865
-3.9271965
-9.7375135
-0.8887179
-2.4812679
0.2583339
-1.1841338
-0.7555466
-8.1320915
0.0047445
-1.9505963
-2.4512460
4.9159451
-1.0688338
-0.0916738
-1.6887368
2.3506877
0.7843119
-2.2806475
-2.1604309
0.2796456
2.7505383
-1.6449386
0.3927596
1.1838249
1.6729221
-1.6387229
0.7942821
-1.1777335
-0.2177994
-2.3013947
-0.6842641
-0.1813357
-1.5049516
-2.0034966
-0.1676277
0.3608141
0.0889032
0.6827213
1.7422566
-1.4402206
-0.7864097
0.3482866
-1.0340493
0.3224403
-9.0500650
-2.1877186
2.2278521
4.5443134
-2.2542963
-1.4404181
-0.4756718
-0.5041807
-0.3196245
1.3747696
1.1625557
1.2133745
5.8850040
-1.5530477
0.3655893
-0.5833136
0.4923081
0.0065618
-0.0923015
-5.9669366
-4.5011978
3.2580326
2.6945477
-5.4615998
-0.5261843
-4.7101583
1.0384182
3.3188262
0.7492030
-5.2459822
-3.2377303
4.4818134
1.4955177
-8.5299053
-1.4383651
-6.3141932
-2.4055133
-2.3656087
0.9011502
-0.2810279
1.5899279
-8.3964243
-0.4478883
-2.9251215
-4.2601457
-4.5348024
-5.2721643
-2.1204650
-1.2213556
-3.6073902
-0.4417601
-1.2971745
-2.1879869
-1.7720059
-3.5103695
-4.1184502
-9.0373259
-0.7048524
-3.2063549
-5.5531979
-7.0518503
-0.9816836
-13.1526031
-3.8642471
-4.2107434
0.7503176
1.2205113
-1.6844590
0.9317917
-0.9434060
-5.9484830
-0.4616710
1.6311620
-1.5383481
-4.8154030
-6.3121238
-2.8161018
1.7704594
-1.9000716
3.3000376
-3.8496132
1.4130474
-4.1524777
-8.0541430
-6.0676160
-4.5328336
-2.6422689
-8.0762444
-3.3711782
-4.1240239
-2.8365910
-10.8423977
-3.3533342
-0.7312360
-4.5835876
-3.8630536
-2.3475657
-3.2542610
-3.8637152
3.9255350
0.9121927
-5.8225269
-2.5966084
-3.8847387
-0.2100468
-3.6820610
-1.2654871
1.4858745
-1.5499994
-4.2523546
0.3019772
1.8891128
-5.5399027
-19.4947186
-1.3857204
-2.0142586
-1.8662465
-5.1956940
-2.3663087
0.4804382
0.0543712
-4.5818834
-1.0389893
-3.1572249
0.0482290
0.9455788
-5.3546386
0.3568461
-7.1224346
-8.3547764
0.3182741
5.1111460
-3.7299514
-2.1415129
-2.0617087
-12.6731243
-0.9206915
1.1611359
0.3944430
-3.8284800
-2.0888965
-4.8663020
0.6578912
-2.0738103
-5.1123595
-4.0280423
-4.3696942
-4.0909925
-11.4185352
-5.5972042
5.2209125
-6.5302796
-3.7619154
-9.5580368
-0.0295601
6.2662730
1.3259143
-9.1828604
-5.0122137
2.3298898
-7.7326169
-19.2411976
-2.6591649
-14.0879536
-6.1229558
-14.6234694
-1.9835007
-1.3869270
1.4509085
-3.8242285
-9.2320518
-3.2728214
-2.6456380
-5.1300297
-5.6820955
-0.8401868
-9.5417738
-3.4142799
1.2795098
-7.9820771
-1.8098013
-2.7838655
-3.2645509
-4.5109410
-12.1664705
-2.2628918
-2.7224922
-1.8931185
-12.3689222
-4.7461219
-14.4580193
-4.1768203
-7.8789353
-0.0344105
-1.8868580
-2.1858873
2.6012990
0.6797081
-3.3168628
-1.9367125
0.0255737
-3.1969309
-4.4384780
-6.1402392
-3.5761075
3.1400006
-0.2618435
12.9567204
-5.3415370
-0.4349934
-4.3431497
-11.5731058
-10.6008177
-10.4938021
-4.6145883
-10.7993689
-7.1119170
-4.1400213
-2.7949386
-13.3915453
-4.0820231
-1.2997684
-2.8593006
-4.9700360
-4.9197736
-0.0463156
-6.0096197
10.1317043
1.3235987
-5.4764743
-6.4040828
-1.4387257
0.1263254
-6.6139641
0.0139866
3.9940631
-1.0101745
-5.0115185
-0.4745110
-0.8063344
-5.2808003
-12.7105017
-0.7899211
-0.1670100
-4.5283060
-9.4172449
-0.8035593
-0.6980885
-0.7356836
-6.1693988
-1.4690952
-2.4908364
0.1177382
0.2592137
-6.1643848
1.7164713
-10.5387535
-10.8149872
-2.3972437
10.4979620
-9.1023731
-3.0953529
-2.6712551
-15.7531061
-0.9959006
1.6321367
1.9666022
-2.1118486
-0.0157476
-4.1598468
2.0152040
-2.4552276
-6.0402589
-5.8046489
-4.4272218
-2.1579337
-11.8038044
-4.7710032
10.4953289
-8.7424107
-4.3319244
-17.9485302
1.1812246
10.2809744
1.4718051
-8.6225777
-2.7535203
5.0744820
-6.3984776
-8.3844881
-0.0018576
-12.1108398
-6.0384493
-17.0468349
-1.3659953
-2.0255575
1.3220206
-0.0543252
-5.7572269
-2.4243729
-1.1599979
-0.7078729
-3.2963560
0.1235194
-3.1426475
6.5336738
-0.6755455
-1.7355334
2.7044785
1.3772244
-8.0184727
1.6584376
-4.3050332
2.2768264
-6.2558694
-1.1533338
-2.9909604
-0.9855085
-4.0795503
-0.0859386
-3.4607649
-4.7594500
-4.6926141
-1.7788781
3.8364713
5.6258769
-0.5806022
6.9462147
4.8211823
-2.5066490
-0.8026465
-2.7503390
-1.6243947
-0.0807339
-5.8862791
-0.7303942
2.3235710
1.2129294
-0.6832483
3.7629240
-4.5202866
-2.8880503
0.2162708
-4.7637858
-0.7180892
-5.5299067
1.7052228
-6.6054263
-0.7888596
-2.4584341
-6.3166580
0.6369675
-6.0137367
-1.6844714
-3.5782363
13.6680660
2.5799193
-0.2749733
-2.2412908
3.0023825
3.0444965
-5.6141262
6.7520709
-6.7361245
-1.0693736
-3.7468419
-3.7943943
6.1043324
-0.1884708
-0.3720686
-3.1088979
-0.6898918
0.3492081
-6.1360559
-2.4320006
1.1263360
0.0777317
0.8067230
-6.3961778
-0.3736986
0.7862850
1.6477237
0.9625853
-2.9885135
-1.7568759
-4.3554387
-0.7446753
2.6794696
-0.9042689
-2.6574016
-0.1785314
-2.4995892
0.2359849
0.0623613
3.9160573
-3.6324153
-0.1776531
-0.0667066
7.5644188
-1.9755781
4.4232774
-4.0922637
4.8149099
-4.8377285
0.2546488
5.1263680
3.2820008
3.0985911
-0.4963078
-6.1499310
4.6359410
4.4724936
-9.6194534
-6.4748344
4.2323852
-1.3748167
-0.4012218
-0.7724689
-5.4782219
-0.9775278
-4.3357496
0.2398371
5.4115057
-1.4334314
-0.3093995
1.1989290
0.2026453
-1.6839528
-0.2755162
-3.8996615
2.6293085
-7.6036000
-0.2027736
-2.8346174
0.0471784
0.0821401
0.6744367
1.4385338
-2.3331165
-0.9446874
1.6568683
-7.2668200
-0.4549693
0.1928103
-1.3837302
-0.7818935
-14.1150446
1.5277616
-2.6917913
0.1144417
-2.0361457
-1.3132827
2.0623081
1.4943014
-2.0677338
-0.3712990
0.0702188
-0.5488160
-16.5846729
-6.6292005
-0.0161665
1.7038780
1.1423833
-6.5351539
0.1043231
-1.2659181
0.2160882
-1.8883866
-5.7791762
-12.3496857
-1.2409176
-2.7832279
-0.0274123
-1.5641910
-0.8962026
-2.2473385
-0.1846099
-0.7926546
-4.8680491
2.5307455
-1.3740449
3.9149966
-1.9259511
2.6723070
0.8908729
-2.6536171
-2.2310524
1.5813615
1.8850331
-2.0275240
0.5810416
0.9451614
0.8310891
-2.6451473
0.7254664
9.6923771
-0.3264563
-4.6796679
-4.0846200
0.8120650
-1.3130658
-1.1844957
0.1158902
0.4751675
-0.2907619
1.0108247
2.4292252
-3.9881556
-0.9149141
0.2877737
-1.5033998
0.4594094
-11.9662313
-2.3588710
2.7482648
3.9246688
-2.8819990
-1.0373211
-1.0423476
2.7399116
0.1473078
0.4881958
1.2061659
1.1616251
-7.3291221
-1.4806074
0.0444069
-0.3662391
0.1501626
0.1008585
-0.2553813
-6.5846419
-5.6378264
2.4209836
1.9865739
-5.7648029
-0.0563564
-4.5794873
1.0543575
1.8463068
1.0913723
-6.1782589
-3.6549542
0.0311075
1.4921184
-7.6251807
-1.7568103
-6.7182989
-3.4165525
-3.5411010
0.6760091
-0.2098279
0.0272098
-5.1755838
-0.0427196
-2.3263865
-4.3527160
-5.0784025
-5.4486718
-1.3777496
-0.9133420
-5.9966125
-1.9629439
-0.9261317
-4.5237947
-1.4773519
-5.1721954
-4.6310382
-11.5819683
2.1557691
-0.1636774
-4.8227773
-7.4764457
-1.9435344
-15.7708273
0.8356538
-4.6735930
0.7648565
0.0481229
-1.3768680
0.3835315
0.1826681
-9.2470713
-3.2125478
1.0379101
-2.7878587
-10.2969217
-8.3292418
-3.5356884
2.3967593
0.1844976
-5.4206710
-7.0600605
1.4656403
-4.2857542
-9.4214563
-5.4198194
-7.4711204
-4.9325852
-12.1100206
-5.5418386
-3.7074223
-4.1669440
-11.2186527
-4.1769896
-0.0454552
-4.4644837
1.8772123
-4.7278638
3.7727759
-3.4663410
4.5360713
1.1397918
-5.7914195
-3.9410183
-3.9947231
1.5200009
-3.8723545
-1.0750885
0.6025439
-3.2035265
-5.1642447
0.5761013
7.9897833
-5.2030182
-14.6303129
-6.1952491
-3.6492631
-2.2029982
-4.7192287
-1.4602206
-0.4951928
-0.6483209
-4.3260789
-0.6179126
-6.2464743
-0.6682559
-0.0369465
-3.1734910
0.5694079
-9.0650730
-8.5350780
3.9090967
5.2310972
-5.1681600
-1.5888560
-3.1441627
-38.4024429
-0.7681049
-1.0492417
0.0949824
-4.0761395
2.1722031
-4.4585972
-3.8112185
-1.3673409
-12.8287516
-4.1389394
-5.0455852
-4.9352446
-12.4951258
-2.9118030
0.7615482
-10.6392040
-2.8216376
-9.0187941
1.3163364
5.2250991
0.9398382
-8.6482229
-10.2878723
2.9406469
-10.8243790
-18.0917664
-3.0570903
-16.1028767
-5.7475781
-17.6347733
-1.4267570
-0.9738439
0.7434555
-1.9992435
-4.3787255
-4.6046462
-3.9377456
-7.5503883
-7.4962153
-2.1025212
4.5794926
-6.8777695
-1.1005876
-1.9283063
-4.0639501
-0.7064336
-6.3056145
-5.8634415
-13.6887655
3.0386822
0.9677582
-6.3349285
-7.2317386
-4.8736124
-17.3836231
-0.9526129
-7.7937136
-2.7826717
-2.2186048
-2.4746318
2.3329823
-0.1321418
-10.2421446
-5.4007158
1.0353807
-1.4322481
-14.1103020
-9.9197645
-5.2769604
4.8928118
0.9392154
-3.0895677
-4.7807460
1.0866718
-4.7719655
-13.2400103
-7.5031819
-11.5255260
-7.2354870
-15.2886515
-9.5574284
-3.7899337
-5.3752680
-8.8729458
-4.0813169
-2.3642380
-7.2564955
-2.2478788
-6.3006783
0.0811836
-5.3129191
8.6107254
1.6599497
-6.2908072
-9.0368261
-3.9833076
-0.1131982
-6.0139952
0.3328328
1.0911990
-5.1175919
-8.4964361
1.1039392
-1.6476932
-3.9939208
-17.2927036
-4.9605455
-5.3628907
-3.5999732
-8.1848888
-1.9366078
-2.4132028
-1.0715531
-14.2342558
-4.3390441
-4.8536072
-0.9138566
-0.7655026
-14.5487137
1.2620002
-11.3334522
-11.6906757
3.7300529
11.4494286
-14.8409462
-3.4715481
-4.1267352
-34.5445251
-0.4836618
-1.6319540
0.8346382
-2.0556314
4.7894793
-3.8432808
-2.9121678
-0.7008955
-12.3065472
-5.3126473
-3.7310393
-4.3775821
-14.1487303
-4.0574870
6.2780662
-17.3980350
-4.5793214
-16.5786285
2.3329408
9.9892616
1.0384071
-10.2370815
-12.2587414
0.6712650
-10.0233479
-18.4483471
-2.7609329
-13.8407001
-5.9280128
-22.1472263
-3.4484799
-1.3847685
5.4962101
-2.2815225
-8.0657787
-6.0398064
-0.6570867
-5.9237828
-10.6667910
-3.5740478
-8.2528887
-5.3750982
3.4123123
-2.9561374
-8.3340912
-2.0969057
-4.1477237
-7.2621660
-11.1421776
2.6508257
0.3375606
6.5926657
-7.9777536
2.5898120
-9.8051443
-4.4001412
-2.4423318
5.8812432
-4.1902781
-0.5814292
2.4385612
0.3702948
-6.6815543
-2.5612984
0.4139711
-4.4650898
3.3078413
-1.4982026
-0.9299073
2.1091683
-1.8412941
-1.1217815
7.3656988
1.9435565
-1.3531678
-8.1591825
-2.2243350
-3.0001359
-0.7816488
-10.5544653
1.1841683
-7.6352839
-3.0432642
-9.8886948
-4.1918440
-2.6699181
-4.1314316
0.4325077
-0.6373665
-1.6750773
-5.0534768
3.1292937
-0.6190033
-1.5055884
-3.5734770
5.3954439
1.6735862
-3.7697828
3.5818310
4.6856556
-7.9023175
-3.2968712
1.4220693
1.8638256
0.3667844
-7.6380706
4.7010369
-2.5819759
4.1018925
-6.2301531
-2.0807343
5.6485462
-1.4174420
0.4568809
3.3864846
1.2555834
-6.0510225
0.0904479
2.2999604
4.8369813
-1.3973950
-5.4681420
-2.6177216
9.4662123
2.4027770
-5.5116448
-1.9212879
-1.3276777
-3.4349041
0.8999994
-0.7507813
2.9905901
3.1231692
-3.2013047
5.7765107
1.3294579
-5.3902493
-6.4002976
4.0007505
-0.3540893
0.3070395
-7.6277189
11.7892475
-2.7373900
-4.2565489
-10.6722012
0.6458686
7.0170789
-1.3705500
-1.7505696
-1.4431083
10.6390562
0.1309367
-1.2699095
-5.5280352
0.7288647
-4.4498343
-8.7388706
0.5654597
-2.1541746
0.0809384
1.4931819
0.2576277
-1.6692504
-0.7713840
-3.1295803
0.6712766
-16.2666416
-0.3396260
-1.3358070
0.2763713
-0.8069066
0.2783612
1.3019704
-0.8214536
-1.4434738
1.2619215
-6.6751695
0.5919806
-0.5231900
-1.9173006
-1.3574368
-12.7226543
-0.0161442
-2.4537621
1.4764339
-0.9205828
-1.2479221
2.6092579
-1.5128849
-7.1578646
-0.6737013
-0.1593034
-0.8541919
-4.8224134
-2.1362181
0.2063110
0.3595783
-2.2724347
-12.3817921
-4.1363950
-0.7606401
-0.2599336
-0.6963792
-1.6588463
-15.9454985
-1.5329689
-4.4876590
-2.0728574
-1.7095557
-2.0263736
-10.1394339
-0.0334980
0.0194719
-1.5140852
3.6821415
-1.4789728
-0.6251499
-1.8187888
-3.6021752
1.4098178
-7.3563251
-4.0428061
2.8750591
0.5299750
-2.5040505
4.2374496
1.0487436
0.6445061
-4.7572403
-0.1889917
0.4635364
-6.7231588
-7.8202190
-4.8945961
2.3280885
-3.3304300
-0.5613754
0.3683335
0.0343065
-0.3296263
0.7630916
0.7937036
-7.9976931
0.3149194
0.9432466
-1.0440418
-1.1484358
-15.0017357
-2.1793039
-4.7490926
0.8427370
-1.7204320
-1.3342856
-1.3895293
2.6241975
-0.0761809
-0.5292725
1.1793660
0.8766565
1.7220434
-1.0868090
1.9716306
-0.8162951
-1.7608418
0.0473586
-0.9474353
-10.5912809
-3.1868215
-3.9430048
-4.3840547
0.0590490
-0.3744270
-4.2416120
0.2125531
-1.3294643
2.6868222
-5.9620852
-5.5270524
-2.4540415
0.1035480
-8.8556967
-1.9847310
-5.1391945
-6.0096531
-4.9504280
1.0313218
-0.6613809
0.4654855
